,,,0,1,2,3,4,5,6,7,8,9,10,11,12,13,14,15,16,17,18,19,20,21,22,23,24,25,26,27,28,29,30,31,32,33,34,35,36,37,38,39,40,41,42,43,44,45,46,47
p001,f,ang,-75.1295336788,-0.518134715026,132.124352332,-100.0,-100.0,-25.3886010363,-75.1295336788,32.6424870466,-100.0,-75.1295336788,82.3834196891,115.544041451,-100.0,7.77202072539,74.0932642487,-100.0,-75.1295336788,32.6424870466,-100.0,32.6424870466,82.3834196891,-100.0,-0.518134715026,-25.3886010363,-25.3886010363,-66.8393782383,190.155440415,32.6424870466,107.25388601,32.6424870466,115.544041451,-0.518134715026,-100.0,-100.0,-100.0,32.6424870466,82.3834196891,7.77202072539,-25.3886010363,-25.3886010363,7.77202072539,7.77202072539,7.77202072539,107.25388601,-100.0,82.3834196891,107.25388601,82.3834196891
p001,f,dis,-22.3300970874,94.1747572816,-6.79611650485,-100.0,-100.0,39.8058252427,140.776699029,78.640776699,-22.3300970874,-100.0,101.941747573,-100.0,78.640776699,70.8737864078,55.3398058252,-100.0,55.3398058252,-53.3980582524,-6.79611650485,-100.0,-100.0,164.077669903,171.844660194,39.8058252427,-61.1650485437,32.0388349515,8.73786407767,-100.0,-6.79611650485,-100.0,296.116504854,-53.3980582524,47.572815534,-6.79611650485,117.475728155,32.0388349515,-100.0,-100.0,133.009708738,-6.79611650485,-100.0,-53.3980582524,-6.79611650485,-6.79611650485,-53.3980582524,-53.3980582524,-100.0,-37.8640776699
p001,f,fea,55.9566787004,-100.0,-100.0,-100.0,38.6281588448,-100.0,38.6281588448,177.25631769,38.6281588448,55.9566787004,177.25631769,55.9566787004,21.2996389892,55.9566787004,159.927797834,55.9566787004,55.9566787004,-100.0,21.2996389892,55.9566787004,-100.0,107.942238267,21.2996389892,-100.0,-100.0,-100.0,21.2996389892,38.6281588448,21.2996389892,194.584837545,-100.0,-100.0,-100.0,38.6281588448,177.25631769,55.9566787004,-100.0,-100.0,-100.0,-100.0,-100.0,194.584837545,-100.0,-100.0,21.2996389892,-100.0,21.2996389892,21.2996389892
p001,f,hap,25.9259259259,77.7777777778,-11.1111111111,-62.962962963,-25.9259259259,-100.0,107.407407407,-33.3333333333,-100.0,107.407407407,55.5555555556,-25.9259259259,40.7407407407,-40.7407407407,-62.962962963,-48.1481481481,-3.7037037037,11.1111111111,-100.0,-70.3703703704,18.5185185185,77.7777777778,-70.3703703704,-70.3703703704,-33.3333333333,18.5185185185,-55.5555555556,-25.9259259259,3.7037037037,18.5185185185,-55.5555555556,-92.5925925926,85.1851851852,11.1111111111,40.7407407407,129.62962963,-100.0,129.62962963,-25.9259259259,85.1851851852,-25.9259259259,151.851851852,-40.7407407407,-100.0,137.037037037,-100.0,18.5185185185,129.62962963
p001,f,ntr,-82.3853211009,-82.3853211009,14.495412844,67.3394495413,32.1100917431,-100.0,-100.0,-73.5779816514,-100.0,-29.5412844037,111.376146789,-29.5412844037,14.495412844,67.3394495413,14.495412844,14.495412844,-82.3853211009,-55.9633027523,67.3394495413,-100.0,-100.0,-47.1559633028,5.6880733945,-29.5412844037,40.9174311927,-3.11926605505,14.495412844,-100.0,-64.7706422018,40.9174311927,32.1100917431,190.642201835,49.7247706422,181.834862385,76.1467889908,-100.0,-64.7706422018,-29.5412844037,76.1467889908,-100.0,14.495412844,-100.0,340.366972477,5.6880733945,-38.3486238532,-64.7706422018,181.834862385,23.3027522936
p001,f,sad,95.9183673469,-100.0,-100.0,-83.6734693878,-100.0,-2.04081632653,-34.693877551,46.9387755102,-83.6734693878,-2.04081632653,46.9387755102,-83.6734693878,95.9183673469,-100.0,-100.0,63.2653061224,-34.693877551,-100.0,95.9183673469,-2.04081632653,63.2653061224,-83.6734693878,-100.0,-2.04081632653,-2.04081632653,340.816326531,-83.6734693878,-2.04081632653,-34.693877551,112.244897959,259.183673469,46.9387755102,-2.04081632653,308.163265306,144.897959184,-2.04081632653,-83.6734693878,79.5918367347,-18.3673469388,-34.693877551,14.2857142857,-83.6734693878,-34.693877551,-18.3673469388,-83.6734693878,-34.693877551,-83.6734693878,-100.0
p001,f,sup,90.3083700441,69.1629955947,-57.7092511013,-78.8546255507,48.0176211454,-43.6123348018,-100.0,-57.7092511013,26.872246696,-43.6123348018,-100.0,132.599118943,125.550660793,-1.32158590308,26.872246696,-78.8546255507,90.3083700441,40.9691629956,26.872246696,-22.4669603524,-100.0,-15.4185022026,-22.4669603524,48.0176211454,-100.0,-1.32158590308,5.7268722467,-57.7092511013,-78.8546255507,-1.32158590308,188.986784141,132.599118943,-100.0,-100.0,-100.0,-78.8546255507,-15.4185022026,69.1629955947,-36.563876652,83.2599118943,83.2599118943,12.7753303965,5.7268722467,76.2114537445,132.599118943,-100.0,-15.4185022026,-8.37004405286
p001,m,ang,,,,,,,,,,,,,,,,,,,,,,,,,,,,,,,,,,,,,,,,,,,,,,,,
p001,m,dis,-79.7183098592,41.9718309859,-79.7183098592,82.5352112676,62.2535211268,-100.0,-79.7183098592,156.901408451,-100.0,190.704225352,-100.0,-100.0,75.7746478873,150.14084507,102.816901408,-66.1971830986,41.9718309859,-59.4366197183,41.9718309859,28.4507042254,-100.0,1.40845070423,41.9718309859,-12.1126760563,170.422535211,-12.1126760563,-100.0,8.16901408451,-32.3943661972,-12.1126760563,177.183098592,-100.0,62.2535211268,-100.0,28.4507042254,48.7323943662,-59.4366197183,1.40845070423,-100.0,170.422535211,-59.4366197183,-52.676056338,-100.0,21.6901408451,-100.0,-100.0,-79.7183098592,177.183098592
p001,m,fea,38.7283236994,-100.0,121.965317919,-44.5086705202,-72.2543352601,-100.0,-100.0,205.202312139,-100.0,66.4739884393,-100.0,205.202312139,94.2196531792,-100.0,-100.0,-72.2543352601,-72.2543352601,38.7283236994,94.2196531792,232.947976879,343.930635838,232.947976879,-100.0,-100.0,38.7283236994,-100.0,-100.0,205.202312139,-100.0,-100.0,66.4739884393,-100.0,-100.0,66.4739884393,-72.2543352601,121.965317919,94.2196531792,-100.0,38.7283236994,-16.7630057803,232.947976879,-100.0,-44.5086705202,-100.0,-72.2543352601,-100.0,-100.0,-72.2543352601
p001,m,hap,60.7305936073,31.5068493151,-41.5525114155,-63.4703196347,-70.7762557078,-92.6940639269,9.58904109589,-92.6940639269,-5.02283105023,9.58904109589,104.566210046,31.5068493151,16.8949771689,-56.1643835616,9.58904109589,-41.5525114155,97.2602739726,-70.7762557078,9.58904109589,68.0365296804,-19.6347031963,89.9543378995,206.849315068,-19.6347031963,126.484018265,-63.4703196347,-70.7762557078,155.707762557,60.7305936073,192.237442922,9.58904109589,-70.7762557078,-92.6940639269,-100.0,31.5068493151,148.401826484,-100.0,-100.0,-56.1643835616,16.8949771689,89.9543378995,-48.8584474886,-100.0,-100.0,9.58904109589,-48.8584474886,-100.0,38.8127853881
p001,m,ntr,-100.0,-100.0,-100.0,-100.0,-100.0,5.62347188264,-100.0,263.814180929,52.5672371638,-17.8484107579,-41.3202933985,-100.0,169.926650367,-6.11246943765,-41.3202933985,-41.3202933985,-41.3202933985,76.0391198044,-64.7921760391,-41.3202933985,-17.8484107579,216.870415648,76.0391198044,-64.7921760391,-76.5281173594,-6.11246943765,17.3594132029,-100.0,76.0391198044,29.0953545232,-100.0,-17.8484107579,99.511002445,17.3594132029,158.190709046,122.982885086,-76.5281173594,29.0953545232,5.62347188264,-100.0,228.606356968,17.3594132029,-100.0,111.246943765,76.0391198044,-17.8484107579,-100.0,-76.5281173594
p001,m,sad,,,,,,,,,,,,,,,,,,,,,,,,,,,,,,,,,,,,,,,,,,,,,,,,
p001,m,sup,-25.9640102828,-100.0,-100.0,-38.3033419023,171.46529563,109.768637532,-100.0,-100.0,109.768637532,-100.0,171.46529563,-25.9640102828,-38.3033419023,-100.0,109.768637532,-25.9640102828,245.501285347,-25.9640102828,282.519280206,35.7326478149,146.786632391,208.483290488,-100.0,48.0719794344,-25.9640102828,-100.0,-100.0,-100.0,-100.0,245.501285347,-25.9640102828,-100.0,208.483290488,-100.0,-100.0,-25.9640102828,-100.0,35.7326478149,-25.9640102828,-100.0,-25.9640102828,-100.0,183.804627249,-25.9640102828,-38.3033419023,-100.0,-38.3033419023,-100.0
p002,f,ang,-91.7667238422,-34.1337907376,-9.43396226415,-100.0,-100.0,-42.3670668954,-91.7667238422,72.8987993139,-100.0,-91.7667238422,81.1320754717,-1.20068610635,-100.0,114.065180103,196.397941681,-100.0,-91.7667238422,-100.0,130.531732419,122.298456261,72.8987993139,-100.0,-34.1337907376,-34.1337907376,-91.7667238422,-42.3670668954,517.495711835,-91.7667238422,130.531732419,81.1320754717,-25.9005145798,-34.1337907376,-100.0,-100.0,-100.0,31.7324185249,72.8987993139,-100.0,122.298456261,-42.3670668954,-100.0,-25.9005145798,-100.0,303.430531732,-100.0,130.531732419,138.765008576,-42.3670668954
p002,f,dis,-100.0,352.173913043,91.3043478261,-100.0,-100.0,21.7391304348,352.173913043,-30.4347826087,-100.0,-100.0,-100.0,-100.0,195.652173913,108.695652174,-100.0,-30.4347826087,-30.4347826087,-100.0,-100.0,-100.0,-100.0,230.434782609,317.391304348,91.3043478261,-100.0,195.652173913,-100.0,-100.0,-100.0,-100.0,352.173913043,-100.0,-100.0,21.7391304348,178.260869565,-30.4347826087,-100.0,-100.0,108.695652174,21.7391304348,-100.0,-100.0,21.7391304348,21.7391304348,-30.4347826087,-30.4347826087,-100.0,-100.0
p002,f,fea,-6.79611650485,-100.0,-100.0,-100.0,-72.0388349515,-100.0,-72.0388349515,142.330097087,-72.0388349515,160.970873786,496.504854369,-62.7184466019,-62.7184466019,-44.0776699029,114.368932039,133.009708738,-44.0776699029,-100.0,86.4077669903,105.048543689,-100.0,-44.0776699029,30.4854368932,-44.0776699029,-72.0388349515,-44.0776699029,-100.0,-72.0388349515,30.4854368932,21.1650485437,49.1262135922,-62.7184466019,-62.7184466019,-72.0388349515,77.0873786408,11.8446601942,-62.7184466019,-72.0388349515,-44.0776699029,198.252427184,-62.7184466019,21.1650485437,-16.1165048544,-62.7184466019,86.4077669903,-44.0776699029,123.689320388,86.4077669903
p002,f,hap,64.9289099526,64.9289099526,59.2417061611,-26.0663507109,-20.3791469194,-100.0,70.6161137441,-43.1279620853,-43.1279620853,30.8056872038,64.9289099526,-14.691943128,-14.691943128,-100.0,-100.0,-26.0663507109,-60.1895734597,2.36966824645,-94.3127962085,-37.4407582938,8.05687203791,110.426540284,-100.0,-100.0,-100.0,87.6777251185,-26.0663507109,36.4928909953,-20.3791469194,30.8056872038,-26.0663507109,-100.0,93.36492891,30.8056872038,76.3033175355,138.862559242,-100.0,47.8672985782,-20.3791469194,64.9289099526,-20.3791469194,195.734597156,-94.3127962085,-100.0,81.990521327,-94.3127962085,53.5545023697,167.298578199
p002,f,ntr,-21.568627451,-21.568627451,17.6470588235,25.4901960784,17.6470588235,-100.0,-100.0,103.921568627,-100.0,9.80392156863,96.0784313725,-52.9411764706,88.2352941176,205.882352941,-29.4117647059,-92.1568627451,-76.4705882353,-92.1568627451,-100.0,-92.1568627451,-100.0,25.4901960784,17.6470588235,9.80392156863,9.80392156863,9.80392156863,-52.9411764706,-100.0,-100.0,-21.568627451,-52.9411764706,174.509803922,25.4901960784,33.3333333333,9.80392156863,-92.1568627451,-100.0,-45.0980392157,33.3333333333,-100.0,143.137254902,-100.0,370.588235294,17.6470588235,-21.568627451,-100.0,323.529411765,96.0784313725
p002,f,sad,174.698795181,-100.0,-100.0,-100.0,-100.0,102.409638554,-100.0,246.987951807,-100.0,102.409638554,246.987951807,-27.7108433735,-100.0,-100.0,-100.0,-27.7108433735,-100.0,-100.0,174.698795181,-100.0,-100.0,-100.0,-100.0,102.409638554,102.409638554,-27.7108433735,59.0361445783,-27.7108433735,-100.0,333.734939759,-27.7108433735,246.987951807,102.409638554,-100.0,449.397590361,-27.7108433735,-100.0,131.325301205,-100.0,-100.0,-27.7108433735,-100.0,-100.0,-100.0,59.0361445783,-100.0,59.0361445783,-100.0
p002,f,sup,132.421052632,-29.2631578947,-19.1578947368,-100.0,142.526315789,-100.0,-100.0,-19.1578947368,31.3684210526,-69.6842105263,-69.6842105263,284.0,92.0,-69.6842105263,61.6842105263,-100.0,162.736842105,-9.05263157895,162.736842105,-100.0,-100.0,-69.6842105263,-79.7894736842,132.421052632,-69.6842105263,-79.7894736842,61.6842105263,-19.1578947368,-100.0,51.5789473684,172.842105263,132.421052632,-100.0,-100.0,-100.0,-100.0,61.6842105263,122.315789474,21.2631578947,-9.05263157895,-69.6842105263,11.1578947368,-19.1578947368,21.2631578947,31.3684210526,-100.0,-19.1578947368,31.3684210526
p002,m,ang,-100.0,185.148514851,232.673267327,-4.9504950495,90.099009901,101.98019802,78.2178217822,78.2178217822,-100.0,-4.9504950495,30.6930693069,-100.0,-100.0,125.742574257,-100.0,6.93069306931,6.93069306931,-16.8316831683,-4.9504950495,30.6930693069,101.98019802,-100.0,-16.8316831683,-100.0,-4.9504950495,-16.8316831683,208.910891089,197.02970297,-100.0,6.93069306931,30.6930693069,-100.0,-100.0,-100.0,-100.0,-16.8316831683,101.98019802,-16.8316831683,6.93069306931,-100.0,-4.9504950495,-100.0,-100.0,-100.0,-16.8316831683,-100.0,208.910891089,-4.9504950495
p002,m,dis,-19.1578947368,122.315789474,-100.0,-19.1578947368,-100.0,-100.0,-19.1578947368,354.736842105,-100.0,102.105263158,-100.0,-100.0,-100.0,324.421052632,-100.0,-100.0,112.210526316,-100.0,-100.0,-100.0,-100.0,112.210526316,203.157894737,11.1578947368,102.105263158,11.1578947368,-100.0,-100.0,-100.0,11.1578947368,354.736842105,-100.0,21.2631578947,-100.0,11.1578947368,122.315789474,-100.0,112.210526316,-100.0,102.105263158,-100.0,-100.0,-100.0,203.157894737,-100.0,-100.0,-100.0,263.789473684
p002,m,fea,-29.4117647059,-100.0,17.6470588235,-21.568627451,1.96078431373,-68.6274509804,-5.88235294118,-37.2549019608,-84.3137254902,205.882352941,-5.88235294118,64.7058823529,64.7058823529,1.96078431373,-68.6274509804,-45.0980392157,-45.0980392157,9.80392156863,119.607843137,198.039215686,198.039215686,56.862745098,-13.7254901961,17.6470588235,135.294117647,-29.4117647059,-68.6274509804,56.862745098,-100.0,-100.0,80.3921568627,-100.0,-68.6274509804,72.5490196078,-13.7254901961,111.764705882,103.921568627,-100.0,-100.0,-100.0,-52.9411764706,-13.7254901961,-100.0,9.80392156863,-45.0980392157,-52.9411764706,9.80392156863,33.3333333333
p002,m,hap,154.205607477,-17.7570093458,-32.7102803738,-10.2803738318,-92.523364486,-92.523364486,-17.7570093458,-100.0,-25.2336448598,-17.7570093458,228.971962617,-92.523364486,42.0560747664,-17.7570093458,49.5327102804,-32.7102803738,49.5327102804,-92.523364486,-17.7570093458,64.4859813084,-32.7102803738,86.9158878505,273.831775701,-25.2336448598,116.822429907,-92.523364486,-100.0,116.822429907,19.6261682243,251.401869159,-17.7570093458,-92.523364486,-100.0,-92.523364486,-25.2336448598,176.635514019,-100.0,-100.0,-62.6168224299,49.5327102804,86.9158878505,-25.2336448598,-100.0,-100.0,-17.7570093458,-32.7102803738,-100.0,109.345794393
p002,m,ntr,-22.1238938053,-100.0,-100.0,-100.0,-100.0,20.3539823009,-100.0,69.9115044248,169.026548673,126.548672566,-100.0,-100.0,-50.4424778761,-29.203539823,69.9115044248,-100.0,-64.6017699115,41.592920354,-50.4424778761,55.7522123894,55.7522123894,-7.96460176991,126.548672566,-100.0,-22.1238938053,76.9911504425,147.787610619,-71.6814159292,62.8318584071,98.2300884956,-100.0,20.3539823009,91.1504424779,147.787610619,-78.7610619469,13.2743362832,-100.0,20.3539823009,-57.5221238938,-100.0,20.3539823009,154.867256637,-100.0,225.663716814,13.2743362832,-29.203539823,-100.0,55.7522123894
p002,m,sad,412.455516014,-100.0,-100.0,-100.0,139.145907473,-100.0,241.637010676,-100.0,-100.0,-100.0,-100.0,-14.590747331,139.145907473,-100.0,-100.0,70.8185053381,-100.0,-100.0,-14.590747331,-100.0,241.637010676,-100.0,-100.0,-14.590747331,-14.590747331,-14.590747331,361.209964413,-100.0,-100.0,275.800711744,-100.0,-100.0,-14.590747331,-14.590747331,617.43772242,275.800711744,-100.0,-100.0,-100.0,-100.0,-100.0,-14.590747331,241.637010676,-100.0,-100.0,-100.0,-100.0,-100.0
p002,m,sup,146.153846154,-100.0,43.5897435897,12.8205128205,135.897435897,-7.69230769231,12.8205128205,-100.0,74.358974359,-58.9743589744,-7.69230769231,-38.4615384615,53.8461538462,-58.9743589744,135.897435897,-38.4615384615,289.743589744,43.5897435897,64.1025641026,-38.4615384615,115.384615385,2.5641025641,43.5897435897,43.5897435897,-100.0,-100.0,-100.0,43.5897435897,115.384615385,53.8461538462,-58.9743589744,-58.9743589744,115.384615385,-100.0,-58.9743589744,2.5641025641,-17.9487179487,-100.0,-100.0,12.8205128205,-38.4615384615,-100.0,94.8717948718,-58.9743589744,-58.9743589744,-100.0,43.5897435897,-100.0
p003,f,ang,63.8225255973,-100.0,-42.662116041,104.778156997,211.262798635,-100.0,6.48464163823,-100.0,104.778156997,-100.0,96.5870307167,-1.70648464164,-1.70648464164,-18.0887372014,153.924914676,6.48464163823,-100.0,39.2491467577,80.204778157,112.969283276,47.4402730375,6.48464163823,-100.0,-18.0887372014,-100.0,-1.70648464164,96.5870307167,-9.8976109215,-83.6177474403,112.969283276,235.836177474,-59.0443686007,-100.0,-18.0887372014,-100.0,-100.0,47.4402730375,80.204778157,39.2491467577,-100.0,-100.0,-83.6177474403,-59.0443686007,96.5870307167,-9.8976109215,-59.0443686007,6.48464163823,-83.6177474403
p003,f,dis,-100.0,-100.0,-100.0,-100.0,-100.0,-100.0,-100.0,-100.0,6.66666666667,-100.0,134.666666667,-100.0,-100.0,-100.0,6.66666666667,6.66666666667,-100.0,-100.0,-100.0,6.66666666667,-100.0,476.0,156.0,-100.0,-100.0,-100.0,-100.0,177.333333333,-100.0,497.333333333,-100.0,6.66666666667,-100.0,6.66666666667,-100.0,198.666666667,6.66666666667,-100.0,241.333333333,-100.0,177.333333333,-100.0,497.333333333,-100.0,-100.0,134.666666667,6.66666666667,156.0
p003,f,fea,-100.0,-100.0,-31.4285714286,-100.0,311.428571429,-31.4285714286,-100.0,242.857142857,-31.4285714286,-31.4285714286,242.857142857,-31.4285714286,311.428571429,-100.0,-31.4285714286,242.857142857,-100.0,311.428571429,-31.4285714286,-31.4285714286,-100.0,-100.0,-100.0,-100.0,-100.0,-100.0,242.857142857,-100.0,-100.0,-100.0,242.857142857,-100.0,-100.0,242.857142857,-31.4285714286,242.857142857,242.857142857,-31.4285714286,-100.0,-100.0,-31.4285714286,-100.0,-100.0,-100.0,-100.0,-100.0,-31.4285714286,-100.0
p003,f,hap,-30.0121506683,-53.3414337789,39.9756986634,-100.0,-70.8383961118,80.8019441069,10.8140947752,-24.1798298906,39.9756986634,4.98177399757,-0.850546780073,-100.0,104.131227217,4.98177399757,-82.5030376671,-0.850546780073,-41.6767922236,-100.0,45.8080194411,-59.1737545565,-35.8444714459,80.8019441069,28.3110571081,-47.5091130012,-18.347509113,-53.3414337789,150.789793439,-76.6707168894,-70.8383961118,104.131227217,45.8080194411,39.9756986634,74.9696233293,-47.5091130012,109.963547995,255.771567436,-30.0121506683,-30.0121506683,-53.3414337789,-30.0121506683,-30.0121506683,-47.5091130012,4.98177399757,-47.5091130012,-35.8444714459,57.4726609964,-76.6707168894,109.963547995
p003,f,ntr,-42.091152815,60.8579088472,41.5549597855,2.9490616622,-42.091152815,47.9892761394,-22.7882037534,47.9892761394,28.6863270777,99.4638069705,60.8579088472,-74.2627345845,-54.9597855228,-3.48525469169,-29.2225201072,-87.1313672922,-22.7882037534,-100.0,80.1608579088,-35.6568364611,-22.7882037534,208.847184987,86.5951742627,-29.2225201072,-29.2225201072,-74.2627345845,28.6863270777,-3.48525469169,-87.1313672922,138.069705094,35.1206434316,-16.3538873995,-42.091152815,41.5549597855,15.81769437,-42.091152815,-3.48525469169,-61.3941018767,-100.0,144.504021448,-29.2225201072,-87.1313672922,2.9490616622,-48.5254691689,67.2922252011,-100.0,-100.0,150.938337802
p003,f,sad,40.7407407407,70.3703703704,-48.1481481481,122.222222222,62.962962963,62.962962963,11.1111111111,137.037037037,25.9259259259,18.5185185185,-77.7777777778,-92.5925925926,-100.0,-33.3333333333,85.1851851852,-40.7407407407,-3.7037037037,107.407407407,25.9259259259,-48.1481481481,-100.0,-100.0,85.1851851852,-33.3333333333,-92.5925925926,188.888888889,-33.3333333333,-92.5925925926,-48.1481481481,-92.5925925926,25.9259259259,-85.1851851852,40.7407407407,-11.1111111111,-48.1481481481,-85.1851851852,-48.1481481481,11.1111111111,-18.5185185185,188.888888889,25.9259259259,3.7037037037,25.9259259259,-3.7037037037,-25.9259259259,18.5185185185,-33.3333333333,11.1111111111
p003,f,sup,-100.0,-26.9035532995,135.532994924,-35.0253807107,-18.7817258883,46.192893401,-59.3908629442,127.411167513,-83.7563451777,-26.9035532995,-83.7563451777,-83.7563451777,-100.0,-26.9035532995,-35.0253807107,-100.0,-43.1472081218,70.5583756345,-100.0,5.58375634518,5.58375634518,200.507614213,-26.9035532995,5.58375634518,21.8274111675,-2.53807106599,-18.7817258883,-18.7817258883,-100.0,86.8020304569,-10.6598984772,-26.9035532995,-43.1472081218,5.58375634518,249.23857868,-35.0253807107,5.58375634518,-2.53807106599,-100.0,-35.0253807107,-10.6598984772,46.192893401,5.58375634518,-43.1472081218,143.654822335,-35.0253807107,111.16751269,159.898477157
p003,m,ang,29.2929292929,142.424242424,223.232323232,-83.8383838384,239.393939394,13.1313131313,-3.0303030303,-83.8383838384,-3.0303030303,-3.0303030303,-100.0,-100.0,-83.8383838384,-35.3535353535,-83.8383838384,-100.0,29.2929292929,-83.8383838384,61.6161616162,-100.0,-19.1919191919,29.2929292929,-100.0,352.525252525,13.1313131313,-35.3535353535,255.555555556,-83.8383838384,-35.3535353535,271.717171717,77.7777777778,-100.0,-100.0,-35.3535353535,126.262626263,-100.0,-35.3535353535,-19.1919191919,29.2929292929,29.2929292929,-100.0,-83.8383838384,-100.0,-83.8383838384,29.2929292929,-100.0,-19.1919191919,61.6161616162
p003,m,dis,113.672496025,144.197138315,-16.0572337043,14.4674085851,-0.794912559618,-54.213036566,-31.319554849,22.0985691574,106.041335453,-54.213036566,29.7297297297,-38.9507154213,-77.106518283,-77.106518283,-100.0,-77.106518283,-100.0,-77.106518283,-77.106518283,-100.0,-100.0,60.2543720191,106.041335453,37.3608903021,-100.0,44.9920508744,44.9920508744,37.3608903021,-8.42607313196,-31.319554849,113.672496025,-100.0,75.5166931638,205.246422893,113.672496025,-16.0572337043,98.4101748808,29.7297297297,-46.5818759936,37.3608903021,-100.0,-77.106518283,52.6232114467,75.5166931638,-77.106518283,-0.794912559618,-100.0,75.5166931638
p003,m,fea,130.4,-100.0,92.0,130.4,130.4,-100.0,-100.0,92.0,284.0,-100.0,-100.0,-61.6,130.4,92.0,-100.0,130.4,92.0,-100.0,-100.0,-100.0,-100.0,-61.6,92.0,-61.6,-100.0,322.4,130.4,92.0,-100.0,92.0,-100.0,-100.0,-61.6,130.4,-100.0,-61.6,92.0,-100.0,-100.0,-100.0,-100.0,-61.6,-100.0,322.4,-100.0,92.0,-100.0,-100.0
p003,m,hap,8.84353741497,-61.9047619048,-56.462585034,-100.0,36.0544217687,-61.9047619048,-100.0,-51.0204081633,85.0340136054,95.9183673469,-56.462585034,-12.925170068,-45.5782312925,46.9387755102,19.7278911565,-56.462585034,3.40136054422,36.0544217687,-56.462585034,-51.0204081633,-61.9047619048,-100.0,-100.0,3.40136054422,90.4761904762,30.612244898,-23.8095238095,63.2653061224,57.8231292517,74.1496598639,52.380952381,3.40136054422,-56.462585034,3.40136054422,-29.2517006803,30.612244898,74.1496598639,237.414965986,19.7278911565,85.0340136054,-100.0,14.2857142857,-67.3469387755,139.455782313,123.129251701,-61.9047619048,-100.0,-23.8095238095
p003,m,ntr,-100.0,-80.487804878,-60.9756097561,95.1219512195,-21.9512195122,309.756097561,-2.43902439024,-80.487804878,-21.9512195122,17.0731707317,-100.0,-21.9512195122,-80.487804878,114.634146341,-21.9512195122,36.5853658537,36.5853658537,-21.9512195122,-100.0,-21.9512195122,36.5853658537,114.634146341,-2.43902439024,-60.9756097561,-21.9512195122,17.0731707317,192.682926829,-100.0,-80.487804878,173.170731707,17.0731707317,134.146341463,-100.0,-2.43902439024,-100.0,192.682926829,192.682926829,-21.9512195122,-2.43902439024,-100.0,-60.9756097561,95.1219512195,-80.487804878,-21.9512195122,-21.9512195122,-80.487804878,-100.0,-80.487804878
p003,m,sad,-100.0,-100.0,-100.0,-100.0,-100.0,700.0,-100.0,-100.0,-100.0,-100.0,-100.0,-100.0,-100.0,700.0,-100.0,700.0,-100.0,-100.0,-100.0,-100.0,-100.0,-100.0,-100.0,-100.0,-100.0,700.0,-100.0,-100.0,700.0,-100.0,-100.0,-100.0,-100.0,-100.0,-100.0,700.0,-100.0,-100.0,-100.0,-100.0,-100.0,-100.0,-100.0,-100.0,-100.0,-100.0,-100.0,-100.0
p003,m,sup,-34.2465753425,-17.8082191781,113.698630137,56.1643835616,-1.3698630137,-100.0,72.602739726,-17.8082191781,-34.2465753425,-34.2465753425,-83.5616438356,-9.58904109589,-34.2465753425,113.698630137,138.356164384,64.3835616438,-17.8082191781,-1.3698630137,23.2876712329,-83.5616438356,23.2876712329,343.835616438,-17.8082191781,6.84931506849,-100.0,-34.2465753425,-17.8082191781,64.3835616438,-42.4657534247,-42.4657534247,105.479452055,-83.5616438356,-17.8082191781,-34.2465753425,97.2602739726,-34.2465753425,-34.2465753425,-83.5616438356,56.1643835616,121.917808219,-83.5616438356,23.2876712329,-100.0,-34.2465753425,-17.8082191781,-42.4657534247,-100.0,-34.2465753425
p004,f,ang,72.7506426735,41.9023136247,-75.3213367609,35.7326478149,41.9023136247,-38.3033419023,97.4293059126,60.411311054,-100.0,-1.2853470437,11.0539845758,-69.1516709512,-7.45501285347,-1.2853470437,17.2236503856,-62.9820051414,23.3933161954,-38.3033419023,-56.8123393316,-13.6246786632,-32.1336760925,66.5809768638,78.9203084833,-93.8303341902,-19.794344473,-32.1336760925,85.0899742931,-50.6426735219,-38.3033419023,11.0539845758,23.3933161954,-69.1516709512,-50.6426735219,-56.8123393316,103.598971722,60.411311054,-50.6426735219,54.2416452442,-100.0,-7.45501285347,-19.794344473,60.411311054,-19.794344473,85.0899742931,54.2416452442,23.3933161954,-25.9640102828,23.3933161954
p004,f,dis,-36.4705882353,-15.2941176471,76.4705882353,12.9411764706,-100.0,-100.0,34.1176470588,-100.0,-50.5882352941,34.1176470588,-50.5882352941,34.1176470588,-43.5294117647,83.5294117647,97.6470588235,238.823529412,-50.5882352941,-78.8235294118,-57.6470588235,-43.5294117647,12.9411764706,231.764705882,111.764705882,-100.0,-100.0,-8.23529411765,-36.4705882353,-8.23529411765,55.2941176471,97.6470588235,-36.4705882353,-43.5294117647,62.3529411765,48.2352941176,125.882352941,34.1176470588,27.0588235294,-43.5294117647,-100.0,12.9411764706,5.88235294118,-78.8235294118,-100.0,34.1176470588,-15.2941176471,-100.0,48.2352941176,-22.3529411765
p004,f,fea,-100.0,-100.0,-100.0,16.1290322581,-22.5806451613,-100.0,-22.5806451613,-100.0,-80.6451612903,-80.6451612903,-22.5806451613,-100.0,325.806451613,16.1290322581,-80.6451612903,-100.0,-22.5806451613,112.903225806,16.1290322581,93.5483870968,-100.0,93.5483870968,306.451612903,-80.6451612903,112.903225806,-80.6451612903,-100.0,-100.0,-100.0,112.903225806,132.258064516,112.903225806,-3.22580645161,112.903225806,16.1290322581,-100.0,112.903225806,16.1290322581,-3.22580645161,-22.5806451613,16.1290322581,132.258064516,16.1290322581,-3.22580645161,-80.6451612903,-80.6451612903,16.1290322581,-3.22580645161
p004,f,hap,-2.04081632653,-91.8367346939,-91.8367346939,-51.0204081633,-34.693877551,144.897959184,95.9183673469,-100.0,-26.5306122449,6.12244897959,-42.8571428571,210.204081633,22.4489795918,185.714285714,14.2857142857,14.2857142857,38.7755102041,-100.0,-51.0204081633,-100.0,-100.0,120.408163265,-91.8367346939,14.2857142857,-34.693877551,-100.0,169.387755102,-100.0,6.12244897959,357.142857143,-18.3673469388,-34.693877551,-51.0204081633,14.2857142857,22.4489795918,63.2653061224,-26.5306122449,79.5918367347,46.9387755102,-26.5306122449,6.12244897959,-34.693877551,-34.693877551,-91.8367346939,-100.0,-42.8571428571,46.9387755102,-100.0
p004,f,ntr,91.1504424779,-78.7610619469,133.628318584,-57.5221238938,112.389380531,-57.5221238938,-100.0,-57.5221238938,-100.0,69.9115044248,133.628318584,-100.0,367.256637168,-78.7610619469,-100.0,-78.7610619469,91.1504424779,69.9115044248,69.9115044248,69.9115044248,91.1504424779,-57.5221238938,112.389380531,-100.0,176.10619469,-100.0,-78.7610619469,-78.7610619469,91.1504424779,-100.0,-100.0,91.1504424779,-100.0,112.389380531,282.300884956,-100.0,-57.5221238938,154.867256637,-78.7610619469,-36.2831858407,69.9115044248,-57.5221238938,-100.0,-100.0,-100.0,-78.7610619469,-57.5221238938,-100.0
p004,f,sad,-56.8862275449,-100.0,29.3413173653,-100.0,14.9700598802,-56.8862275449,115.568862275,-56.8862275449,-28.1437125749,14.9700598802,14.9700598802,-100.0,-28.1437125749,-100.0,86.8263473054,-100.0,-56.8862275449,-42.5149700599,-100.0,115.568862275,-100.0,259.281437126,86.8263473054,58.0838323353,14.9700598802,0.59880239521,129.94011976,29.3413173653,29.3413173653,-100.0,14.9700598802,14.9700598802,129.94011976,14.9700598802,29.3413173653,230.538922156,-28.1437125749,14.9700598802,-56.8862275449,14.9700598802,-100.0,-56.8862275449,14.9700598802,115.568862275,-100.0,72.4550898204,-100.0,-100.0
p004,f,sup,70.1624815362,-14.9187592319,6.35155096012,-57.459379616,-78.729689808,77.2525849335,105.612998523,-0.738552437223,-29.0989660266,-0.738552437223,-78.729689808,91.4327917282,-71.6395864106,6.35155096012,6.35155096012,-36.1890694239,-100.0,126.883308715,-100.0,34.7119645495,34.7119645495,70.1624815362,-43.2791728213,-14.9187592319,-100.0,-43.2791728213,55.9822747415,-36.1890694239,70.1624815362,155.243722304,126.883308715,190.694239291,-100.0,27.6218611521,-22.0088626292,-7.82865583456,-78.729689808,-36.1890694239,155.243722304,-100.0,-43.2791728213,41.8020679468,-36.1890694239,-43.2791728213,34.7119645495,-57.459379616,-57.459379616,-100.0
p004,m,ang,-100.0,126.086956522,-82.6086956522,56.5217391304,56.5217391304,-100.0,-100.0,-100.0,-100.0,-30.4347826087,247.826086957,-82.6086956522,-100.0,56.5217391304,-30.4347826087,91.3043478261,-82.6086956522,-100.0,334.782608696,-13.0434782609,247.826086957,-100.0,21.7391304348,-100.0,21.7391304348,21.7391304348,91.3043478261,73.9130434783,-30.4347826087,195.652173913,126.086956522,-82.6086956522,-100.0,-30.4347826087,21.7391304348,126.086956522,-82.6086956522,-100.0,-82.6086956522,-82.6086956522,-30.4347826087,-100.0,-82.6086956522,56.5217391304,195.652173913,-82.6086956522,39.1304347826,-100.0
p004,m,dis,119.469026549,-43.3628318584,-36.2831858407,147.787610619,27.4336283186,6.19469026549,20.3539823009,-100.0,20.3539823009,84.0707964602,-100.0,-85.8407079646,41.592920354,-22.1238938053,-15.0442477876,41.592920354,-100.0,91.1504424779,-36.2831858407,69.9115044248,-71.6814159292,-36.2831858407,-71.6814159292,48.6725663717,-0.884955752212,-71.6814159292,55.7522123894,-43.3628318584,-36.2831858407,-36.2831858407,13.2743362832,-100.0,-50.4424778761,27.4336283186,62.8318584071,-7.96460176991,-64.6017699115,20.3539823009,27.4336283186,55.7522123894,76.9911504425,91.1504424779,91.1504424779,-7.96460176991,34.5132743363,6.19469026549,-100.0,-43.3628318584
p004,m,fea,-100.0,-100.0,-100.0,76.6871165644,-41.1042944785,-100.0,-41.1042944785,-100.0,-100.0,-100.0,-100.0,371.165644172,-100.0,-100.0,-41.1042944785,253.374233129,-100.0,-100.0,17.7914110429,-41.1042944785,76.6871165644,695.09202454,-41.1042944785,-100.0,-100.0,-41.1042944785,-100.0,17.7914110429,-41.1042944785,-100.0,17.7914110429,-100.0,-100.0,-41.1042944785,459.509202454,-100.0,17.7914110429,-100.0,-100.0,-100.0,17.7914110429,-100.0,76.6871165644,371.165644172,76.6871165644,282.82208589,-100.0,-100.0
p004,m,hap,-100.0,10.9826589595,73.4104046243,-100.0,-30.6358381503,-30.6358381503,-37.5722543353,38.7283236994,-100.0,-100.0,4.04624277457,135.838150289,-37.5722543353,-9.82658959538,-65.3179190751,-30.6358381503,-100.0,24.8554913295,-100.0,10.9826589595,10.9826589595,-23.6994219653,142.774566474,-100.0,-65.3179190751,31.7919075145,87.2832369942,-100.0,-100.0,205.202312139,-100.0,212.138728324,-100.0,-65.3179190751,10.9826589595,59.5375722543,80.3468208092,-100.0,135.838150289,87.2832369942,-37.5722543353,-30.6358381503,121.965317919,-44.5086705202,4.04624277457,212.138728324,17.9190751445,-9.82658959538
p004,m,ntr,-58.1395348837,-100.0,-16.2790697674,95.3488372093,53.488372093,-100.0,-100.0,-44.1860465116,-100.0,-58.1395348837,-44.1860465116,-2.32558139535,-30.2325581395,95.3488372093,-100.0,-58.1395348837,-100.0,-30.2325581395,193.023255814,220.930232558,-44.1860465116,-58.1395348837,-2.32558139535,-58.1395348837,53.488372093,-58.1395348837,-44.1860465116,-2.32558139535,25.5813953488,11.6279069767,151.162790698,81.3953488372,-100.0,67.4418604651,109.302325581,53.488372093,-58.1395348837,53.488372093,25.5813953488,-100.0,-58.1395348837,25.5813953488,109.302325581,-30.2325581395,-58.1395348837,-2.32558139535,-100.0,290.697674419
p004,m,sad,,,,,,,,,,,,,,,,,,,,,,,,,,,,,,,,,,,,,,,,,,,,,,,,
p004,m,sup,-100.0,-16.2094763092,-52.1197007481,-100.0,19.7007481297,151.371571072,-16.2094763092,31.6708229426,-100.0,-4.23940149626,-16.2094763092,79.5511221945,-100.0,31.6708229426,79.5511221945,-100.0,-100.0,-100.0,-100.0,-100.0,-52.1197007481,127.431421446,31.6708229426,-100.0,19.7007481297,31.6708229426,211.221945137,91.5211970075,31.6708229426,31.6708229426,115.461346633,-100.0,115.461346633,91.5211970075,-16.2094763092,-4.23940149626,43.6408977556,151.371571072,-100.0,-16.2094763092,-100.0,-100.0,-16.2094763092,127.431421446,67.5810473815,-52.1197007481,79.5511221945,-100.0
p005,f,ang,58.1661891117,140.687679083,-44.9856733524,-38.1088825215,-17.4785100287,-65.6160458453,-100.0,-31.2320916905,154.441260745,-58.7392550143,-44.9856733524,10.0286532951,-44.9856733524,85.6733524355,10.0286532951,78.7965616046,-65.6160458453,78.7965616046,-31.2320916905,-31.2320916905,44.4126074499,-17.4785100287,65.0429799427,-17.4785100287,-100.0,-24.3553008596,10.0286532951,-38.1088825215,-3.72492836676,120.05730659,168.194842407,-3.72492836676,-38.1088825215,37.5358166189,-24.3553008596,-10.6017191977,-72.4928366762,37.5358166189,-79.3696275072,44.4126074499,-38.1088825215,10.0286532951,-65.6160458453,30.659025788,23.782234957,-31.2320916905,-72.4928366762,3.15186246418
p005,f,dis,69.9115044248,-74.5132743363,-6.54867256637,-6.54867256637,103.89380531,-57.5221238938,44.4247787611,-6.54867256637,-40.5309734513,-23.5398230088,-74.5132743363,1.94690265487,44.4247787611,290.796460177,-83.0088495575,-6.54867256637,-83.0088495575,188.849557522,-49.0265486726,-74.5132743363,1.94690265487,10.4424778761,205.840707965,44.4247787611,61.4159292035,-100.0,10.4424778761,27.4336283186,-83.0088495575,256.814159292,35.9292035398,69.9115044248,-100.0,1.94690265487,-100.0,-32.0353982301,86.9026548673,1.94690265487,-6.54867256637,-74.5132743363,35.9292035398,-100.0,-6.54867256637,-49.0265486726,-74.5132743363,-83.0088495575,-100.0,-100.0
p005,f,fea,-100.0,108.695652174,108.695652174,-100.0,-100.0,-100.0,-100.0,150.434782609,150.434782609,-100.0,-100.0,108.695652174,-100.0,150.434782609,-100.0,-100.0,108.695652174,108.695652174,-100.0,-100.0,-100.0,-100.0,108.695652174,150.434782609,150.434782609,-100.0,-100.0,-100.0,108.695652174,150.434782609,-100.0,-100.0,150.434782609,-100.0,359.130434783,-100.0,-100.0,-100.0,-100.0,-100.0,-100.0,108.695652174,359.130434783,108.695652174,150.434782609,-100.0,-100.0,-100.0
p005,f,hap,290.921228304,-10.2803738318,8.94526034713,-61.5487316422,-29.5060080107,8.94526034713,53.8050734312,-48.7316421896,8.94526034713,-10.2803738318,8.94526034713,-29.5060080107,85.8477970628,21.7623497997,-67.9572763685,-29.5060080107,-23.0974632844,-16.6889185581,-61.5487316422,28.170894526,-55.1401869159,-100.0,60.2136181575,-93.5914552737,15.3538050734,-100.0,85.8477970628,53.8050734312,-67.9572763685,233.244325768,-48.7316421896,8.94526034713,28.170894526,-16.6889185581,105.073431242,-42.3230974633,-42.3230974633,98.6648865154,-100.0,-100.0,-48.7316421896,-16.6889185581,15.3538050734,8.94526034713,-55.1401869159,-48.7316421896,8.94526034713,85.8477970628
p005,f,ntr,-100.0,-100.0,75.6097560976,-100.0,17.0731707317,-100.0,192.682926829,75.6097560976,-100.0,-100.0,-100.0,17.0731707317,-100.0,17.0731707317,-100.0,75.6097560976,-100.0,17.0731707317,17.0731707317,17.0731707317,17.0731707317,17.0731707317,75.6097560976,-100.0,75.6097560976,-100.0,75.6097560976,778.048780488,75.6097560976,-100.0,75.6097560976,-100.0,75.6097560976,17.0731707317,17.0731707317,192.682926829,75.6097560976,17.0731707317,-100.0,75.6097560976,-100.0,-100.0,-100.0,17.0731707317,-100.0,-100.0,-100.0,-100.0
p005,f,sad,269.230769231,-100.0,-100.0,-100.0,-100.0,-100.0,-100.0,-100.0,-100.0,-100.0,-100.0,269.230769231,-100.0,269.230769231,-100.0,-100.0,-100.0,-100.0,-100.0,269.230769231,-100.0,-100.0,-100.0,-100.0,-100.0,269.230769231,-100.0,-100.0,269.230769231,-100.0,269.230769231,-100.0,269.230769231,-100.0,-100.0,269.230769231,-100.0,-100.0,-100.0,-100.0,269.230769231,269.230769231,-100.0,269.230769231,269.230769231,-100.0,-100.0,-100.0
p005,f,sup,-15.4598825832,59.686888454,12.7201565558,-100.0,-15.4598825832,-81.2133072407,3.32681017613,3.32681017613,12.7201565558,50.2935420744,-90.6066536204,-53.0332681018,-90.6066536204,-81.2133072407,-34.2465753425,-53.0332681018,-53.0332681018,22.1135029354,50.2935420744,-81.2133072407,106.653620352,106.653620352,12.7201565558,-90.6066536204,106.653620352,3.32681017613,-15.4598825832,12.7201565558,87.866927593,-6.06653620352,219.373776908,191.193737769,-43.6399217221,172.40704501,-34.2465753425,3.32681017613,87.866927593,-81.2133072407,40.9001956947,31.5068493151,-6.06653620352,-24.8532289628,-100.0,-100.0,-90.6066536204,-6.06653620352,-6.06653620352,-43.6399217221
p005,m,ang,-86.4406779661,-18.6440677966,8.47457627119,-100.0,184.745762712,-100.0,-72.8813559322,-86.4406779661,-45.7627118644,-18.6440677966,-72.8813559322,35.593220339,-86.4406779661,-32.2033898305,35.593220339,89.8305084746,-72.8813559322,-59.3220338983,76.2711864407,-45.7627118644,76.2711864407,238.983050847,22.0338983051,-72.8813559322,49.1525423729,-59.3220338983,-5.08474576271,-72.8813559322,-5.08474576271,8.47457627119,-100.0,130.508474576,-100.0,8.47457627119,279.661016949,-86.4406779661,-59.3220338983,-32.2033898305,-72.8813559322,130.508474576,184.745762712,-45.7627118644,89.8305084746,-59.3220338983,22.0338983051,89.8305084746,-100.0,8.47457627119
p005,m,dis,64.8068669528,64.8068669528,3.00429184549,13.30472103,-100.0,-38.1974248927,-100.0,85.4077253219,-79.3991416309,3.00429184549,-89.6995708155,-100.0,-27.8969957082,33.9055793991,-7.29613733906,-7.29613733906,178.111587983,-27.8969957082,3.00429184549,75.1072961373,64.8068669528,23.6051502146,167.811158798,198.712446352,-17.5965665236,44.2060085837,-100.0,-89.6995708155,54.5064377682,-7.29613733906,85.4077253219,-79.3991416309,-69.0987124464,-69.0987124464,-7.29613733906,64.8068669528,-27.8969957082,-100.0,75.1072961373,-48.4978540773,13.30472103,54.5064377682,-27.8969957082,-7.29613733906,-58.7982832618,-7.29613733906,23.6051502146,-100.0
p005,m,fea,-100.0,-100.0,18.8118811881,-28.7128712871,-4.9504950495,-100.0,-4.9504950495,161.386138614,-100.0,-100.0,137.623762376,-100.0,-100.0,-28.7128712871,-100.0,-100.0,90.099009901,327.722772277,185.148514851,-100.0,-28.7128712871,-28.7128712871,-4.9504950495,-100.0,-100.0,-100.0,42.5742574257,-100.0,-100.0,161.386138614,-4.9504950495,18.8118811881,66.3366336634,113.861386139,66.3366336634,113.861386139,42.5742574257,42.5742574257,18.8118811881,-100.0,90.099009901,185.148514851,-4.9504950495,-100.0,-100.0,161.386138614,-4.9504950495,-100.0
p005,m,hap,102.04778157,69.2832764505,-12.6279863481,3.7542662116,-23.5494880546,-29.0102389078,-67.2354948805,47.4402730375,-29.0102389078,-100.0,58.361774744,-56.3139931741,-18.0887372014,3.7542662116,63.8225255973,9.21501706485,-100.0,-67.2354948805,-18.0887372014,-50.8532423208,102.04778157,96.5870307167,20.1365187713,-56.3139931741,74.7440273038,102.04778157,-12.6279863481,-7.16723549488,63.8225255973,-67.2354948805,41.9795221843,-1.70648464164,63.8225255973,-23.5494880546,36.5187713311,58.361774744,-56.3139931741,-29.0102389078,-18.0887372014,25.5972696246,-56.3139931741,118.43003413,69.2832764505,-100.0,-50.8532423208,-100.0,-100.0,20.1365187713
p005,m,ntr,-100.0,-31.1004784689,-8.13397129187,-8.13397129187,83.7320574163,-54.0669856459,106.698564593,-100.0,-77.033492823,14.8325358852,-77.033492823,-8.13397129187,290.43062201,37.7990430622,-100.0,-100.0,-54.0669856459,14.8325358852,175.598086124,-31.1004784689,-8.13397129187,14.8325358852,37.7990430622,83.7320574163,-100.0,-100.0,-31.1004784689,14.8325358852,60.7655502392,83.7320574163,106.698564593,-100.0,-100.0,83.7320574163,-100.0,175.598086124,-31.1004784689,-31.1004784689,198.564593301,-77.033492823,14.8325358852,-100.0,-100.0,-31.1004784689,14.8325358852,83.7320574163,-77.033492823,37.7990430622
p005,m,sad,-100.0,-100.0,-100.0,-100.0,-100.0,-100.0,-100.0,-100.0,-100.0,336.363636364,-100.0,-100.0,-100.0,336.363636364,-100.0,-100.0,-100.0,-100.0,336.363636364,-100.0,-100.0,336.363636364,-100.0,-100.0,-100.0,-100.0,-100.0,336.363636364,-100.0,336.363636364,-100.0,-100.0,336.363636364,-100.0,-100.0,336.363636364,-100.0,-100.0,-100.0,336.363636364,-100.0,336.363636364,-100.0,336.363636364,-100.0,-100.0,-100.0,-100.0
p005,m,sup,2.43902439024,-12.1951219512,46.3414634146,-100.0,-100.0,-70.7317073171,-100.0,75.6097560976,-100.0,134.146341463,2.43902439024,-12.1951219512,280.487804878,134.146341463,-70.7317073171,-100.0,-100.0,280.487804878,-100.0,31.7073170732,17.0731707317,31.7073170732,-100.0,31.7073170732,192.682926829,31.7073170732,-100.0,17.0731707317,-70.7317073171,441.463414634,-100.0,-100.0,-100.0,-70.7317073171,-100.0,2.43902439024,90.243902439,-100.0,119.512195122,-100.0,-70.7317073171,178.048780488,-70.7317073171,-100.0,-100.0,-70.7317073171,90.243902439,-12.1951219512
p006,f,ang,-81.9887429644,8.06754221388,35.0844277674,-45.9662288931,-54.9718574109,-45.9662288931,116.135084428,-45.9662288931,-9.94371482176,-27.9549718574,125.140712946,35.0844277674,-100.0,-36.9606003752,-63.9774859287,53.095684803,-100.0,-45.9662288931,-9.94371482176,-54.9718574109,-54.9718574109,161.163227017,143.151969981,-36.9606003752,-0.93808630394,-18.9493433396,35.0844277674,-36.9606003752,-45.9662288931,125.140712946,-63.9774859287,17.0731707317,-81.9887429644,116.135084428,71.1069418386,80.1125703565,-18.9493433396,-100.0,62.1013133208,71.1069418386,-9.94371482176,-27.9549718574,-9.94371482176,-27.9549718574,-18.9493433396,-9.94371482176,-54.9718574109,89.1181988743
p006,f,dis,-100.0,-84.6153846154,-84.6153846154,-100.0,38.4615384615,23.0769230769,-7.69230769231,-100.0,-69.2307692308,-84.6153846154,-100.0,130.769230769,253.846153846,69.2307692308,115.384615385,-23.0769230769,-38.4615384615,-53.8461538462,-69.2307692308,23.0769230769,-100.0,-53.8461538462,238.461538462,53.8461538462,-53.8461538462,207.692307692,130.769230769,84.6153846154,69.2307692308,69.2307692308,53.8461538462,-7.69230769231,-53.8461538462,-69.2307692308,-100.0,69.2307692308,-38.4615384615,-100.0,23.0769230769,53.8461538462,-53.8461538462,69.2307692308,-69.2307692308,-84.6153846154,38.4615384615,-100.0,-100.0,84.6153846154
p006,f,fea,-100.0,99.2452830189,-100.0,-100.0,189.811320755,262.264150943,-100.0,-100.0,-27.5471698113,-100.0,63.0188679245,-63.7735849057,8.67924528302,-27.5471698113,-27.5471698113,-63.7735849057,-100.0,63.0188679245,-63.7735849057,-27.5471698113,-100.0,8.67924528302,63.0188679245,99.2452830189,-63.7735849057,63.0188679245,8.67924528302,26.7924528302,-100.0,226.037735849,-27.5471698113,26.7924528302,-100.0,298.490566038,189.811320755,63.0188679245,-100.0,-27.5471698113,-63.7735849057,-27.5471698113,63.0188679245,-100.0,-100.0,99.2452830189,-100.0,-100.0,26.7924528302,63.0188679245
p006,f,hap,-4.44964871194,-71.8969555035,-100.0,-55.0351288056,-21.3114754098,-77.5175644028,-71.8969555035,-38.1733021077,-15.6908665105,-32.5526932084,-21.3114754098,152.927400468,-71.8969555035,-32.5526932084,-66.2763466042,-60.6557377049,62.9976580796,1.17096018735,-77.5175644028,12.4121779859,-21.3114754098,62.9976580796,-100.0,85.4800936768,6.79156908665,-26.9320843091,46.1358313817,-49.4145199063,57.3770491803,-71.8969555035,-49.4145199063,-21.3114754098,91.1007025761,-49.4145199063,102.341920375,-49.4145199063,79.8594847775,197.892271663,-15.6908665105,23.6533957845,85.4800936768,51.756440281,51.756440281,-21.3114754098,102.341920375,124.824355972,-26.9320843091,-77.5175644028
p006,f,ntr,-100.0,-63.0769230769,103.076923077,103.076923077,232.307692308,84.6153846154,-81.5384615385,-63.0769230769,-100.0,-100.0,84.6153846154,-44.6153846154,-81.5384615385,140.0,-63.0769230769,47.6923076923,-7.69230769231,103.076923077,-44.6153846154,10.7692307692,103.076923077,-44.6153846154,398.461538462,-100.0,-63.0769230769,66.1538461538,10.7692307692,-44.6153846154,66.1538461538,-100.0,-81.5384615385,103.076923077,-100.0,-44.6153846154,10.7692307692,-81.5384615385,121.538461538,-81.5384615385,-81.5384615385,-44.6153846154,10.7692307692,-44.6153846154,-26.1538461538,-63.0769230769,29.2307692308,-63.0769230769,66.1538461538,-81.5384615385
p006,f,sad,-82.9181494662,-31.6725978648,87.9003558719,53.7366548043,53.7366548043,70.8185053381,-82.9181494662,53.7366548043,-100.0,70.8185053381,156.227758007,-82.9181494662,-14.590747331,-65.8362989324,-100.0,-65.8362989324,-14.590747331,70.8185053381,-100.0,-31.6725978648,207.473309609,-14.590747331,-31.6725978648,70.8185053381,190.391459075,-65.8362989324,-14.590747331,-65.8362989324,36.6548042705,309.964412811,-100.0,-100.0,53.7366548043,122.06405694,-48.7544483986,19.5729537367,-100.0,-48.7544483986,-100.0,-31.6725978648,-14.590747331,207.473309609,87.9003558719,-82.9181494662,-82.9181494662,-65.8362989324,-82.9181494662,-100.0
p006,f,sup,21.7758985201,-100.0,92.8118393235,-100.0,-100.0,-100.0,-100.0,-8.66807610994,-28.9640591966,52.2198731501,92.8118393235,-28.9640591966,31.9238900634,82.6638477801,-8.66807610994,1.4799154334,92.8118393235,163.847780127,-39.11205074,-100.0,1.4799154334,-100.0,133.403805497,-59.4080338266,-49.2600422833,-28.9640591966,-59.4080338266,-59.4080338266,-28.9640591966,-8.66807610994,42.0718816068,-39.11205074,-100.0,163.847780127,204.4397463,173.99577167,-49.2600422833,1.4799154334,21.7758985201,92.8118393235,-100.0,-100.0,-100.0,-59.4080338266,82.6638477801,42.0718816068,1.4799154334,62.3678646934
p006,m,ang,-100.0,287.096774194,287.096774194,-100.0,-100.0,-100.0,209.677419355,-100.0,-100.0,-100.0,-100.0,-100.0,287.096774194,209.677419355,-100.0,209.677419355,209.677419355,-100.0,596.774193548,-100.0,-100.0,209.677419355,-100.0,209.677419355,-100.0,-100.0,287.096774194,-100.0,-100.0,-100.0,-100.0,-100.0,-100.0,-100.0,-100.0,-100.0,-100.0,-100.0,-100.0,-100.0,-100.0,287.096774194,-100.0,-100.0,209.677419355,-100.0,-100.0,-100.0
p006,m,dis,-52.8255528256,-23.3415233415,-52.8255528256,17.9361179361,-52.8255528256,0.2457002457,177.14987715,-100.0,47.4201474201,-52.8255528256,-100.0,23.8329238329,-70.515970516,-52.8255528256,124.078624079,0.2457002457,-46.9287469287,153.562653563,-46.9287469287,23.8329238329,0.2457002457,53.316953317,0.2457002457,118.181818182,0.2457002457,106.388206388,-100.0,17.9361179361,-100.0,82.800982801,424.815724816,-35.1351351351,-46.9287469287,-100.0,-52.8255528256,-52.8255528256,-5.65110565111,-46.9287469287,17.9361179361,-23.3415233415,-70.515970516,-70.515970516,-100.0,-100.0,29.7297297297,-52.8255528256,0.2457002457,188.943488943
p006,m,fea,-100.0,-100.0,83.7837837838,-45.9459459459,51.3513513514,-56.7567567568,8.10810810811,-67.5675675676,18.9189189189,51.3513513514,170.27027027,-13.5135135135,29.7297297297,40.5405405405,83.7837837838,83.7837837838,83.7837837838,-100.0,-35.1351351351,-100.0,-100.0,18.9189189189,116.216216216,-56.7567567568,-56.7567567568,-13.5135135135,-2.7027027027,94.5945945946,-24.3243243243,-67.5675675676,8.10810810811,105.405405405,-24.3243243243,40.5405405405,94.5945945946,-89.1891891892,29.7297297297,-78.3783783784,40.5405405405,-24.3243243243,40.5405405405,-2.7027027027,83.7837837838,-100.0,-78.3783783784,-24.3243243243,-13.5135135135,-2.7027027027
p006,m,hap,113.486370158,-100.0,-17.3601147776,-79.3400286944,-17.3601147776,79.0530846485,-3.58680057389,-100.0,23.9598278336,-17.3601147776,37.7331420373,17.0731707317,-65.5667144907,182.352941176,-100.0,3.29985652798,51.506456241,-3.58680057389,-100.0,-79.3400286944,3.29985652798,258.106169297,-31.1334289813,-3.58680057389,-3.58680057389,-100.0,-38.0200860832,-3.58680057389,51.506456241,258.106169297,72.1664275466,51.506456241,-38.0200860832,23.9598278336,-100.0,-58.6800573888,-10.4734576758,-17.3601147776,-100.0,-17.3601147776,-38.0200860832,-17.3601147776,-100.0,-17.3601147776,-31.1334289813,-51.7934002869,141.032998565,92.8263988522
p006,m,ntr,12.3745819398,156.856187291,92.6421404682,-100.0,12.3745819398,-100.0,156.856187291,221.070234114,-19.7324414716,76.5886287625,12.3745819398,12.3745819398,-100.0,221.070234114,76.5886287625,-100.0,12.3745819398,-100.0,12.3745819398,-100.0,124.74916388,-100.0,333.444816054,12.3745819398,-19.7324414716,12.3745819398,12.3745819398,12.3745819398,-100.0,-100.0,92.6421404682,-19.7324414716,-100.0,-100.0,-100.0,12.3745819398,-100.0,-19.7324414716,-19.7324414716,-100.0,-100.0,-19.7324414716,12.3745819398,-19.7324414716,-100.0,-19.7324414716,12.3745819398,44.4816053512
p006,m,sad,-100.0,15.6626506024,-100.0,-100.0,15.6626506024,15.6626506024,102.409638554,-100.0,218.072289157,-100.0,15.6626506024,-100.0,-100.0,-100.0,-100.0,-100.0,15.6626506024,15.6626506024,-100.0,102.409638554,15.6626506024,-100.0,-100.0,-100.0,-100.0,15.6626506024,333.734939759,-100.0,102.409638554,102.409638554,218.072289157,-100.0,-100.0,102.409638554,420.481927711,218.072289157,-100.0,-100.0,-100.0,-100.0,420.481927711,15.6626506024,-100.0,-100.0,-100.0,-100.0,15.6626506024,102.409638554
p006,m,sup,-100.0,242.857142857,242.857142857,-100.0,357.142857143,280.952380952,-100.0,-100.0,-100.0,-100.0,280.952380952,-61.9047619048,-100.0,-100.0,357.142857143,-61.9047619048,-100.0,-100.0,-100.0,-100.0,-61.9047619048,-100.0,-61.9047619048,-61.9047619048,280.952380952,-100.0,-100.0,-100.0,-100.0,395.238095238,-61.9047619048,-100.0,-100.0,-100.0,-100.0,-100.0,-100.0,-61.9047619048,-100.0,-61.9047619048,-100.0,-100.0,-61.9047619048,-100.0,280.952380952,-61.9047619048,700.0,-100.0
p007,f,ang,70.4142011834,-57.3964497041,-71.5976331361,-28.9940828402,-100.0,27.8106508876,6.50887573964,56.2130177515,134.319526627,6.50887573964,-28.9940828402,-78.6982248521,-100.0,91.7159763314,84.6153846154,-28.9940828402,-78.6982248521,70.4142011834,84.6153846154,-28.9940828402,63.3136094675,-100.0,13.6094674556,13.6094674556,56.2130177515,77.5147928994,141.420118343,56.2130177515,-71.5976331361,148.520710059,27.8106508876,-100.0,6.50887573964,-28.9940828402,-7.69230769231,-43.1952662722,-100.0,-50.2958579882,-7.69230769231,42.0118343195,-28.9940828402,-14.7928994083,-57.3964497041,-57.3964497041,-100.0,42.0118343195,105.917159763,-57.3964497041
p007,f,dis,-100.0,-15.7894736842,20.3007518797,-100.0,164.661654135,-100.0,20.3007518797,-100.0,56.3909774436,-100.0,-100.0,56.3909774436,80.4511278195,-100.0,56.3909774436,56.3909774436,80.4511278195,8.27067669173,-100.0,-100.0,8.27067669173,188.721804511,8.27067669173,-100.0,92.4812030075,-100.0,-100.0,92.4812030075,-100.0,188.721804511,92.4812030075,-27.8195488722,-27.8195488722,-51.8796992481,56.3909774436,140.601503759,-100.0,56.3909774436,-100.0,140.601503759,-100.0,80.4511278195,-100.0,-27.8195488722,32.3308270677,56.3909774436,-100.0,116.541353383
p007,f,fea,269.230769231,-100.0,269.230769231,-100.0,269.230769231,269.230769231,269.230769231,269.230769231,-100.0,-100.0,-100.0,-100.0,-100.0,-100.0,-100.0,-100.0,269.230769231,-100.0,-100.0,-100.0,269.230769231,269.230769231,-100.0,-100.0,-100.0,-100.0,-100.0,-100.0,-100.0,-100.0,-100.0,-100.0,-100.0,269.230769231,269.230769231,-100.0,-100.0,-100.0,-100.0,-100.0,-100.0,-100.0,269.230769231,-100.0,269.230769231,-100.0,-100.0,-100.0
p007,f,hap,-10.5193075899,2.26364846871,-36.0852197071,-10.5193075899,66.1784287617,-68.0426098535,-23.3022636485,-23.3022636485,130.093209055,-29.6937416778,27.8295605859,15.0466045273,-4.12782956059,15.0466045273,2.26364846871,-4.12782956059,-48.8681757656,-68.0426098535,-16.9107856192,2.26364846871,-100.0,78.9613848202,-74.4340878828,-16.9107856192,-16.9107856192,15.0466045273,34.2210386152,-16.9107856192,53.3954727031,-10.5193075899,98.1358189081,-48.8681757656,2.26364846871,-48.8681757656,15.0466045273,-16.9107856192,2.26364846871,40.6125166445,59.7869507324,34.2210386152,-4.12782956059,-68.0426098535,59.7869507324,-10.5193075899,-16.9107856192,21.4380825566,78.9613848202,-61.6511318242
p007,f,ntr,4.63215258856,-34.6049046322,-34.6049046322,-100.0,-34.6049046322,-21.5258855586,-100.0,-100.0,43.8692098093,30.7901907357,-60.7629427793,43.8692098093,96.1852861035,4.63215258856,17.7111716621,70.0272479564,-8.44686648501,122.343324251,96.1852861035,-8.44686648501,-21.5258855586,240.054495913,56.9482288828,-47.6839237057,4.63215258856,-86.9209809264,122.343324251,-73.8419618529,-8.44686648501,17.7111716621,70.0272479564,-100.0,122.343324251,56.9482288828,148.501362398,-86.9209809264,4.63215258856,-34.6049046322,-34.6049046322,-34.6049046322,-47.6839237057,-34.6049046322,-100.0,-34.6049046322,17.7111716621,-60.7629427793,-8.44686648501,-73.8419618529
p007,f,sad,-100.0,-100.0,304.819277108,15.6626506024,-100.0,189.156626506,189.156626506,-100.0,15.6626506024,-100.0,15.6626506024,-100.0,15.6626506024,15.6626506024,-100.0,-100.0,304.819277108,189.156626506,-100.0,15.6626506024,-100.0,-100.0,-100.0,15.6626506024,189.156626506,15.6626506024,-100.0,189.156626506,-100.0,304.819277108,-100.0,-100.0,-100.0,-100.0,304.819277108,189.156626506,-100.0,15.6626506024,-100.0,-100.0,-100.0,-100.0,-100.0,-100.0,15.6626506024,-100.0,-100.0,189.156626506
p007,f,sup,-23.5059760956,100.796812749,-33.0677290837,-100.0,129.482071713,-4.38247011952,-13.9442231076,-42.6294820717,110.358565737,72.1115537849,100.796812749,5.17928286853,-80.8764940239,167.729083665,-13.9442231076,-90.438247012,-23.5059760956,-80.8764940239,-52.1912350598,-90.438247012,14.7410358566,52.9880478088,-90.438247012,-80.8764940239,-61.7529880478,100.796812749,-90.438247012,-100.0,52.9880478088,119.920318725,-90.438247012,-52.1912350598,129.482071713,-42.6294820717,167.729083665,5.17928286853,-23.5059760956,-42.6294820717,14.7410358566,72.1115537849,119.920318725,-42.6294820717,43.4262948207,-90.438247012,-90.438247012,91.235059761,-90.438247012,-33.0677290837
p007,m,ang,-84.2105263158,-21.0526315789,121.052631579,200.0,57.8947368421,10.5263157895,-36.8421052632,-100.0,-84.2105263158,-5.26315789474,57.8947368421,42.1052631579,-84.2105263158,-21.0526315789,42.1052631579,-21.0526315789,42.1052631579,42.1052631579,231.578947368,-100.0,-5.26315789474,105.263157895,-100.0,-84.2105263158,-84.2105263158,136.842105263,247.368421053,-84.2105263158,42.1052631579,-5.26315789474,42.1052631579,-21.0526315789,-100.0,-5.26315789474,-36.8421052632,-100.0,215.789473684,-21.0526315789,-100.0,42.1052631579,-21.0526315789,-100.0,73.6842105263,-84.2105263158,-100.0,-100.0,-5.26315789474,-36.8421052632
p007,m,dis,17.8947368421,-24.2105263158,-57.8947368421,1.05263157895,-15.7894736842,17.8947368421,-100.0,-15.7894736842,-100.0,34.7368421053,-41.0526315789,-15.7894736842,43.1578947368,-41.0526315789,60.0,-15.7894736842,135.789473684,43.1578947368,-41.0526315789,-15.7894736842,26.3157894737,17.8947368421,245.263157895,17.8947368421,-7.36842105263,-100.0,-15.7894736842,-41.0526315789,-100.0,321.052631579,211.578947368,-100.0,118.947368421,-100.0,-57.8947368421,-41.0526315789,-41.0526315789,51.5789473684,-57.8947368421,-41.0526315789,-100.0,17.8947368421,60.0,-41.0526315789,43.1578947368,-100.0,43.1578947368,-100.0
p007,m,fea,102.409638554,-100.0,-100.0,-100.0,333.734939759,-13.2530120482,189.156626506,-100.0,-100.0,-100.0,-13.2530120482,-100.0,-100.0,-13.2530120482,-13.2530120482,-100.0,-13.2530120482,-13.2530120482,-13.2530120482,131.325301205,-100.0,-100.0,131.325301205,-100.0,-100.0,102.409638554,102.409638554,-100.0,-13.2530120482,-100.0,218.072289157,333.734939759,-100.0,333.734939759,131.325301205,-100.0,-100.0,-100.0,218.072289157,-100.0,-100.0,102.409638554,-100.0,-100.0,189.156626506,-100.0,-13.2530120482,-100.0
p007,m,hap,56.2790697674,-47.9069767442,-3.25581395349,108.372093023,-85.1162790698,41.3953488372,-85.1162790698,-33.023255814,-85.1162790698,-47.9069767442,-85.1162790698,48.8372093023,-100.0,-47.9069767442,93.488372093,-62.7906976744,11.6279069767,-100.0,-40.4651162791,86.0465116279,100.930232558,-33.023255814,-10.6976744186,41.3953488372,63.7209302326,-47.9069767442,205.11627907,-18.1395348837,-25.5813953488,286.976744186,-70.2325581395,-85.1162790698,19.0697674419,-85.1162790698,-47.9069767442,-3.25581395349,33.9534883721,242.325581395,-62.7906976744,-47.9069767442,-10.6976744186,26.511627907,26.511627907,41.3953488372,-70.2325581395,-100.0,26.511627907,-18.1395348837
p007,m,ntr,20.0,54.2857142857,-100.0,54.2857142857,-100.0,-65.7142857143,88.5714285714,20.0,54.2857142857,-65.7142857143,-65.7142857143,-100.0,-100.0,20.0,-65.7142857143,-65.7142857143,-100.0,174.285714286,88.5714285714,54.2857142857,54.2857142857,174.285714286,-100.0,20.0,-65.7142857143,54.2857142857,54.2857142857,328.571428571,-100.0,-100.0,328.571428571,-100.0,20.0,-100.0,54.2857142857,-100.0,-100.0,54.2857142857,20.0,-100.0,20.0,-100.0,20.0,-100.0,54.2857142857,20.0,-100.0,88.5714285714
p007,m,sad,-63.4980988593,-100.0,9.50570342205,-100.0,-100.0,9.50570342205,46.0076045627,46.0076045627,-100.0,-100.0,-100.0,64.2585551331,-63.4980988593,46.0076045627,9.50570342205,46.0076045627,100.760456274,9.50570342205,-100.0,228.517110266,-26.9961977186,-26.9961977186,-100.0,82.5095057034,-100.0,-63.4980988593,-100.0,283.269961977,9.50570342205,82.5095057034,82.5095057034,-63.4980988593,64.2585551331,-100.0,319.771863118,-100.0,-100.0,-100.0,-100.0,82.5095057034,9.50570342205,-100.0,9.50570342205,64.2585551331,155.513307985,-100.0,173.764258555,-26.9961977186
p007,m,sup,100.491400491,-100.0,-17.4447174447,-17.4447174447,-17.4447174447,-41.0319410319,-17.4447174447,-17.4447174447,17.9361179361,100.491400491,312.776412776,65.1105651106,-41.0319410319,159.459459459,29.7297297297,-17.4447174447,65.1105651106,-100.0,-100.0,-41.0319410319,65.1105651106,65.1105651106,112.285012285,-41.0319410319,112.285012285,65.1105651106,-100.0,-17.4447174447,-100.0,100.491400491,-41.0319410319,-100.0,-100.0,-100.0,41.5233415233,124.078624079,-100.0,-100.0,41.5233415233,29.7297297297,-100.0,-17.4447174447,-17.4447174447,-41.0319410319,-41.0319410319,-100.0,17.9361179361,17.9361179361
p008,f,ang,-22.5806451613,16.1290322581,-93.5483870968,74.1935483871,-41.935483871,93.5483870968,-54.8387096774,-35.4838709677,196.774193548,22.5806451613,87.0967741935,16.1290322581,41.935483871,-74.1935483871,-35.4838709677,9.67741935484,-3.22580645161,-22.5806451613,16.1290322581,-3.22580645161,-9.67741935484,-74.1935483871,106.451612903,-41.935483871,-41.935483871,9.67741935484,35.4838709677,22.5806451613,106.451612903,-41.935483871,-35.4838709677,-16.1290322581,-74.1935483871,16.1290322581,-9.67741935484,-48.3870967742,-100.0,132.258064516,93.5483870968,-93.5483870968,93.5483870968,-74.1935483871,61.2903225806,3.22580645161,-16.1290322581,-100.0,-54.8387096774,-35.4838709677
p008,f,dis,36.4928909953,-31.7535545024,-77.2511848341,-77.2511848341,332.227488152,-31.7535545024,-9.00473933649,-31.7535545024,286.72985782,70.6161137441,81.990521327,104.739336493,36.4928909953,93.36492891,25.1184834123,-31.7535545024,-77.2511848341,59.2417061611,-31.7535545024,-100.0,-100.0,-9.00473933649,25.1184834123,-31.7535545024,-31.7535545024,2.36966824645,-100.0,207.109004739,-100.0,207.109004739,275.355450237,-9.00473933649,-100.0,13.7440758294,-100.0,-100.0,-100.0,-9.00473933649,-100.0,-100.0,172.985781991,-77.2511848341,-100.0,-100.0,-100.0,-100.0,36.4928909953,-100.0
p008,f,fea,,,,,,,,,,,,,,,,,,,,,,,,,,,,,,,,,,,,,,,,,,,,,,,,
p008,f,hap,52.9880478088,-23.5059760956,-68.1274900398,-29.8804780876,59.3625498008,-29.8804780876,-100.0,65.7370517928,-100.0,-29.8804780876,40.2390438247,-17.1314741036,-74.5019920319,205.976095618,1.99203187251,-23.5059760956,-4.38247011952,-74.5019920319,91.235059761,154.980079681,84.8605577689,161.354581673,-42.6294820717,-80.8764940239,14.7410358566,59.3625498008,91.235059761,1.99203187251,-61.7529880478,-4.38247011952,14.7410358566,-23.5059760956,33.8645418327,8.36653386454,27.4900398406,-36.2549800797,-23.5059760956,59.3625498008,-74.5019920319,-55.3784860558,-36.2549800797,-100.0,-36.2549800797,-10.7569721116,-100.0,46.6135458167,-80.8764940239,65.7370517928
p008,f,ntr,-100.0,-100.0,132.727272727,190.909090909,-56.3636363636,-85.4545454545,-100.0,-56.3636363636,-12.7272727273,45.4545454545,-70.9090909091,1.81818181818,-56.3636363636,16.3636363636,-100.0,190.909090909,161.818181818,-100.0,-27.2727272727,-12.7272727273,-41.8181818182,1.81818181818,16.3636363636,-12.7272727273,-12.7272727273,-85.4545454545,-100.0,45.4545454545,16.3636363636,161.818181818,1.81818181818,-41.8181818182,-56.3636363636,16.3636363636,74.5454545455,60.0,249.090909091,16.3636363636,-27.2727272727,16.3636363636,60.0,-56.3636363636,-12.7272727273,-100.0,-12.7272727273,16.3636363636,-100.0,45.4545454545
p008,f,sad,433.333333333,-100.0,-100.0,-100.0,-100.0,-100.0,-100.0,-100.0,-100.0,433.333333333,-100.0,-100.0,-100.0,-100.0,-100.0,-100.0,-100.0,-100.0,-100.0,-100.0,-100.0,-100.0,-100.0,433.333333333,-100.0,433.333333333,433.333333333,-100.0,-100.0,-100.0,-100.0,-100.0,-100.0,-100.0,433.333333333,433.333333333,433.333333333,-100.0,-100.0,-100.0,-100.0,-100.0,433.333333333,-100.0,-100.0,-100.0,-100.0,-100.0
p008,f,sup,64.3835616438,31.5068493151,38.0821917808,38.0821917808,-100.0,-1.3698630137,-100.0,24.9315068493,-27.6712328767,-100.0,64.3835616438,-1.3698630137,70.9589041096,77.5342465753,70.9589041096,84.1095890411,-27.6712328767,18.3561643836,-47.397260274,-100.0,-21.095890411,64.3835616438,-53.9726027397,-80.2739726027,-60.5479452055,-40.8219178082,-21.095890411,-60.5479452055,64.3835616438,57.8082191781,44.6575342466,-100.0,18.3561643836,-100.0,31.5068493151,18.3561643836,-21.095890411,90.6849315068,84.1095890411,24.9315068493,5.20547945205,44.6575342466,31.5068493151,-67.1232876712,31.5068493151,31.5068493151,-86.8493150685,-7.94520547945
p008,m,ang,139.335180055,6.37119113573,219.113573407,-100.0,-86.703601108,19.6675900277,-6.92520775623,112.742382271,-100.0,-6.92520775623,205.817174515,-100.0,46.2603878116,46.2603878116,-60.1108033241,-6.92520775623,152.631578947,19.6675900277,59.5567867036,139.335180055,6.37119113573,139.335180055,-46.8144044321,-100.0,-6.92520775623,-46.8144044321,86.1495844875,139.335180055,-60.1108033241,126.038781163,-100.0,-46.8144044321,-86.703601108,-100.0,-86.703601108,-46.8144044321,-60.1108033241,-100.0,-60.1108033241,-100.0,-6.92520775623,-86.703601108,19.6675900277,-6.92520775623,-6.92520775623,-46.8144044321,-100.0,86.1495844875
p008,m,dis,-100.0,1.31926121372,77.308707124,1.31926121372,1.31926121372,115.303430079,77.308707124,1.31926121372,-100.0,-100.0,77.308707124,1.31926121372,1.31926121372,-100.0,1.31926121372,1.31926121372,191.292875989,-100.0,1.31926121372,-100.0,-100.0,102.638522427,89.9736147757,115.303430079,1.31926121372,-100.0,13.9841688654,1.31926121372,-24.0105540897,-100.0,1.31926121372,-100.0,-100.0,178.627968338,-100.0,-100.0,102.638522427,115.303430079,-100.0,102.638522427,-100.0,1.31926121372,-24.0105540897,102.638522427,-24.0105540897,292.612137203,-100.0,-100.0
p008,m,fea,192.173913043,-16.5217391304,25.2173913043,-100.0,-16.5217391304,66.9565217391,-100.0,66.9565217391,150.434782609,-100.0,150.434782609,25.2173913043,-16.5217391304,66.9565217391,66.9565217391,-16.5217391304,-100.0,25.2173913043,-100.0,25.2173913043,-100.0,-100.0,-100.0,-100.0,25.2173913043,108.695652174,-100.0,-16.5217391304,108.695652174,-100.0,-16.5217391304,-100.0,-16.5217391304,-100.0,25.2173913043,-100.0,192.173913043,25.2173913043,192.173913043,-16.5217391304,25.2173913043,-100.0,150.434782609,-16.5217391304,66.9565217391,66.9565217391,-100.0,-100.0
p008,m,hap,15.0159744409,-23.3226837061,-23.3226837061,145.367412141,-76.9968051118,-53.9936102236,38.0191693291,45.6869009585,-46.3258785942,-23.3226837061,-100.0,15.0159744409,-100.0,38.0191693291,-100.0,-100.0,130.031948882,-61.661341853,-7.98722044728,-7.98722044728,168.370607029,-7.98722044728,-100.0,30.3514376997,61.0223642173,107.028753994,122.364217252,-0.319488817891,76.357827476,-46.3258785942,107.028753994,-46.3258785942,7.3482428115,-76.9968051118,114.696485623,22.6837060703,-15.6549520767,-53.9936102236,7.3482428115,-23.3226837061,-53.9936102236,22.6837060703,-30.9904153355,-30.9904153355,30.3514376997,-0.319488817891,-61.661341853,-30.9904153355
p008,m,ntr,32.4137931034,-77.9310344828,43.4482758621,-88.9655172414,-100.0,-66.8965517241,-66.8965517241,-77.9310344828,32.4137931034,10.3448275862,-33.7931034483,-33.7931034483,-100.0,-100.0,142.75862069,-77.9310344828,-100.0,-0.689655172414,-77.9310344828,98.6206896552,-88.9655172414,131.724137931,-66.8965517241,21.3793103448,-55.8620689655,-77.9310344828,76.5517241379,120.689655172,-33.7931034483,286.206896552,131.724137931,-0.689655172414,-77.9310344828,-100.0,-11.724137931,131.724137931,-11.724137931,10.3448275862,76.5517241379,43.4482758621,-66.8965517241,21.3793103448,-0.689655172414,-66.8965517241,208.965517241,-11.724137931,54.4827586207,-0.689655172414
p008,m,sad,269.230769231,-100.0,-100.0,-100.0,269.230769231,-100.0,-100.0,-100.0,-100.0,-100.0,-100.0,-100.0,-100.0,269.230769231,-100.0,269.230769231,-100.0,269.230769231,-100.0,-100.0,-100.0,-100.0,-100.0,-100.0,269.230769231,-100.0,269.230769231,-100.0,-100.0,269.230769231,269.230769231,-100.0,-100.0,-100.0,-100.0,-100.0,269.230769231,-100.0,-100.0,-100.0,-100.0,-100.0,269.230769231,-100.0,-100.0,269.230769231,269.230769231,-100.0
p008,m,sup,-27.4725274725,-73.6263736264,-67.032967033,-100.0,38.4615384615,-100.0,-100.0,84.6153846154,5.49450549451,-100.0,203.296703297,-53.8461538462,-53.8461538462,-100.0,71.4285714286,58.2417582418,-80.2197802198,137.362637363,-40.6593406593,78.021978022,51.6483516484,-60.4395604396,-14.2857142857,-7.69230769231,-67.032967033,-100.0,-7.69230769231,163.736263736,-93.4065934066,38.4615384615,-73.6263736264,-53.8461538462,18.6813186813,18.6813186813,229.67032967,-93.4065934066,58.2417582418,-20.8791208791,31.8681318681,-80.2197802198,-100.0,-7.69230769231,71.4285714286,-27.4725274725,97.8021978022,-34.0659340659,18.6813186813,262.637362637
p009,f,ang,-16.0572337043,-8.42607313196,98.4101748808,-0.794912559618,-38.9507154213,75.5166931638,83.1478537361,44.9920508744,-100.0,-100.0,67.8855325914,-69.4753577107,37.3608903021,67.8855325914,-84.7376788553,-84.7376788553,67.8855325914,6.83624801272,-16.0572337043,-100.0,-23.6883942766,-100.0,304.451510334,60.2543720191,-69.4753577107,-69.4753577107,22.0985691574,-100.0,6.83624801272,-54.213036566,350.238473768,-100.0,29.7297297297,90.7790143084,-100.0,-100.0,-54.213036566,14.4674085851,37.3608903021,37.3608903021,29.7297297297,-100.0,-38.9507154213,-100.0,22.0985691574,6.83624801272,90.7790143084,-23.6883942766
p009,f,dis,1.5873015873,-30.1587301587,-74.6031746032,14.2857142857,14.2857142857,-74.6031746032,-36.5079365079,-4.7619047619,115.873015873,-23.8095238095,-17.4603174603,-74.6031746032,-49.2063492063,20.6349206349,14.2857142857,14.2857142857,-93.6507936508,-55.5555555556,-100.0,-55.5555555556,65.0793650794,14.2857142857,141.26984127,-49.2063492063,33.3333333333,-74.6031746032,96.8253968254,-49.2063492063,-100.0,58.7301587302,122.222222222,20.6349206349,71.4285714286,-36.5079365079,84.126984127,39.6825396825,-30.1587301587,1.5873015873,26.9841269841,-4.7619047619,84.126984127,-74.6031746032,-93.6507936508,77.7777777778,1.5873015873,20.6349206349,71.4285714286,-23.8095238095
p009,f,fea,-36.563876652,-4.84581497797,48.0176211454,-68.281938326,69.1629955947,-47.1365638767,-68.281938326,-78.8546255507,-25.9911894273,90.3083700441,90.3083700441,90.3083700441,-15.4185022026,-15.4185022026,-4.84581497797,-78.8546255507,-47.1365638767,26.872246696,153.744493392,-25.9911894273,16.2995594714,-4.84581497797,5.7268722467,-47.1365638767,-15.4185022026,-100.0,-89.4273127753,-100.0,-100.0,344.052863436,69.1629955947,-100.0,-25.9911894273,238.325991189,-47.1365638767,-68.281938326,-47.1365638767,-25.9911894273,-68.281938326,-57.7092511013,-4.84581497797,90.3083700441,-25.9911894273,-25.9911894273,-68.281938326,-4.84581497797,185.462555066,26.872246696
p009,f,hap,-92.2580645161,-7.09677419355,16.1290322581,47.0967741935,8.38709677419,-61.2903225806,-53.5483870968,-53.5483870968,47.0967741935,-92.2580645161,-45.8064516129,70.3225806452,31.6129032258,54.8387096774,-92.2580645161,-45.8064516129,54.8387096774,-45.8064516129,155.483870968,-61.2903225806,-61.2903225806,-61.2903225806,194.193548387,47.0967741935,-22.5806451613,-7.09677419355,-92.2580645161,8.38709677419,31.6129032258,101.290322581,-14.8387096774,147.741935484,-61.2903225806,-100.0,-61.2903225806,-14.8387096774,-7.09677419355,155.483870968,-61.2903225806,163.225806452,8.38709677419,-92.2580645161,-14.8387096774,-22.5806451613,39.3548387097,109.032258065,-100.0,-45.8064516129
p009,f,ntr,-56.1643835616,-34.2465753425,-100.0,31.5068493151,-1.3698630137,-100.0,-56.1643835616,-34.2465753425,-23.2876712329,-78.0821917808,-100.0,-34.2465753425,-1.3698630137,108.219178082,-78.0821917808,-100.0,173.97260274,64.3835616438,-100.0,20.5479452055,-78.0821917808,20.5479452055,86.301369863,-1.3698630137,-12.3287671233,-12.3287671233,-23.2876712329,119.178082192,-100.0,349.315068493,119.178082192,64.3835616438,75.3424657534,-1.3698630137,239.726027397,-45.2054794521,-78.0821917808,86.301369863,-56.1643835616,-1.3698630137,-78.0821917808,-23.2876712329,-23.2876712329,-100.0,75.3424657534,9.58904109589,-56.1643835616,-56.1643835616
p009,f,sad,-100.0,-51.7587939698,-3.5175879397,68.8442211055,68.8442211055,-100.0,44.7236180905,44.7236180905,44.7236180905,-51.7587939698,117.085427136,68.8442211055,-100.0,141.206030151,-3.5175879397,44.7236180905,-100.0,92.9648241206,-51.7587939698,-100.0,-100.0,-51.7587939698,-100.0,-51.7587939698,189.447236181,165.326633166,-51.7587939698,-100.0,213.567839196,141.206030151,-100.0,-3.5175879397,-100.0,-51.7587939698,44.7236180905,189.447236181,-100.0,165.326633166,68.8442211055,44.7236180905,-51.7587939698,-100.0,-100.0,-3.5175879397,-100.0,-100.0,-100.0,68.8442211055
p009,f,sup,-30.3085299456,65.5172413793,-73.8656987296,-100.0,178.765880218,-12.8856624319,187.477313975,-21.5970961887,-12.8856624319,-12.8856624319,-100.0,48.0943738657,-91.2885662432,-73.8656987296,-21.5970961887,-82.5771324864,-30.3085299456,-91.2885662432,-12.8856624319,-21.5970961887,-100.0,335.57168784,-30.3085299456,-12.8856624319,-30.3085299456,-4.17422867514,-30.3085299456,-21.5970961887,-12.8856624319,-4.17422867514,239.745916515,257.168784029,-4.17422867514,-73.8656987296,56.8058076225,-21.5970961887,-73.8656987296,-12.8856624319,74.2286751361,-82.5771324864,204.900181488,-82.5771324864,-30.3085299456,-91.2885662432,-73.8656987296,-4.17422867514,-30.3085299456,-30.3085299456
p009,m,ang,68.8073394495,-100.0,17.4311926606,-55.9633027523,156.880733945,-55.9633027523,17.4311926606,-100.0,-26.6055045872,76.1467889908,83.4862385321,-11.9266055046,-4.5871559633,39.4495412844,76.1467889908,17.4311926606,-63.3027522936,98.1651376147,112.844036697,-26.6055045872,-92.6605504587,112.844036697,-19.2660550459,-33.9449541284,-41.2844036697,-92.6605504587,54.128440367,76.1467889908,-4.5871559633,134.862385321,-77.9816513761,-11.9266055046,-63.3027522936,32.1100917431,-55.9633027523,32.1100917431,-77.9816513761,90.8256880734,-70.6422018349,-77.9816513761,-33.9449541284,24.7706422018,68.8073394495,-48.623853211,-92.6605504587,-19.2660550459,-55.9633027523,24.7706422018
p009,m,dis,-80.055401662,-80.055401662,13.0193905817,-100.0,-0.277008310249,-0.277008310249,-33.5180055402,13.0193905817,46.2603878116,-6.92520775623,6.37119113573,-0.277008310249,13.0193905817,-0.277008310249,-66.7590027701,-33.5180055402,-6.92520775623,-13.5734072022,-100.0,-6.92520775623,-86.703601108,185.872576177,52.9085872576,-100.0,-6.92520775623,-66.7590027701,-73.4072022161,-0.277008310249,252.354570637,52.9085872576,-0.277008310249,32.9639889197,66.2049861496,59.5567867036,79.5013850416,-0.277008310249,-13.5734072022,245.706371191,-73.4072022161,-60.1108033241,-73.4072022161,-6.92520775623,-40.1662049861,6.37119113573,6.37119113573,-40.1662049861,-6.92520775623,46.2603878116
p009,m,fea,-100.0,-100.0,77.7777777778,-100.0,-46.6666666667,131.111111111,60.0,131.111111111,24.4444444444,-100.0,131.111111111,-28.8888888889,-46.6666666667,77.7777777778,60.0,237.777777778,113.333333333,-100.0,-46.6666666667,131.111111111,-100.0,-100.0,60.0,60.0,-28.8888888889,60.0,-100.0,6.66666666667,6.66666666667,273.333333333,-46.6666666667,6.66666666667,6.66666666667,-100.0,6.66666666667,6.66666666667,-100.0,-100.0,6.66666666667,-28.8888888889,60.0,-46.6666666667,-100.0,-100.0,-46.6666666667,-100.0,60.0,-28.8888888889
p009,m,hap,72.4550898204,-85.628742515,36.5269461078,-100.0,-100.0,72.4550898204,22.1556886228,-49.7005988024,-100.0,-71.2574850299,101.19760479,22.1556886228,-100.0,122.754491018,58.0838323353,-13.7724550898,-42.5149700599,-6.58682634731,-56.8862275449,-85.628742515,137.125748503,-20.9580838323,14.9700598802,-49.7005988024,43.7125748503,-42.5149700599,-42.5149700599,14.9700598802,216.167664671,0.59880239521,14.9700598802,-78.4431137725,58.0838323353,-78.4431137725,22.1556886228,151.497005988,115.568862275,-100.0,7.78443113772,-64.0718562874,36.5269461078,-100.0,36.5269461078,-78.4431137725,-28.1437125749,29.3413173653,173.053892216,-85.628742515
p009,m,ntr,-100.0,-100.0,168.8,28.0,220.0,-100.0,15.2,181.6,-74.4,28.0,28.0,-87.2,-74.4,15.2,92.0,-10.4,-48.8,104.8,168.8,-10.4,-100.0,-100.0,-100.0,-36.0,-100.0,-23.2,-36.0,-36.0,245.6,258.4,-74.4,-74.4,15.2,-87.2,79.2,-48.8,-100.0,15.2,-36.0,117.6,-100.0,-36.0,-10.4,-36.0,66.4,-87.2,-100.0,79.2
p009,m,sad,-100.0,-26.7175572519,-100.0,46.5648854962,-100.0,-26.7175572519,-26.7175572519,-63.358778626,-26.7175572519,-100.0,-100.0,83.2061068702,339.694656489,-63.358778626,-26.7175572519,9.92366412214,-63.358778626,-26.7175572519,303.053435115,-63.358778626,376.335877863,-100.0,-26.7175572519,-100.0,-63.358778626,-26.7175572519,-63.358778626,339.694656489,-26.7175572519,-100.0,9.92366412214,-26.7175572519,-100.0,-26.7175572519,412.977099237,9.92366412214,9.92366412214,9.92366412214,-100.0,266.41221374,-100.0,-100.0,-26.7175572519,-26.7175572519,-100.0,-26.7175572519,-63.358778626,-100.0
p009,m,sup,-3.0303030303,55.1515151515,-12.7272727273,-12.7272727273,171.515151515,-100.0,-12.7272727273,-41.8181818182,-41.8181818182,210.303030303,55.1515151515,-41.8181818182,-100.0,103.636363636,-100.0,-12.7272727273,-32.1212121212,-100.0,26.0606060606,16.3636363636,-100.0,-100.0,-32.1212121212,-100.0,200.606060606,26.0606060606,-100.0,-41.8181818182,-100.0,326.666666667,-12.7272727273,-100.0,-32.1212121212,-100.0,26.0606060606,-41.8181818182,45.4545454545,55.1515151515,210.303030303,-100.0,123.03030303,55.1515151515,16.3636363636,-100.0,-12.7272727273,-12.7272727273,-41.8181818182,16.3636363636
p011,f,ang,52.9411764706,-82.3529411765,-29.4117647059,76.4705882353,64.7058823529,41.1764705882,88.2352941176,64.7058823529,-17.6470588235,70.5882352941,23.5294117647,-41.1764705882,-82.3529411765,82.3529411765,-82.3529411765,82.3529411765,-82.3529411765,105.882352941,-100.0,58.8235294118,29.4117647059,35.2941176471,88.2352941176,11.7647058824,88.2352941176,-100.0,2.84217094304e-14,70.5882352941,-29.4117647059,70.5882352941,-47.0588235294,-35.2941176471,-82.3529411765,2.84217094304e-14,58.8235294118,23.5294117647,-100.0,-100.0,94.1176470588,47.0588235294,-82.3529411765,-100.0,-82.3529411765,-100.0,-5.88235294118,-17.6470588235,-29.4117647059,2.84217094304e-14
p011,f,dis,76.1467889908,32.1100917431,-100.0,-20.7339449541,-100.0,5.6880733945,58.5321100917,84.9541284404,5.6880733945,-55.9633027523,5.6880733945,-47.1559633028,32.1100917431,-47.1559633028,-47.1559633028,-100.0,93.7614678899,32.1100917431,67.3394495413,-38.3486238532,14.495412844,-3.11926605505,32.1100917431,49.7247706422,-47.1559633028,-100.0,23.3027522936,-11.9266055046,-11.9266055046,-47.1559633028,305.137614679,5.6880733945,-100.0,40.9174311927,40.9174311927,-29.5412844037,-47.1559633028,-55.9633027523,-20.7339449541,-55.9633027523,137.798165138,-47.1559633028,84.9541284404,-100.0,-47.1559633028,84.9541284404,-29.5412844037,-3.11926605505
p011,f,fea,-100.0,-100.0,-42.1686746988,-42.1686746988,-42.1686746988,-100.0,54.2168674699,15.6626506024,-22.8915662651,-100.0,150.602409639,-3.61445783133,-100.0,-100.0,-80.7228915663,227.710843373,-22.8915662651,-80.7228915663,-80.7228915663,150.602409639,54.2168674699,-100.0,150.602409639,285.542168675,-100.0,-100.0,169.879518072,-100.0,-42.1686746988,-42.1686746988,-42.1686746988,-80.7228915663,150.602409639,-80.7228915663,169.879518072,-80.7228915663,-3.61445783133,54.2168674699,-80.7228915663,-100.0,227.710843373,-100.0,-42.1686746988,227.710843373,-22.8915662651,-22.8915662651,-80.7228915663,150.602409639
p011,f,hap,-55.6581986143,-55.6581986143,-55.6581986143,27.4826789838,55.1963048499,-55.6581986143,-61.2009237875,-100.0,-77.8290993072,38.5681293303,27.4826789838,-77.8290993072,-5.77367205543,-33.4872979215,77.3672055427,-27.9445727483,-66.7436489607,82.9099307159,33.025404157,132.794457275,88.4526558891,132.794457275,-27.9445727483,21.9399538106,-50.1154734411,44.1108545035,-61.2009237875,-5.77367205543,-100.0,121.709006928,-77.8290993072,5.31177829099,10.8545034642,-50.1154734411,-61.2009237875,-5.77367205543,93.9953810624,-22.4018475751,-11.3163972286,27.4826789838,-55.6581986143,93.9953810624,88.4526558891,-100.0,-5.77367205543,38.5681293303,21.9399538106,44.1108545035
p011,f,ntr,-33.2173913043,8.52173913043,-49.9130434783,-16.5217391304,-24.8695652174,33.5652173913,-91.652173913,25.2173913043,16.8695652174,-100.0,-16.5217391304,-58.2608695652,25.2173913043,142.086956522,0.173913043478,-66.6086956522,100.347826087,-91.652173913,8.52173913043,117.043478261,0.173913043478,158.782608696,175.47826087,-33.2173913043,41.9130434783,-8.17391304348,92.0,-16.5217391304,-24.8695652174,58.6086956522,-8.17391304348,-33.2173913043,-24.8695652174,-33.2173913043,-33.2173913043,-91.652173913,-100.0,-8.17391304348,41.9130434783,75.3043478261,-49.9130434783,-74.9565217391,83.652173913,8.52173913043,-74.9565217391,66.9565217391,-91.652173913,-24.8695652174
p011,f,sad,-100.0,-100.0,-100.0,-100.0,-100.0,-100.0,-100.0,700.0,700.0,-100.0,-100.0,-100.0,-100.0,-100.0,-100.0,-100.0,700.0,-100.0,-100.0,700.0,-100.0,-100.0,-100.0,-100.0,-100.0,-100.0,700.0,-100.0,-100.0,-100.0,-100.0,-100.0,700.0,-100.0,-100.0,-100.0,-100.0,-100.0,-100.0,-100.0,-100.0,-100.0,-100.0,-100.0,-100.0,-100.0,-100.0,-100.0
p011,f,sup,-39.3684210526,-49.4736842105,-49.4736842105,-69.6842105263,-49.4736842105,-49.4736842105,-9.05263157895,-49.4736842105,-89.8947368421,122.315789474,-100.0,-9.05263157895,-19.1578947368,51.5789473684,71.7894736842,11.1578947368,-69.6842105263,-100.0,-19.1578947368,-19.1578947368,-29.2631578947,71.7894736842,21.2631578947,-29.2631578947,-29.2631578947,-9.05263157895,152.631578947,-100.0,11.1578947368,233.473684211,152.631578947,253.684210526,31.3684210526,-100.0,-59.5789473684,11.1578947368,-29.2631578947,92.0,-39.3684210526,31.3684210526,-49.4736842105,41.4736842105,-9.05263157895,31.3684210526,-39.3684210526,-29.2631578947,21.2631578947,-69.6842105263
p011,m,ang,-100.0,12.676056338,-100.0,-100.0,-100.0,12.676056338,102.816901408,-100.0,-100.0,-100.0,-100.0,-100.0,-100.0,-100.0,-100.0,-100.0,-100.0,12.676056338,1026.76056338,12.676056338,102.816901408,-100.0,215.492957746,-100.0,508.450704225,-100.0,12.676056338,215.492957746,418.309859155,-100.0,-100.0,12.676056338,-100.0,-100.0,-100.0,-100.0,12.676056338,12.676056338,-100.0,-100.0,-100.0,-100.0,305.633802817,102.816901408,-100.0,-100.0,-100.0,-100.0
p011,m,dis,-90.5882352941,-90.5882352941,107.058823529,-100.0,22.3529411765,-15.2941176471,69.4117647059,144.705882353,-100.0,50.5882352941,220.0,-100.0,-5.88235294118,-81.1764705882,-15.2941176471,229.411764706,-71.7647058824,-100.0,-24.7058823529,3.52941176471,-90.5882352941,50.5882352941,69.4117647059,-81.1764705882,60.0,31.7647058824,-100.0,-81.1764705882,3.52941176471,-100.0,50.5882352941,50.5882352941,-90.5882352941,60.0,41.1764705882,3.52941176471,-71.7647058824,-81.1764705882,-24.7058823529,323.529411765,-52.9411764706,60.0,12.9411764706,-100.0,-90.5882352941,-15.2941176471,-24.7058823529,135.294117647
p011,m,fea,-34.9593495935,-100.0,95.1219512195,4.06504065041,108.130081301,-100.0,-60.9756097561,-100.0,43.0894308943,-100.0,4.06504065041,186.178861789,4.06504065041,82.1138211382,-100.0,69.1056910569,-100.0,108.130081301,-34.9593495935,4.06504065041,-100.0,95.1219512195,-100.0,303.25203252,-100.0,-34.9593495935,95.1219512195,186.178861789,-100.0,-100.0,4.06504065041,-100.0,186.178861789,-100.0,134.146341463,82.1138211382,-100.0,-100.0,56.0975609756,-34.9593495935,-60.9756097561,-100.0,69.1056910569,-100.0,108.130081301,-60.9756097561,-34.9593495935,30.081300813
p011,m,hap,96.3898916968,-94.2238267148,-53.7906137184,79.0613718412,-24.9097472924,3.97111913357,15.523465704,-19.1335740072,-53.7906137184,3.97111913357,15.523465704,27.0758122744,50.1805054152,27.0758122744,-13.357400722,-59.5667870036,-1.80505415162,-24.9097472924,107.942238267,-65.3429602888,-100.0,-1.80505415162,-48.0144404332,50.1805054152,27.0758122744,-71.119133574,-19.1335740072,61.7328519856,-1.80505415162,-100.0,-53.7906137184,-59.5667870036,-94.2238267148,-42.238267148,50.1805054152,107.942238267,61.7328519856,3.97111913357,84.8375451264,-76.8953068592,32.8519855596,-1.80505415162,67.5090252708,32.8519855596,-24.9097472924,32.8519855596,15.523465704,50.1805054152
p011,m,ntr,-73.7226277372,57.6642335766,-73.7226277372,5.10948905109,83.9416058394,-47.4452554745,145.255474453,-100.0,66.4233576642,-100.0,-3.6496350365,-100.0,22.6277372263,145.255474453,22.6277372263,-100.0,-47.4452554745,110.218978102,-38.6861313869,-47.4452554745,267.883211679,162.773722628,92.700729927,57.6642335766,31.3868613139,-47.4452554745,-100.0,13.8686131387,5.10948905109,31.3868613139,13.8686131387,31.3868613139,66.4233576642,-12.4087591241,-47.4452554745,-73.7226277372,-29.9270072993,40.1459854015,5.10948905109,22.6277372263,-100.0,-100.0,66.4233576642,-56.204379562,-100.0,-73.7226277372,-47.4452554745,-47.4452554745
p011,m,sad,,,,,,,,,,,,,,,,,,,,,,,,,,,,,,,,,,,,,,,,,,,,,,,,
p011,m,sup,90.7692307692,-44.6153846154,72.3076923077,-63.0769230769,60.0,-100.0,35.3846153846,-44.6153846154,-100.0,115.384615385,35.3846153846,-44.6153846154,72.3076923077,-20.0,-69.2307692308,-75.3846153846,29.2307692308,16.9230769231,4.61538461538,109.230769231,-20.0,-13.8461538462,-100.0,78.4615384615,35.3846153846,238.461538462,133.846153846,-100.0,-20.0,-100.0,90.7692307692,-38.4615384615,-75.3846153846,-50.7692307692,-38.4615384615,-75.3846153846,29.2307692308,90.7692307692,4.61538461538,-75.3846153846,-26.1538461538,16.9230769231,-20.0,35.3846153846,78.4615384615,-50.7692307692,-100.0,-7.69230769231
p012,f,ang,-33.6405529954,69.5852534562,-48.3870967742,-4.14746543779,-4.14746543779,-70.5069124424,62.2119815668,-77.8801843318,-48.3870967742,-70.5069124424,25.3456221198,17.9723502304,10.599078341,194.930875576,-18.8940092166,-77.8801843318,-11.5207373272,-48.3870967742,3.22580645161,-100.0,17.9723502304,-100.0,-41.0138248848,-63.133640553,40.0921658986,99.0783410138,84.331797235,-33.6405529954,-4.14746543779,239.170506912,17.9723502304,32.7188940092,-48.3870967742,-18.8940092166,158.064516129,84.331797235,-33.6405529954,-26.267281106,17.9723502304,-63.133640553,32.7188940092,-33.6405529954,40.0921658986,-77.8801843318,40.0921658986,-26.267281106,-4.14746543779,-100.0
p012,f,dis,-90.9604519774,171.186440678,-54.802259887,8.47457627119,62.7118644068,-100.0,-54.802259887,-9.60451977401,-100.0,-72.8813559322,26.5536723164,-54.802259887,8.47457627119,-18.6440677966,98.8700564972,-90.9604519774,26.5536723164,17.5141242938,-0.564971751412,-63.8418079096,17.5141242938,198.305084746,-18.6440677966,89.8305084746,-36.7231638418,89.8305084746,-27.6836158192,-72.8813559322,-90.9604519774,89.8305084746,162.146892655,-100.0,-18.6440677966,17.5141242938,-72.8813559322,26.5536723164,-0.564971751412,-100.0,-100.0,-63.8418079096,107.90960452,-0.564971751412,8.47457627119,-100.0,116.949152542,-72.8813559322,162.146892655,80.790960452
p012,f,fea,31.5068493151,64.3835616438,-1.3698630137,-100.0,-100.0,-34.2465753425,-100.0,-100.0,130.136986301,-100.0,64.3835616438,31.5068493151,-100.0,-34.2465753425,130.136986301,97.2602739726,97.2602739726,-67.1232876712,31.5068493151,-100.0,-67.1232876712,-67.1232876712,228.767123288,-67.1232876712,-1.3698630137,31.5068493151,64.3835616438,-100.0,-67.1232876712,31.5068493151,-34.2465753425,-100.0,-67.1232876712,-100.0,-100.0,31.5068493151,97.2602739726,130.136986301,-1.3698630137,130.136986301,130.136986301,-100.0,97.2602739726,-100.0,-100.0,195.890410959,-34.2465753425,97.2602739726
p012,f,hap,-100.0,24.5801526718,17.2519083969,-63.358778626,90.534351145,-85.3435114504,-100.0,105.190839695,-56.0305343511,9.92366412214,46.5648854962,39.2366412214,53.893129771,97.8625954198,90.534351145,-63.358778626,-4.73282442748,134.503816794,-100.0,-26.7175572519,68.5496183206,90.534351145,-26.7175572519,-26.7175572519,-63.358778626,105.190839695,9.92366412214,-26.7175572519,39.2366412214,90.534351145,9.92366412214,-19.3893129771,-63.358778626,-12.0610687023,53.893129771,-48.7022900763,-56.0305343511,-63.358778626,68.5496183206,-26.7175572519,-48.7022900763,90.534351145,39.2366412214,-4.73282442748,-100.0,-26.7175572519,-63.358778626,-100.0
p012,f,ntr,154.867256637,154.867256637,-57.5221238938,-100.0,27.4336283186,-15.0442477876,-57.5221238938,-15.0442477876,112.389380531,197.345132743,-15.0442477876,-100.0,-100.0,-100.0,-15.0442477876,-15.0442477876,-15.0442477876,27.4336283186,154.867256637,-100.0,-15.0442477876,112.389380531,197.345132743,-57.5221238938,-57.5221238938,112.389380531,-100.0,-100.0,69.9115044248,27.4336283186,-57.5221238938,154.867256637,-57.5221238938,-15.0442477876,-57.5221238938,-100.0,-57.5221238938,-57.5221238938,27.4336283186,-100.0,-57.5221238938,-15.0442477876,-57.5221238938,239.82300885,-15.0442477876,-100.0,112.389380531,-100.0
p012,f,sad,213.043478261,25.2173913043,-100.0,-100.0,25.2173913043,-100.0,-100.0,4.34782608696,-100.0,108.695652174,-100.0,-100.0,4.34782608696,-100.0,25.2173913043,-100.0,-100.0,-100.0,108.695652174,-100.0,233.913043478,233.913043478,338.260869565,213.043478261,-100.0,-100.0,4.34782608696,25.2173913043,233.913043478,25.2173913043,129.565217391,-100.0,-100.0,-100.0,359.130434783,-100.0,129.565217391,-100.0,4.34782608696,25.2173913043,4.34782608696,-100.0,25.2173913043,-100.0,-100.0,-100.0,-100.0,-100.0
p012,f,sup,-100.0,-100.0,-100.0,445.454545455,-100.0,-100.0,9.09090909091,-100.0,9.09090909091,-100.0,-100.0,-100.0,-100.0,445.454545455,-100.0,-100.0,9.09090909091,-100.0,-100.0,-100.0,-100.0,9.09090909091,9.09090909091,9.09090909091,-100.0,9.09090909091,-100.0,-100.0,-100.0,445.454545455,445.454545455,-100.0,445.454545455,-100.0,-100.0,9.09090909091,9.09090909091,-100.0,-100.0,9.09090909091,9.09090909091,-100.0,9.09090909091,-100.0,-100.0,-100.0,554.545454545,9.09090909091
p012,m,ang,-100.0,134.965034965,-100.0,84.6153846154,67.8321678322,-100.0,-100.0,-100.0,118.181818182,-100.0,118.181818182,-100.0,-100.0,-100.0,-100.0,-32.8671328671,118.181818182,-100.0,67.8321678322,218.881118881,-100.0,118.181818182,252.447552448,51.048951049,-100.0,-100.0,84.6153846154,67.8321678322,-32.8671328671,252.447552448,-32.8671328671,-100.0,-32.8671328671,67.8321678322,67.8321678322,-100.0,-32.8671328671,-32.8671328671,-100.0,67.8321678322,51.048951049,-100.0,84.6153846154,-100.0,-100.0,-100.0,67.8321678322,134.965034965
p012,m,dis,33.8912133891,87.4476987448,-26.359832636,-33.0543933054,-53.1380753138,-26.359832636,-6.27615062762,33.8912133891,33.8912133891,-53.1380753138,94.1422594142,-59.8326359833,-19.6652719665,-53.1380753138,-12.9707112971,-86.6108786611,67.3640167364,-46.4435146444,-46.4435146444,-59.8326359833,0.418410041841,13.8075313808,7.1129707113,-53.1380753138,-100.0,-46.4435146444,107.531380753,-59.8326359833,-100.0,187.866108787,207.949790795,-19.6652719665,47.280334728,7.1129707113,80.7531380753,-100.0,0.418410041841,-46.4435146444,0.418410041841,-53.1380753138,13.8075313808,-100.0,60.6694560669,7.1129707113,-26.359832636,13.8075313808,53.9748953975,127.615062762
p012,m,fea,176.258992806,417.985611511,-100.0,-100.0,-100.0,-100.0,-65.4676258993,-65.4676258993,-65.4676258993,107.194244604,-65.4676258993,-65.4676258993,-100.0,-100.0,-100.0,-100.0,107.194244604,176.258992806,210.791366906,-100.0,-100.0,383.45323741,-100.0,-65.4676258993,-100.0,-100.0,107.194244604,-100.0,-65.4676258993,210.791366906,383.45323741,107.194244604,176.258992806,-100.0,107.194244604,107.194244604,-100.0,-65.4676258993,-65.4676258993,-100.0,107.194244604,-100.0,-100.0,-65.4676258993,-100.0,-100.0,-65.4676258993,-65.4676258993
p012,m,hap,-47.0866141732,-100.0,81.4173228346,20.9448818898,81.4173228346,88.9763779528,-31.968503937,-100.0,-47.0866141732,-100.0,20.9448818898,-62.2047244094,202.362204724,-39.5275590551,28.5039370079,-9.29133858268,-100.0,36.062992126,36.062992126,-47.0866141732,28.5039370079,293.070866142,-100.0,-100.0,-16.8503937008,-31.968503937,73.8582677165,-39.5275590551,36.062992126,-24.4094488189,43.6220472441,5.82677165354,43.6220472441,-100.0,-100.0,-100.0,-47.0866141732,88.9763779528,51.1811023622,-100.0,36.062992126,28.5039370079,20.9448818898,-100.0,36.062992126,-9.29133858268,36.062992126,134.330708661
p012,m,ntr,,,,,,,,,,,,,,,,,,,,,,,,,,,,,,,,,,,,,,,,,,,,,,,,
p012,m,sad,,,,,,,,,,,,,,,,,,,,,,,,,,,,,,,,,,,,,,,,,,,,,,,,
p012,m,sup,67.8321678322,-16.0839160839,34.2657342657,84.6153846154,-16.0839160839,34.2657342657,67.8321678322,-100.0,-100.0,17.4825174825,118.181818182,-32.8671328671,-66.4335664336,0.699300699301,84.6153846154,34.2657342657,0.699300699301,17.4825174825,-100.0,-16.0839160839,84.6153846154,17.4825174825,-100.0,17.4825174825,0.699300699301,0.699300699301,0.699300699301,-32.8671328671,-100.0,-66.4335664336,-100.0,-66.4335664336,101.398601399,-100.0,134.965034965,-100.0,67.8321678322,34.2657342657,-66.4335664336,101.398601399,0.699300699301,-32.8671328671,-66.4335664336,-66.4335664336,67.8321678322,118.181818182,34.2657342657,0.699300699301
p013,f,ang,102.409638554,-63.8554216867,37.3493975904,-63.8554216867,-20.4819277108,-49.3975903614,-27.7108433735,37.3493975904,-100.0,109.638554217,-27.7108433735,-20.4819277108,-63.8554216867,-49.3975903614,-34.9397590361,44.578313253,-34.9397590361,37.3493975904,87.9518072289,30.1204819277,-49.3975903614,203.614457831,203.614457831,-63.8554216867,-34.9397590361,124.096385542,66.265060241,-13.2530120482,-100.0,95.1807228916,-100.0,15.6626506024,-49.3975903614,-6.02409638554,51.8072289157,51.8072289157,22.8915662651,109.638554217,-100.0,-34.9397590361,-63.8554216867,-20.4819277108,-42.1686746988,-34.9397590361,-78.313253012,-34.9397590361,15.6626506024,-63.8554216867
p013,f,dis,164.0,188.0,56.0,-16.0,-100.0,-52.0,-52.0,-64.0,-16.0,56.0,104.0,-16.0,-100.0,-100.0,56.0,20.0,-16.0,-100.0,20.0,-100.0,-100.0,44.0,68.0,-52.0,-64.0,-100.0,20.0,-100.0,20.0,104.0,260.0,92.0,20.0,-16.0,-100.0,176.0,-16.0,-16.0,-100.0,8.0,-64.0,-52.0,-100.0,-64.0,56.0,-52.0,32.0,164.0
p013,f,fea,-55.0,-100.0,-100.0,-55.0,95.0,-100.0,-40.0,-70.0,-55.0,80.0,110.0,65.0,-55.0,155.0,20.0,35.0,65.0,-55.0,35.0,-100.0,-55.0,50.0,-40.0,5.0,95.0,-55.0,-100.0,20.0,-40.0,215.0,-25.0,5.0,-40.0,-10.0,5.0,-55.0,95.0,-70.0,-40.0,-55.0,80.0,50.0,50.0,35.0,35.0,-100.0,125.0,-55.0
p013,f,hap,30.1886792453,115.094339623,-54.7169811321,-37.7358490566,-60.3773584906,24.5283018868,-60.3773584906,-100.0,-3.77358490566,-100.0,-15.0943396226,47.1698113208,-100.0,-60.3773584906,24.5283018868,103.773584906,-100.0,92.4528301887,-20.7547169811,-49.0566037736,-20.7547169811,1.88679245283,-100.0,-60.3773584906,-60.3773584906,-15.0943396226,-20.7547169811,171.698113208,-100.0,1.88679245283,154.716981132,-43.3962264151,52.8301886792,-60.3773584906,109.433962264,-32.0754716981,183.018867925,200.0,-49.0566037736,-20.7547169811,98.1132075472,1.88679245283,24.5283018868,-3.77358490566,24.5283018868,-60.3773584906,-49.0566037736,-3.77358490566
p013,f,ntr,-100.0,-100.0,-71.2574850299,-42.5149700599,72.4550898204,-13.7724550898,-42.5149700599,-42.5149700599,-100.0,14.9700598802,129.94011976,-42.5149700599,-71.2574850299,-42.5149700599,129.94011976,129.94011976,72.4550898204,101.19760479,-13.7724550898,-42.5149700599,14.9700598802,-71.2574850299,129.94011976,14.9700598802,14.9700598802,-100.0,14.9700598802,43.7125748503,14.9700598802,-100.0,-42.5149700599,14.9700598802,14.9700598802,72.4550898204,101.19760479,43.7125748503,101.19760479,-100.0,-42.5149700599,101.19760479,-71.2574850299,-13.7724550898,129.94011976,-100.0,-100.0,-13.7724550898,72.4550898204,-71.2574850299
p013,f,sad,-100.0,5.49450549451,58.2417582418,5.49450549451,-47.2527472527,-100.0,-47.2527472527,-47.2527472527,5.49450549451,-100.0,5.49450549451,-47.2527472527,-100.0,-47.2527472527,-47.2527472527,-47.2527472527,-100.0,-47.2527472527,-100.0,-100.0,5.49450549451,5.49450549451,5.49450549451,-47.2527472527,-100.0,691.208791209,532.967032967,5.49450549451,58.2417582418,-100.0,-100.0,5.49450549451,-100.0,532.967032967,-100.0,-100.0,-100.0,-100.0,58.2417582418,-100.0,532.967032967,-100.0,-47.2527472527,-100.0,58.2417582418,-100.0,-100.0,-100.0
p013,f,sup,-27.5167785235,44.966442953,4.69798657718,101.342281879,-100.0,-11.4093959732,-19.4630872483,-43.6241610738,36.9127516779,-27.5167785235,12.7516778523,-51.677852349,-19.4630872483,28.8590604027,-3.35570469799,28.8590604027,36.9127516779,-3.35570469799,-43.6241610738,44.966442953,109.395973154,181.879194631,44.966442953,-19.4630872483,4.69798657718,12.7516778523,69.1275167785,-67.7852348993,-67.7852348993,-27.5167785235,109.395973154,-11.4093959732,-100.0,-67.7852348993,109.395973154,-35.5704697987,-19.4630872483,-27.5167785235,93.288590604,-43.6241610738,-100.0,-100.0,61.0738255034,-27.5167785235,-67.7852348993,-59.7315436242,77.1812080537,-19.4630872483
p013,m,ang,-36.0,-100.0,-100.0,46.2857142857,-26.8571428571,55.4285714286,-8.57142857143,-45.1428571429,-100.0,9.71428571429,128.571428571,18.8571428571,0.571428571429,0.571428571429,-63.4285714286,192.571428571,-63.4285714286,-81.7142857143,64.5714285714,128.571428571,-100.0,37.1428571429,-36.0,-45.1428571429,-100.0,46.2857142857,-8.57142857143,-8.57142857143,-100.0,165.142857143,-45.1428571429,-17.7142857143,28.0,-100.0,0.571428571429,73.7142857143,92.0,-36.0,0.571428571429,-100.0,-36.0,101.142857143,101.142857143,-45.1428571429,18.8571428571,-63.4285714286,146.857142857,9.71428571429
p013,m,dis,-75.8490566038,99.2452830189,-51.6981132075,26.7924528302,2.64150943396,-9.43396226415,-51.6981132075,-100.0,14.7169811321,20.7547169811,-81.8867924528,-9.43396226415,-75.8490566038,-100.0,-3.39622641509,226.037735849,-51.6981132075,165.660377358,105.283018868,-39.6226415094,-57.7358490566,2.64150943396,50.9433962264,-100.0,-27.5471698113,-75.8490566038,-100.0,63.0188679245,8.67924528302,-45.6603773585,93.2075471698,26.7924528302,-21.5094339623,-27.5471698113,99.2452830189,2.64150943396,99.2452830189,-3.39622641509,-3.39622641509,-33.5849056604,-100.0,2.64150943396,81.1320754717,-81.8867924528,26.7924528302,-39.6226415094,87.1698113208,63.0188679245
p013,m,fea,-100.0,38.4615384615,-100.0,130.769230769,-100.0,-100.0,-42.3076923077,-100.0,-42.3076923077,-7.69230769231,15.3846153846,15.3846153846,-7.69230769231,73.0769230769,50.0,130.769230769,-100.0,-65.3846153846,246.153846154,-42.3076923077,-100.0,246.153846154,-42.3076923077,107.692307692,15.3846153846,-100.0,-100.0,-65.3846153846,50.0,15.3846153846,419.230769231,73.0769230769,38.4615384615,188.461538462,-42.3076923077,-42.3076923077,-100.0,-7.69230769231,142.307692308,-42.3076923077,-65.3846153846,-42.3076923077,-65.3846153846,-65.3846153846,-65.3846153846,-100.0,-100.0,-42.3076923077
p013,m,hap,-46.0674157303,-46.0674157303,21.3483146067,21.3483146067,75.2808988764,61.797752809,48.3146067416,82.0224719101,28.0898876404,48.3146067416,-32.5842696629,-86.5168539326,55.0561797753,55.0561797753,-46.0674157303,-100.0,-86.5168539326,41.5730337079,-46.0674157303,108.988764045,-32.5842696629,-32.5842696629,-86.5168539326,-59.5505617978,-100.0,-39.3258426966,-100.0,-100.0,61.797752809,68.5393258427,7.86516853933,68.5393258427,14.606741573,-19.1011235955,14.606741573,156.179775281,115.730337079,95.5056179775,108.988764045,-52.808988764,34.8314606742,-100.0,-100.0,82.0224719101,-46.0674157303,-39.3258426966,-86.5168539326,7.86516853933
p013,m,ntr,-58.7392550143,51.2893982808,-100.0,-86.2464183381,-58.7392550143,-86.2464183381,-72.4928366762,-72.4928366762,92.5501432665,202.578796562,-100.0,-100.0,65.0429799427,51.2893982808,78.7965616046,-100.0,-3.72492836676,-100.0,-72.4928366762,-86.2464183381,-3.72492836676,188.8252149,-100.0,-86.2464183381,23.782234957,37.5358166189,92.5501432665,-58.7392550143,-3.72492836676,312.607449857,-86.2464183381,37.5358166189,65.0429799427,-86.2464183381,367.621776504,51.2893982808,-86.2464183381,65.0429799427,23.782234957,-100.0,-3.72492836676,-86.2464183381,23.782234957,-86.2464183381,51.2893982808,-72.4928366762,-3.72492836676,78.7965616046
p013,m,sad,-31.4285714286,-100.0,311.428571429,-100.0,-100.0,-100.0,-100.0,-31.4285714286,-100.0,-100.0,-100.0,311.428571429,-31.4285714286,-100.0,242.857142857,-100.0,242.857142857,-31.4285714286,-31.4285714286,-100.0,-100.0,-100.0,-100.0,242.857142857,311.428571429,311.428571429,-100.0,-100.0,-100.0,311.428571429,-31.4285714286,-31.4285714286,-100.0,242.857142857,242.857142857,-100.0,242.857142857,-100.0,-100.0,-31.4285714286,-100.0,-100.0,-100.0,-100.0,-100.0,-31.4285714286,-100.0,-31.4285714286
p013,m,sup,-100.0,-36.3770250368,34.3151693667,-15.1693667158,97.9381443299,-29.3078055965,-36.3770250368,-57.5846833579,-22.2385861561,41.3843888071,69.6612665685,-29.3078055965,-100.0,-50.5154639175,-100.0,189.837997054,13.1075110457,6.0382916053,69.6612665685,55.5228276878,-100.0,119.145802651,41.3843888071,-100.0,-29.3078055965,-29.3078055965,253.460972018,-100.0,41.3843888071,62.5920471281,-8.10014727541,-100.0,-29.3078055965,13.1075110457,62.5920471281,-57.5846833579,-100.0,-50.5154639175,-57.5846833579,20.176730486,-78.7923416789,-78.7923416789,246.391752577,69.6612665685,-29.3078055965,41.3843888071,-57.5846833579,34.3151693667
p014,f,ang,-100.0,-92.6040061633,-40.8320493066,3.54391371341,-26.0400616333,-63.0200308166,-18.6440677966,-92.6040061633,-11.2480739599,-11.2480739599,240.215716487,47.9198767334,-92.6040061633,107.087827427,-3.85208012327,84.8998459168,114.483821263,62.7118644068,84.8998459168,-11.2480739599,-11.2480739599,107.087827427,-3.85208012327,-92.6040061633,-100.0,10.9399075501,-100.0,77.5038520801,70.1078582435,3.54391371341,-18.6440677966,-18.6440677966,-40.8320493066,-40.8320493066,99.6918335901,-3.85208012327,-100.0,18.3359013867,-70.4160246533,-33.43605547,77.5038520801,-11.2480739599,70.1078582435,25.7318952234,-3.85208012327,-63.0200308166,-33.43605547,3.54391371341
p014,f,dis,59.1836734694,-100.0,-100.0,22.4489795918,10.2040816327,71.4285714286,-51.0204081633,-51.0204081633,10.2040816327,-51.0204081633,-38.7755102041,71.4285714286,-100.0,-100.0,-100.0,71.4285714286,71.4285714286,10.2040816327,-100.0,22.4489795918,10.2040816327,10.2040816327,22.4489795918,-38.7755102041,-100.0,10.2040816327,242.857142857,22.4489795918,-100.0,218.367346939,304.081632653,-100.0,-100.0,-100.0,-51.0204081633,132.653061224,-38.7755102041,-100.0,-100.0,-100.0,-38.7755102041,-100.0,59.1836734694,120.408163265,-38.7755102041,22.4489795918,291.836734694,10.2040816327
p014,f,fea,-61.6,15.2,-13.6,-61.6,-4.0,-4.0,-90.4,-23.2,-42.4,-13.6,-42.4,72.8,-4.0,-71.2,-61.6,15.2,82.4,-100.0,15.2,-32.8,15.2,5.6,-71.2,-4.0,-71.2,24.8,-42.4,5.6,24.8,168.8,15.2,15.2,34.4,120.8,82.4,-52.0,15.2,-4.0,92.0,-23.2,-23.2,15.2,-13.6,63.2,-52.0,-4.0,63.2,24.8
p014,f,hap,93.3333333333,-20.0,-13.3333333333,-100.0,-26.6666666667,33.3333333333,20.0,-93.3333333333,173.333333333,-100.0,126.666666667,-46.6666666667,53.3333333333,86.6666666667,-80.0,-100.0,-73.3333333333,73.3333333333,13.3333333333,-13.3333333333,-26.6666666667,-66.6666666667,40.0,60.0,40.0,-80.0,-46.6666666667,-93.3333333333,33.3333333333,86.6666666667,73.3333333333,53.3333333333,20.0,-100.0,100.0,-66.6666666667,-100.0,80.0,-66.6666666667,-80.0,80.0,-100.0,0.0,26.6666666667,126.666666667,20.0,-13.3333333333,-6.66666666667
p014,f,ntr,-100.0,-100.0,234.88372093,0.46511627907,-10.6976744186,45.1162790698,-21.8604651163,45.1162790698,112.093023256,67.4418604651,56.2790697674,123.255813953,-88.8372093023,-10.6976744186,-33.023255814,-10.6976744186,-100.0,123.255813953,-44.1860465116,45.1162790698,-44.1860465116,56.2790697674,-100.0,-100.0,-33.023255814,89.7674418605,-100.0,145.581395349,0.46511627907,112.093023256,67.4418604651,-100.0,-88.8372093023,11.6279069767,-100.0,257.209302326,11.6279069767,-100.0,-100.0,11.6279069767,-21.8604651163,-10.6976744186,-33.023255814,67.4418604651,-100.0,11.6279069767,-100.0,-44.1860465116
