,,,0,1,2,3,4,5,6,7,8,9,10,11,12,13,14,15,16,17,18,19,20,21,22,23,24,25,26,27,28,29,30,31,32,33,34,35,36,37,38,39,40,41,42,43,44,45,46,47
p001,f,ang,-0.948401413243,-0.00654069940168,1.66787834743,-1.26235498452,-1.26235498452,-0.320494270682,-0.948401413243,0.412064062306,-1.26235498452,-0.948401413243,1.03997120487,1.45857596657,-1.26235498452,0.0981104910252,0.93532001444,-1.26235498452,-0.948401413243,0.412064062306,-1.26235498452,0.412064062306,1.03997120487,-1.26235498452,-0.00654069940168,-0.320494270682,-0.320494270682,-0.843750222816,2.40043668042,0.412064062306,1.35392477615,0.412064062306,1.45857596657,-0.00654069940168,-1.26235498452,-1.26235498452,-1.26235498452,0.412064062306,1.03997120487,0.0981104910252,-0.320494270682,-0.320494270682,0.0981104910252,0.0981104910252,0.0981104910252,1.35392477615,-1.26235498452,1.03997120487,1.35392477615,1.03997120487
p001,f,dis,-0.245679201932,1.03612532989,-0.0747719310228,-1.10021555648,-1.10021555648,0.437949881705,1.54884714262,0.865218058979,-0.245679201932,-1.10021555648,1.12157896534,-1.10021555648,0.865218058979,0.779764423524,0.608857152615,-1.10021555648,0.608857152615,-0.587493743751,-0.0747719310228,-1.10021555648,-1.10021555648,1.80520804898,1.89066168443,0.437949881705,-0.672947379206,0.352496246251,0.0961353398865,-1.10021555648,-0.0747719310228,-1.10021555648,3.25791985171,-0.587493743751,0.52340351716,-0.0747719310228,1.29248623625,0.352496246251,-1.10021555648,-1.10021555648,1.46339350716,-0.0747719310228,-1.10021555648,-0.587493743751,-0.0747719310228,-0.0747719310228,-0.587493743751,-0.587493743751,-1.10021555648,-0.416586472842
p001,f,fea,0.58223380559,-1.0405081558,-1.0405081558,-1.0405081558,0.401929143213,-1.0405081558,0.401929143213,1.84436644222,0.401929143213,0.58223380559,1.84436644222,0.58223380559,0.221624480837,0.58223380559,1.66406177985,0.58223380559,0.58223380559,-1.0405081558,0.221624480837,0.58223380559,-1.0405081558,1.12314779272,0.221624480837,-1.0405081558,-1.0405081558,-1.0405081558,0.221624480837,0.401929143213,0.221624480837,2.0246711046,-1.0405081558,-1.0405081558,-1.0405081558,0.401929143213,1.84436644222,0.58223380559,-1.0405081558,-1.0405081558,-1.0405081558,-1.0405081558,-1.0405081558,2.0246711046,-1.0405081558,-1.0405081558,0.221624480837,-1.0405081558,0.221624480837,0.221624480837
p001,f,hap,0.352580340357,1.05774102107,-0.151105860153,-0.856266540866,-0.352580340357,-1.35995274138,1.46068998148,-0.453317580458,-1.35995274138,1.46068998148,0.755529300764,-0.352580340357,0.55405482056,-0.55405482056,-0.856266540866,-0.654792060662,-0.0503686200509,0.151105860153,-1.35995274138,-0.957003780968,0.251843100255,1.05774102107,-0.957003780968,-0.957003780968,-0.453317580458,0.251843100255,-0.755529300764,-0.352580340357,0.0503686200509,0.251843100255,-0.755529300764,-1.25921550127,1.15847826117,0.151105860153,0.55405482056,1.76290170178,-1.35995274138,1.76290170178,-0.352580340357,1.15847826117,-0.352580340357,2.06511342209,-0.55405482056,-1.35995274138,1.86363894188,-1.35995274138,0.251843100255,1.76290170178
p001,f,ntr,-0.897599759741,-0.897599759741,0.157929579108,0.733672854844,0.349844004353,-1.08951418499,-1.08951418499,-0.801642547118,-1.08951418499,-0.321856484005,1.21345891796,-0.321856484005,0.157929579108,0.733672854844,0.157929579108,0.157929579108,-0.897599759741,-0.609728121873,0.733672854844,-1.08951418499,-1.08951418499,-0.51377090925,0.0619723664854,-0.321856484005,0.445801216976,-0.0339848461372,0.157929579108,-1.08951418499,-0.705685334496,0.445801216976,0.349844004353,2.07707383156,0.541758429599,1.98111661894,0.829630067466,-1.08951418499,-0.705685334496,-0.321856484005,0.829630067466,-1.08951418499,0.157929579108,-1.08951418499,3.70834644615,0.0619723664854,-0.417813696628,-0.705685334496,1.98111661894,0.253886791731
p001,f,sad,0.929100545349,-0.968636738768,-0.968636738768,-0.810491965092,-0.968636738768,-0.0197680967096,-0.336057644063,0.45466622432,-0.810491965092,-0.0197680967096,0.45466622432,-0.810491965092,0.929100545349,-0.968636738768,-0.968636738768,0.612810997996,-0.336057644063,-0.968636738768,0.929100545349,-0.0197680967096,0.612810997996,-0.810491965092,-0.968636738768,-0.0197680967096,-0.0197680967096,3.3012721505,-0.810491965092,-0.0197680967096,-0.336057644063,1.08724531903,2.51054828211,0.45466622432,-0.0197680967096,2.98498260314,1.40353486638,-0.0197680967096,-0.810491965092,0.770955771673,-0.177912870386,-0.336057644063,0.138376676967,-0.810491965092,-0.336057644063,-0.177912870386,-0.810491965092,-0.336057644063,-0.810491965092,-0.968636738768
p001,f,sup,1.18185560184,0.905128436534,-0.755234555324,-1.03196172063,0.628401271224,-0.570749778451,-1.30868888594,-0.755234555324,0.351674105914,-0.570749778451,-1.30868888594,1.73530993246,1.64306754403,-0.0172954478319,0.351674105914,-1.03196172063,1.18185560184,0.536158882788,0.351674105914,-0.294022613142,-1.30868888594,-0.201780224705,-0.294022613142,0.628401271224,-1.30868888594,-0.0172954478319,0.0749469406047,-0.755234555324,-1.03196172063,-0.0172954478319,2.47324903996,1.73530993246,-1.30868888594,-1.30868888594,-1.30868888594,-1.03196172063,-0.201780224705,0.905128436534,-0.478507390015,1.08961321341,1.08961321341,0.167189329041,0.0749469406047,0.99737082497,1.73530993246,-1.30868888594,-0.201780224705,-0.109537836268
p001,m,ang,0.0,0.0,0.0,0.0,0.0,0.0,0.0,0.0,0.0,0.0,0.0,0.0,0.0,0.0,0.0,0.0,0.0,0.0,0.0,0.0,0.0,0.0,0.0,0.0,0.0,0.0,0.0,0.0,0.0,0.0,0.0,0.0,0.0,0.0,0.0,0.0,0.0,0.0,0.0,0.0,0.0,0.0,0.0,0.0,0.0,0.0,0.0,0.0
p001,m,dis,-0.86095425963,0.453293938816,-0.86095425963,0.891376671631,0.672335305223,-1.07999562604,-0.86095425963,1.69452834846,-1.07999562604,2.05959729247,-1.07999562604,-1.07999562604,0.818362882828,1.62151455966,1.11041803804,-0.714926682025,0.453293938816,-0.641912893222,0.453293938816,0.307266361211,-1.07999562604,0.0152112060005,0.453293938816,-0.130816371605,1.84055592606,-0.130816371605,-1.07999562604,0.088224994803,-0.349857738012,-0.130816371605,1.91356971487,-1.07999562604,0.672335305223,-1.07999562604,0.307266361211,0.526307727618,-0.641912893222,0.0152112060005,-1.07999562604,1.84055592606,-0.641912893222,-0.56889910442,-1.07999562604,0.234252572408,-1.07999562604,-1.07999562604,-0.86095425963,1.91356971487
p001,m,fea,0.316520518946,-0.817284325039,0.996803425336,-0.363762387445,-0.590523356242,-0.817284325039,-0.817284325039,1.67708633173,-0.817284325039,0.543281487742,-0.817284325039,1.67708633173,0.770042456539,-0.817284325039,-0.817284325039,-0.590523356242,-0.590523356242,0.316520518946,0.770042456539,1.90384730052,2.81089117571,1.90384730052,-0.817284325039,-0.817284325039,0.316520518946,-0.817284325039,-0.817284325039,1.67708633173,-0.817284325039,-0.817284325039,0.543281487742,-0.817284325039,-0.817284325039,0.543281487742,-0.590523356242,0.996803425336,0.770042456539,-0.817284325039,0.316520518946,-0.137001418648,1.90384730052,-0.817284325039,-0.363762387445,-0.817284325039,-0.590523356242,-0.817284325039,-0.817284325039,-0.590523356242
p001,m,hap,0.737596192952,0.382662686569,-0.504671079388,-0.770871209176,-0.859604585771,-1.12580471556,0.116462556782,-1.12580471556,-0.0610041964096,0.116462556782,1.26999645253,0.382662686569,0.205195933378,-0.68213783258,0.116462556782,-0.504671079388,1.18126307593,-0.859604585771,0.116462556782,0.826329569548,-0.238470949601,1.09252969934,2.51226372487,-0.238470949601,1.53619658231,-0.770871209176,-0.859604585771,1.8911300887,0.737596192952,2.33479697168,0.116462556782,-0.859604585771,-1.12580471556,-1.21453809215,0.382662686569,1.8023967121,-1.21453809215,-1.21453809215,-0.68213783258,0.205195933378,1.09252969934,-0.593404455984,-1.21453809215,-1.21453809215,0.116462556782,-0.593404455984,-1.21453809215,0.471396063165
p001,m,ntr,-1.03905210795,-1.03905210795,-1.03905210795,-1.03905210795,-1.03905210795,0.0584308031363,-1.03905210795,2.741166808,0.546200985839,-0.185454288215,-0.429339379567,-1.03905210795,1.7656264426,-0.0635117425395,-0.429339379567,-0.429339379567,-0.429339379567,0.790086077191,-0.673224470918,-0.429339379567,-0.185454288215,2.2533966253,0.790086077191,-0.673224470918,-0.795167016594,-0.0635117425395,0.180373348812,-1.03905210795,0.790086077191,0.302315894488,-1.03905210795,-0.185454288215,1.03397116854,0.180373348812,1.64368389692,1.27785625989,-0.795167016594,0.302315894488,0.0584308031363,-1.03905210795,2.37533917098,0.180373348812,-1.03905210795,1.15591371422,0.790086077191,-0.185454288215,-1.03905210795,-0.795167016594
p001,m,sad,0.0,0.0,0.0,0.0,0.0,0.0,0.0,0.0,0.0,0.0,0.0,0.0,0.0,0.0,0.0,0.0,0.0,0.0,0.0,0.0,0.0,0.0,0.0,0.0,0.0,0.0,0.0,0.0,0.0,0.0,0.0,0.0,0.0,0.0,0.0,0.0,0.0,0.0,0.0,0.0,0.0,0.0,0.0,0.0,0.0,0.0,0.0,0.0
p001,m,sup,-0.223974315279,-0.862633748945,-0.862633748945,-0.330417554223,1.47911750783,0.94690131311,-0.862633748945,-0.862633748945,0.94690131311,-0.862633748945,1.47911750783,-0.223974315279,-0.330417554223,-0.862633748945,0.94690131311,-0.223974315279,2.1177769415,-0.223974315279,2.43710665833,0.308241879443,1.26623102994,1.79844722466,-0.862633748945,0.414685118388,-0.223974315279,-0.862633748945,-0.862633748945,-0.862633748945,-0.862633748945,2.1177769415,-0.223974315279,-0.862633748945,1.79844722466,-0.862633748945,-0.862633748945,-0.223974315279,-0.862633748945,0.308241879443,-0.223974315279,-0.862633748945,-0.223974315279,-0.862633748945,1.58556074678,-0.223974315279,-0.330417554223,-0.862633748945,-0.330417554223,-0.862633748945
p002,f,ang,-0.736270215154,-0.273864995917,-0.0756913305299,-0.802328103617,-0.802328103617,-0.33992288438,-0.736270215154,0.584887554094,-0.802328103617,-0.736270215154,0.650945442557,-0.00963344206744,-0.802328103617,0.915176996407,1.57575588103,-0.802328103617,-0.736270215154,-0.802328103617,1.04729277333,0.981234884869,0.584887554094,-0.802328103617,-0.273864995917,-0.273864995917,-0.736270215154,-0.33992288438,4.15201353107,-0.736270215154,1.04729277333,0.650945442557,-0.207807107455,-0.273864995917,-0.802328103617,-0.802328103617,-0.802328103617,0.254598111782,0.584887554094,-0.802328103617,0.981234884869,-0.33992288438,-0.802328103617,-0.207807107455,-0.802328103617,2.43450843104,-0.802328103617,1.04729277333,1.11335066179,-0.33992288438
p002,f,dis,-0.717466621004,2.52673027397,0.655078219177,-0.717466621004,-0.717466621004,0.155971004566,2.52673027397,-0.218359406392,-0.717466621004,-0.717466621004,-0.717466621004,-0.717466621004,1.40373904109,0.77985502283,-0.717466621004,-0.218359406392,-0.218359406392,-0.717466621004,-0.717466621004,-0.717466621004,-0.717466621004,1.6532926484,2.27717666666,0.655078219177,-0.717466621004,1.40373904109,-0.717466621004,-0.717466621004,-0.717466621004,-0.717466621004,2.52673027397,-0.717466621004,-0.717466621004,0.155971004566,1.27896223744,-0.218359406392,-0.717466621004,-0.717466621004,0.77985502283,0.155971004566,-0.717466621004,-0.717466621004,0.155971004566,0.155971004566,-0.218359406392,-0.218359406392,-0.717466621004,-0.717466621004
p002,f,fea,-0.0623373123308,-0.917249024296,-0.917249024296,-0.917249024296,-0.660775510707,-0.917249024296,-0.660775510707,1.30552142681,-0.660775510707,1.47650376921,4.55418593228,-0.57528433951,-0.57528433951,-0.404301997117,1.04904791322,1.22003025562,-0.404301997117,-0.917249024296,0.792574399635,0.963556742028,-0.917249024296,-0.404301997117,0.279627372455,-0.404301997117,-0.660775510707,-0.404301997117,-0.917249024296,-0.660775510707,0.279627372455,0.194136201259,0.450609714848,-0.57528433951,-0.57528433951,-0.660775510707,0.707083228438,0.108645030062,-0.57528433951,-0.660775510707,-0.404301997117,1.81846845399,-0.57528433951,0.194136201259,-0.147828483527,-0.57528433951,0.792574399635,-0.404301997117,1.13453908442,0.792574399635
p002,f,hap,0.83284598386,0.83284598386,0.759895970675,-0.334354227097,-0.261404213912,-1.2827043985,0.905795997045,-0.553204266652,-0.553204266652,0.395145904751,0.83284598386,-0.188454200727,-0.188454200727,-1.2827043985,-1.2827043985,-0.334354227097,-0.772054306206,0.030395838827,-1.20975438532,-0.480254253467,0.103345852012,1.41644608934,-1.2827043985,-1.2827043985,-1.2827043985,1.1246460366,-0.334354227097,0.468095917936,-0.261404213912,0.395145904751,-0.334354227097,-1.2827043985,1.19759604978,0.395145904751,0.97874601023,1.78119615526,-1.2827043985,0.613995944306,-0.261404213912,0.83284598386,-0.261404213912,2.51069628711,-1.20975438532,-1.2827043985,1.05169602341,-1.20975438532,0.68694595749,2.14594622119
p002,f,ntr,-0.203112500927,-0.203112500927,0.166182955304,0.24004204655,0.166182955304,-0.941703413388,-0.941703413388,0.978632959011,-0.941703413388,0.0923238640576,0.904773867765,-0.498548865911,0.830914776519,1.93880114521,-0.276971592173,-0.867844322142,-0.720126139649,-0.867844322142,-0.941703413388,-0.867844322142,-0.941703413388,0.24004204655,0.166182955304,0.0923238640576,0.0923238640576,0.0923238640576,-0.498548865911,-0.941703413388,-0.941703413388,-0.203112500927,-0.498548865911,1.64336478023,0.24004204655,0.313901137796,0.0923238640576,-0.867844322142,-0.941703413388,-0.424689774665,0.313901137796,-0.941703413388,1.34792841524,-0.941703413388,3.48984206138,0.166182955304,-0.203112500927,-0.941703413388,3.0466875139,0.904773867765
p002,f,sad,1.28088074459,-0.733193805523,-0.733193805523,-0.733193805523,-0.733193805523,0.750861126138,-0.733193805523,1.81090036304,-0.733193805523,0.750861126138,1.81090036304,-0.203174187073,-0.733193805523,-0.733193805523,-0.733193805523,-0.203174187073,-0.733193805523,-0.733193805523,1.28088074459,-0.733193805523,-0.733193805523,-0.733193805523,-0.733193805523,0.750861126138,0.750861126138,-0.203174187073,0.432849355068,-0.203174187073,-0.733193805523,2.44692390518,-0.203174187073,1.81090036304,0.750861126138,-0.733193805523,3.2949552947,-0.203174187073,-0.733193805523,0.962868973518,-0.733193805523,-0.733193805523,-0.203174187073,-0.733193805523,-0.733193805523,-0.733193805523,0.432849355068,-0.733193805523,0.432849355068,-0.733193805523
p002,f,sup,1.37899142883,-0.304737374575,-0.199504324362,-1.04136872607,1.48422447905,-1.04136872607,-1.04136872607,-0.199504324362,0.326660926703,-0.725669575427,-0.725669575427,2.95748718203,0.958059227981,-0.725669575427,0.642360077342,-1.04136872607,1.69469057947,-0.0942712741491,1.69469057947,-1.04136872607,-1.04136872607,-0.725669575427,-0.83090262564,1.37899142883,-0.725669575427,-0.83090262564,0.642360077342,-0.199504324362,-1.04136872607,0.537127027129,1.79992362968,1.37899142883,-1.04136872607,-1.04136872607,-1.04136872607,-1.04136872607,0.642360077342,1.27375837862,0.22142787649,-0.0942712741491,-0.725669575427,0.116194826277,-0.199504324362,0.22142787649,0.326660926703,-1.04136872607,-0.199504324362,0.326660926703
p002,m,ang,-1.0251298013,1.8980126024,2.38520300302,-0.0507490000642,0.923631801169,1.04542940132,0.801834201015,0.801834201015,-1.0251298013,-0.0507490000642,0.314643800398,-1.0251298013,-1.0251298013,1.28902460163,-1.0251298013,0.0710486000899,0.0710486000899,-0.172546600218,-0.0507490000642,0.314643800398,1.04542940132,-1.0251298013,-0.172546600218,-1.0251298013,-0.0507490000642,-0.172546600218,2.14160780271,2.01981020256,-1.0251298013,0.0710486000899,0.314643800398,-1.0251298013,-1.0251298013,-1.0251298013,-1.0251298013,-0.172546600218,1.04542940132,-0.172546600218,0.0710486000899,-1.0251298013,-0.0507490000642,-1.0251298013,-1.0251298013,-1.0251298013,-0.172546600218,-1.0251298013,2.14160780271,-0.0507490000642
p002,m,dis,-0.142294713044,0.90849701405,-0.742747128526,-0.142294713044,-0.742747128526,-0.742747128526,-0.142294713044,2.63479770856,-0.742747128526,0.75838391018,-0.742747128526,-0.742747128526,-0.742747128526,2.40962805276,-0.742747128526,-0.742747128526,0.833440462115,-0.742747128526,-0.742747128526,-0.742747128526,-0.742747128526,0.833440462115,1.50894942953,0.0828749427619,0.75838391018,0.0828749427619,-0.742747128526,-0.742747128526,-0.742747128526,0.0828749427619,2.63479770856,-0.742747128526,0.157931494697,-0.742747128526,0.0828749427619,0.90849701405,-0.742747128526,0.833440462115,-0.742747128526,0.75838391018,-0.742747128526,-0.742747128526,-0.742747128526,1.50894942953,-0.742747128526,-0.742747128526,-0.742747128526,1.95928874114
p002,m,fea,-0.35623524994,-1.21119984979,0.213741149964,-0.261239183289,0.0237490166626,-0.831215583192,-0.0712470499879,-0.45123131659,-1.02120771649,2.49364674958,-0.0712470499879,0.783717549867,0.783717549867,0.0237490166626,-0.831215583192,-0.546227383241,-0.546227383241,0.118745083313,1.44869001642,2.39865068293,2.39865068293,0.688721483216,-0.166243116638,0.213741149964,1.63868214972,-0.35623524994,-0.831215583192,0.688721483216,-1.21119984979,-1.21119984979,0.973709683168,-1.21119984979,-0.831215583192,0.878713616518,-0.166243116638,1.35369394977,1.25869788312,-1.21119984979,-1.21119984979,-1.21119984979,-0.641223449891,-0.166243116638,-1.21119984979,0.118745083313,-0.546227383241,-0.641223449891,0.118745083313,0.403733283265
p002,m,hap,1.56402202817,-0.180099506274,-0.3317622484,-0.104268135212,-0.938413216904,-0.938413216904,-0.180099506274,-1.01424458797,-0.255930877337,-0.180099506274,2.3223357388,-0.938413216904,0.426551462229,-0.180099506274,0.502382833292,-0.3317622484,0.502382833292,-0.938413216904,-0.180099506274,0.654045575418,-0.3317622484,0.881539688606,2.77732396518,-0.255930877337,1.18486517286,-0.938413216904,-1.01424458797,1.18486517286,0.19905734904,2.54982985199,-0.180099506274,-0.938413216904,-1.01424458797,-0.938413216904,-0.255930877337,1.79151614136,-1.01424458797,-1.01424458797,-0.635087732652,0.502382833292,0.881539688606,-0.255930877337,-1.01424458797,-1.01424458797,-0.180099506274,-0.3317622484,-1.01424458797,1.1090338018
p002,m,ntr,-0.243415419641,-1.10023769678,-1.10023769678,-1.10023769678,-1.10023769678,0.22394218607,-1.10023769678,0.769192726067,1.85969380606,1.39233620035,-1.10023769678,-1.10023769678,-0.554987156782,-0.321308353927,0.769192726067,-1.10023769678,-0.710773025353,0.457620988926,-0.554987156782,0.613406857496,0.613406857496,-0.0876295510709,1.39233620035,-1.10023769678,-0.243415419641,0.847085660352,1.6260150032,-0.788665959638,0.691299791782,1.08076446321,-1.10023769678,0.22394218607,1.00287152892,1.6260150032,-0.866558893923,0.146049251785,-1.10023769678,0.22394218607,-0.632880091068,-1.10023769678,0.22394218607,1.70390793749,-1.10023769678,2.48283728034,0.146049251785,-0.321308353927,-1.10023769678,0.613406857496
p002,m,sad,2.46437936593,-0.597489734103,-0.597489734103,-0.597489734103,0.831382512578,-0.597489734103,1.44375633258,-0.597489734103,-0.597489734103,-0.597489734103,-0.597489734103,-0.0871782174314,0.831382512578,-0.597489734103,-0.597489734103,0.42313329924,-0.597489734103,-0.597489734103,-0.0871782174314,-0.597489734103,1.44375633258,-0.597489734103,-0.597489734103,-0.0871782174314,-0.0871782174314,-0.0871782174314,2.15819245592,-0.597489734103,-0.597489734103,1.64788093925,-0.597489734103,-0.597489734103,-0.0871782174314,-0.0871782174314,3.68912700594,1.64788093925,-0.597489734103,-0.597489734103,-0.597489734103,-0.597489734103,-0.597489734103,-0.0871782174314,1.44375633258,-0.597489734103,-0.597489734103,-0.597489734103,-0.597489734103,-0.597489734103
p002,m,sup,1.68942971656,-1.15592559554,0.503865003185,0.148195589172,1.57087324522,-0.0889173535033,0.148195589172,-1.15592559554,0.859534417198,-0.681699710192,-0.0889173535033,-0.444586767516,0.622421474523,-0.681699710192,1.57087324522,-0.444586767516,3.34922031529,0.503865003185,0.740977945861,-0.444586767516,1.33376030255,0.0296391178344,0.503865003185,0.503865003185,-1.15592559554,-1.15592559554,-1.15592559554,0.503865003185,1.33376030255,0.622421474523,-0.681699710192,-0.681699710192,1.33376030255,-1.15592559554,-0.681699710192,0.0296391178344,-0.207473824841,-1.15592559554,-1.15592559554,0.148195589172,-0.444586767516,-1.15592559554,1.09664735987,-0.681699710192,-0.681699710192,-1.15592559554,0.503865003185,-1.15592559554
p003,f,ang,0.718683459906,-1.12606552809,-0.48040338229,1.1798707069,2.3789575491,-1.12606552809,0.0730213141081,-1.12606552809,1.1798707069,-1.12606552809,1.08763325751,-0.0192161352916,-0.0192161352916,-0.203691034091,1.7332954033,0.0730213141081,-1.12606552809,0.441971111707,0.903158358706,1.2721081563,0.534208561107,0.0730213141081,-1.12606552809,-0.203691034091,-1.12606552809,-0.0192161352916,1.08763325751,-0.111453584691,-0.941590629289,1.2721081563,2.6556698973,-0.66487828109,-1.12606552809,-0.203691034091,-1.12606552809,-1.12606552809,0.534208561107,0.903158358706,0.441971111707,-1.12606552809,-1.12606552809,-0.941590629289,-0.66487828109,1.08763325751,-0.111453584691,-0.66487828109,0.0730213141081,-0.941590629289
p003,f,dis,-0.617910386094,-0.617910386094,-0.617910386094,-0.617910386094,-0.617910386094,-0.617910386094,-0.617910386094,-0.617910386094,0.0411940257396,-0.617910386094,0.83211931994,-0.617910386094,-0.617910386094,-0.617910386094,0.0411940257396,0.0411940257396,-0.617910386094,-0.617910386094,-0.617910386094,0.0411940257396,-0.617910386094,2.94125343781,0.963940202307,-0.617910386094,-0.617910386094,-0.617910386094,-0.617910386094,1.09576108467,-0.617910386094,3.07307432017,-0.617910386094,0.0411940257396,-0.617910386094,0.0411940257396,-0.617910386094,1.22758196704,0.0411940257396,-0.617910386094,1.49122373177,-0.617910386094,1.09576108467,-0.617910386094,3.07307432017,-0.617910386094,-0.617910386094,0.83211931994,0.0411940257396,0.963940202307
p003,f,fea,-0.684434980718,-0.684434980718,-0.215108136797,-0.684434980718,2.13152608281,-0.215108136797,-0.684434980718,1.66219923889,-0.215108136797,-0.215108136797,1.66219923889,-0.215108136797,2.13152608281,-0.684434980718,-0.215108136797,1.66219923889,-0.684434980718,2.13152608281,-0.215108136797,-0.215108136797,-0.684434980718,-0.684434980718,-0.684434980718,-0.684434980718,-0.684434980718,-0.684434980718,1.66219923889,-0.684434980718,-0.684434980718,-0.684434980718,1.66219923889,-0.684434980718,-0.684434980718,1.66219923889,-0.215108136797,1.66219923889,1.66219923889,-0.215108136797,-0.684434980718,-0.684434980718,-0.215108136797,-0.684434980718,-0.684434980718,-0.684434980718,-0.684434980718,-0.684434980718,-0.215108136797,-0.684434980718
p003,f,hap,-0.411447857446,-0.731277770927,0.548041882995,-1.37093759789,-0.971150206038,1.10774423159,0.148254491145,-0.331490379076,0.548041882995,0.0682970127745,-0.0116604655956,-1.37093759789,1.42757414507,0.0682970127745,-1.13106516278,-0.0116604655956,-0.571362814187,-1.37093759789,0.627999361366,-0.811235249297,-0.491405335817,1.10774423159,0.388126926255,-0.651320292557,-0.251532900706,-0.731277770927,2.06723397203,-1.05110768441,-0.971150206038,1.42757414507,0.627999361366,0.548041882995,1.02778675322,-0.651320292557,1.50753162344,3.50646858269,-0.411447857446,-0.411447857446,-0.731277770927,-0.411447857446,-0.411447857446,-0.651320292557,0.0682970127745,-0.651320292557,-0.491405335817,0.787914318106,-1.05110768441,1.50753162344
p003,f,ntr,-0.583361027342,0.84345830068,0.575929676676,0.0408724286673,-0.583361027342,0.665105884677,-0.315832403338,0.665105884677,0.397577260673,1.37851554869,0.84345830068,-1.02924206735,-0.761713443345,-0.0483037793341,-0.40500861134,-1.20759448335,-0.315832403338,-1.38594689935,1.11098692468,-0.494184819341,-0.315832403338,2.89451108471,1.20016313269,-0.40500861134,-0.40500861134,-1.02924206735,0.397577260673,-0.0483037793341,-1.20759448335,1.9135727967,0.486753468674,-0.226656195337,-0.583361027342,0.575929676676,0.21922484467,-0.583361027342,-0.0483037793341,-0.850889651346,-1.38594689935,2.0027490047,-0.40500861134,-1.20759448335,0.0408724286673,-0.672537235344,0.932634508681,-1.38594689935,-1.38594689935,2.0919252127
p003,f,sad,0.558440390823,0.964578856877,-0.659975007337,1.67532117247,0.863044240364,0.863044240364,0.15230192477,1.8783904055,0.355371157797,0.253836541283,-1.06611347339,-1.26918270642,-1.37071732293,-0.45690577431,1.1676480899,-0.558440390823,-0.0507673082567,1.47225193944,0.355371157797,-0.659975007337,-1.37071732293,-1.37071732293,1.1676480899,-0.45690577431,-1.26918270642,2.58913272109,-0.45690577431,-1.26918270642,-0.659975007337,-1.26918270642,0.355371157797,-1.1676480899,0.558440390823,-0.15230192477,-0.659975007337,-1.1676480899,-0.659975007337,0.15230192477,-0.253836541283,2.58913272109,0.355371157797,0.0507673082567,0.355371157797,-0.0507673082567,-0.355371157797,0.253836541283,-0.45690577431,0.15230192477
p003,f,sup,-1.23611226928,-0.332558123207,1.67533997918,-0.432953028327,-0.232163218088,0.570996022866,-0.734137743684,1.57494507406,-1.03532245904,-0.332558123207,-1.03532245904,-1.03532245904,-1.23611226928,-0.332558123207,-0.432953028327,-1.23611226928,-0.533347933446,0.872180738223,-1.23611226928,0.0690214972695,0.0690214972695,2.47849922013,-0.332558123207,0.0690214972695,0.269811307508,-0.0313734078498,-0.232163218088,-0.232163218088,-1.23611226928,1.07297054846,-0.131768312969,-0.332558123207,-0.533347933446,0.0690214972695,3.08086865085,-0.432953028327,0.0690214972695,-0.0313734078498,-1.23611226928,-0.432953028327,-0.131768312969,0.570996022866,0.0690214972695,-0.533347933446,1.7757348843,-0.432953028327,1.37415526382,1.97652469453
p003,m,ang,0.262106458866,1.27437967932,1.99743197964,-0.750166761583,2.1420424397,0.117495998802,-0.027114461262,-0.750166761583,-0.027114461262,-0.027114461262,-0.894777221647,-0.894777221647,-0.750166761583,-0.31633538139,-0.750166761583,-0.894777221647,0.262106458866,-0.750166761583,0.551327378995,-0.894777221647,-0.171724921326,0.262106458866,-0.894777221647,3.15431566015,0.117495998802,-0.31633538139,2.28665289976,-0.750166761583,-0.31633538139,2.43126335983,0.695937839059,-0.894777221647,-0.894777221647,-0.31633538139,1.12976921925,-0.894777221647,-0.31633538139,-0.171724921326,0.262106458866,0.262106458866,-0.894777221647,-0.750166761583,-0.894777221647,-0.750166761583,0.262106458866,-0.894777221647,-0.171724921326,0.551327378995
p003,m,dis,1.43356252879,1.81851917988,-0.202503238333,0.182453412756,-0.0100249127888,-0.683699052195,-0.394981563878,0.278692575528,1.33732336602,-0.683699052195,0.3749317383,-0.49122072665,-0.972416540511,-0.972416540511,-1.26113402883,-0.972416540511,-1.26113402883,-0.972416540511,-0.972416540511,-1.26113402883,-1.26113402883,0.759888389389,1.33732336602,0.471170901072,-1.26113402883,0.567410063845,0.567410063845,0.471170901072,-0.106264075561,-0.394981563878,1.43356252879,-1.26113402883,0.952366714934,2.58843248206,1.43356252879,-0.202503238333,1.24108420325,0.3749317383,-0.587459889422,0.471170901072,-1.26113402883,-0.972416540511,0.663649226617,0.952366714934,-0.972416540511,-0.0100249127888,-1.26113402883,0.952366714934
p003,m,fea,1.05270890446,-0.807292104651,0.742708736279,1.05270890446,1.05270890446,-0.807292104651,-0.807292104651,0.742708736279,2.29270957721,-0.807292104651,-0.807292104651,-0.497291936465,1.05270890446,0.742708736279,-0.807292104651,1.05270890446,0.742708736279,-0.807292104651,-0.807292104651,-0.807292104651,-0.807292104651,-0.497291936465,0.742708736279,-0.497291936465,-0.807292104651,2.60270974539,1.05270890446,0.742708736279,-0.807292104651,0.742708736279,-0.807292104651,-0.807292104651,-0.497291936465,1.05270890446,-0.807292104651,-0.497291936465,0.742708736279,-0.807292104651,-0.807292104651,-0.807292104651,-0.807292104651,-0.497291936465,-0.807292104651,2.60270974539,-0.807292104651,0.742708736279,-0.807292104651,-0.807292104651
p003,m,hap,0.12087402515,-0.846118176048,-0.771734160572,-1.36680628439,0.492794102534,-0.846118176048,-1.36680628439,-0.697350145095,1.16225024182,1.31101827278,-0.771734160572,-0.176662036757,-0.622966129618,0.641562133487,0.269642056103,-0.771734160572,0.046490009673,0.492794102534,-0.771734160572,-0.697350145095,-0.846118176048,-1.36680628439,-1.36680628439,0.046490009673,1.2366342573,0.418410087057,-0.325430067711,0.864714179918,0.790330164441,1.01348221087,0.715946148964,0.046490009673,-0.771734160572,0.046490009673,-0.399814083188,0.418410087057,1.01348221087,3.24500267517,0.269642056103,1.16225024182,-1.36680628439,0.195258040627,-0.920502191525,1.90609039659,1.68293835016,-0.846118176048,-1.36680628439,-0.325430067711
p003,m,ntr,-1.03750377711,-0.835064015721,-0.632624254334,0.986893836761,-0.22774473156,3.21373121202,-0.0253049701734,-0.835064015721,-0.22774473156,0.177134791214,-1.03750377711,-0.22774473156,-0.835064015721,1.18933359815,-0.22774473156,0.3795745526,0.3795745526,-0.22774473156,-1.03750377711,-0.22774473156,0.3795745526,1.18933359815,-0.0253049701734,-0.632624254334,-0.22774473156,0.177134791214,1.9990926437,-1.03750377711,-0.835064015721,1.79665288231,0.177134791214,1.39177335954,-1.03750377711,-0.0253049701734,-1.03750377711,1.9990926437,1.9990926437,-0.22774473156,-0.0253049701734,-1.03750377711,-0.632624254334,0.986893836761,-0.835064015721,-0.22774473156,-0.22774473156,-0.835064015721,-1.03750377711,-0.835064015721
p003,m,sad,-0.377964473009,-0.377964473009,-0.377964473009,-0.377964473009,-0.377964473009,2.64575131106,-0.377964473009,-0.377964473009,-0.377964473009,-0.377964473009,-0.377964473009,-0.377964473009,-0.377964473009,2.64575131106,-0.377964473009,2.64575131106,-0.377964473009,-0.377964473009,-0.377964473009,-0.377964473009,-0.377964473009,-0.377964473009,-0.377964473009,-0.377964473009,-0.377964473009,2.64575131106,-0.377964473009,-0.377964473009,2.64575131106,-0.377964473009,-0.377964473009,-0.377964473009,-0.377964473009,-0.377964473009,-0.377964473009,2.64575131106,-0.377964473009,-0.377964473009,-0.377964473009,-0.377964473009,-0.377964473009,-0.377964473009,-0.377964473009,-0.377964473009,-0.377964473009,-0.377964473009,-0.377964473009,-0.377964473009
p003,m,sup,-0.423030617526,-0.219975921113,1.40446165019,0.693770212742,-0.016921224701,-1.23524940318,0.896824909155,-0.219975921113,-0.423030617526,-0.423030617526,-1.03219470676,-0.118448572907,-0.423030617526,1.40446165019,1.7090436948,0.795297560949,-0.219975921113,-0.016921224701,0.287660819918,-1.03219470676,0.287660819918,4.24722739996,-0.219975921113,0.0846061235052,-1.23524940318,-0.423030617526,-0.219975921113,0.795297560949,-0.524557965732,-0.524557965732,1.30293430198,-1.03219470676,-0.219975921113,-0.423030617526,1.20140695377,-0.423030617526,-0.423030617526,-1.03219470676,0.693770212742,1.50598899839,-1.03219470676,0.287660819918,-1.23524940318,-0.423030617526,-0.219975921113,-0.524557965732,-1.23524940318,-0.423030617526
p004,f,ang,1.32008273255,0.76033033712,-1.3667287655,0.648379858035,0.76033033712,-0.695025890987,1.76788464889,1.09618177438,-1.81453068184,-0.0233230164761,0.200577941694,-1.25477828641,-0.135273495561,-0.0233230164761,0.312528420779,-1.14282780733,0.424478899865,-0.695025890987,-1.03087732824,-0.247223974646,-0.583075411902,1.20813225346,1.43203321163,-1.70258020275,-0.359174453732,-0.583075411902,1.54398369072,-0.918926849158,-0.695025890987,0.200577941694,0.424478899865,-1.25477828641,-0.918926849158,-1.03087732824,1.87983512797,1.09618177438,-0.918926849158,0.984231295291,-1.81453068184,-0.135273495561,-0.359174453732,1.09618177438,-0.359174453732,1.54398369072,0.984231295291,0.424478899865,-0.471124932817,0.424478899865
p004,f,dis,-0.456945910862,-0.191622478749,0.958112393743,0.162142097403,-1.2529162072,-1.2529162072,0.427465529516,-1.2529162072,-0.633828198938,0.427465529516,-0.633828198938,0.427465529516,-0.5453870549,1.04655353778,1.22343582586,2.99225870661,-0.633828198938,-0.987592775089,-0.722269342976,-0.5453870549,0.162142097403,2.90381756258,1.40031811393,-1.2529162072,-1.2529162072,-0.103181334711,-0.456945910862,-0.103181334711,0.69278896163,1.22343582586,-0.456945910862,-0.5453870549,0.781230105667,0.604347817592,1.57720040201,0.427465529516,0.339024385478,-0.5453870549,-1.2529162072,0.162142097403,0.0737009533648,-0.987592775089,-1.2529162072,0.427465529516,-0.191622478749,-1.2529162072,0.604347817592,-0.280063622786
p004,f,fea,-0.980551243113,-0.980551243113,-0.980551243113,0.158153426309,-0.221414796832,-0.980551243113,-0.221414796832,-0.980551243113,-0.790767131543,-0.790767131543,-0.221414796832,-0.980551243113,3.19469921143,0.158153426309,-0.790767131543,-0.980551243113,-0.221414796832,1.10707398416,0.158153426309,0.917289872589,-0.980551243113,0.917289872589,3.00491509986,-0.790767131543,1.10707398416,-0.790767131543,-0.980551243113,-0.980551243113,-0.980551243113,1.10707398416,1.29685809573,1.10707398416,-0.0316306852617,1.10707398416,0.158153426309,-0.980551243113,1.10707398416,0.158153426309,-0.0316306852617,-0.221414796832,0.158153426309,1.29685809573,0.158153426309,-0.0316306852617,-0.790767131543,-0.790767131543,0.158153426309,-0.0316306852617
p004,f,hap,-0.0215248801,-0.968619604501,-0.968619604501,-0.538122002501,-0.3659229617,1.5282664871,1.0116693647,-1.0547191249,-0.2798234413,0.0645746403001,-0.452022482101,2.2170626503,0.2367736811,1.9587640891,0.1506741607,0.1506741607,0.4089727219,-1.0547191249,-0.538122002501,-1.0547191249,-1.0547191249,1.2699679259,-0.968619604501,0.1506741607,-0.3659229617,-1.0547191249,1.7865650483,-1.0547191249,0.0645746403001,3.7668540175,-0.1937239209,-0.3659229617,-0.538122002501,0.1506741607,0.2367736811,0.667271283101,-0.2798234413,0.839470323901,0.495072242301,-0.2798234413,0.0645746403001,-0.3659229617,-0.3659229617,-0.968619604501,-1.0547191249,-0.452022482101,0.495072242301,-1.0547191249
p004,f,ntr,0.803927308071,-0.694655635129,1.17857304387,-0.507332767229,0.991250175971,-0.507332767229,-0.881978503029,-0.507332767229,-0.881978503029,0.616604440171,1.17857304387,-0.881978503029,3.23912459077,-0.694655635129,-0.881978503029,-0.694655635129,0.803927308071,0.616604440171,0.616604440171,0.616604440171,0.803927308071,-0.507332767229,0.991250175971,-0.881978503029,1.55321877967,-0.881978503029,-0.694655635129,-0.694655635129,0.803927308071,-0.881978503029,-0.881978503029,0.803927308071,-0.881978503029,0.991250175971,2.48983311917,-0.881978503029,-0.507332767229,1.36589591177,-0.694655635129,-0.320009899329,0.616604440171,-0.507332767229,-0.881978503029,-0.881978503029,-0.881978503029,-0.694655635129,-0.507332767229,-0.881978503029
p004,f,sad,-0.650395131474,-1.14332617849,0.33546696255,-1.14332617849,0.171156613546,-0.650395131474,1.32132905657,-0.650395131474,-0.321774433466,0.171156613546,0.171156613546,-1.14332617849,-0.321774433466,-1.14332617849,0.992708358565,-1.14332617849,-0.650395131474,-0.48608478247,-1.14332617849,1.32132905657,-1.14332617849,2.96443254661,0.992708358565,0.664087660557,0.171156613546,0.00684626454183,1.48563940558,0.33546696255,0.33546696255,-1.14332617849,0.171156613546,0.171156613546,1.48563940558,0.171156613546,0.33546696255,2.6358118486,-0.321774433466,0.171156613546,-0.650395131474,0.171156613546,-1.14332617849,-0.650395131474,0.171156613546,1.32132905657,-1.14332617849,0.828398009561,-1.14332617849,-1.14332617849
p004,f,sup,0.927637067103,-0.197244934268,0.0839755660746,-0.759685934954,-1.0409064353,1.02137723388,1.39633790101,-0.00976460070634,-0.38472526783,-0.00976460070634,-1.0409064353,1.20885756745,-0.947166268515,0.0839755660746,0.0839755660746,-0.478465434611,-1.32212693564,1.67755840135,-1.32212693564,0.458936233198,0.458936233198,0.927637067103,-0.572205601392,-0.197244934268,-1.32212693564,-0.572205601392,0.740156733541,-0.478465434611,0.927637067103,2.05251906847,1.67755840135,2.52121990238,-1.32212693564,0.365196066417,-0.290985101049,-0.103504767487,-1.0409064353,-0.478465434611,2.05251906847,-1.32212693564,-0.572205601392,0.552676399979,-0.478465434611,-0.572205601392,0.458936233198,-0.759685934954,-0.759685934954,-1.32212693564
p004,m,ang,-0.899142060087,1.13370085837,-0.742769527898,0.508210729615,0.508210729615,-0.899142060087,-0.899142060087,-0.899142060087,-0.899142060087,-0.273651931331,2.22830858369,-0.742769527898,-0.899142060087,0.508210729615,-0.273651931331,0.820955793993,-0.742769527898,-0.899142060087,3.01017124464,-0.117279399142,2.22830858369,-0.899142060087,0.195465665236,-0.899142060087,0.195465665236,0.195465665236,0.820955793993,0.664583261804,-0.273651931331,1.75919098713,1.13370085837,-0.742769527898,-0.899142060087,-0.273651931331,0.195465665236,1.13370085837,-0.742769527898,-0.899142060087,-0.742769527898,-0.742769527898,-0.273651931331,-0.899142060087,-0.742769527898,0.508210729615,1.75919098713,-0.742769527898,0.351838197425,-0.899142060087
p004,m,dis,1.88686662933,-0.684862702499,-0.573048383723,2.33412390443,0.433280485254,0.0978375289284,0.321466166479,-1.5793772527,0.321466166479,1.32779503546,-1.5793772527,-1.35574861515,0.656909122805,-0.349419746173,-0.237605427397,0.656909122805,-1.5793772527,1.43960935423,-0.573048383723,1.10416639791,-1.1321199776,-0.573048383723,-1.1321199776,0.76872344158,-0.0139767898469,-1.1321199776,0.880537760355,-0.684862702499,-0.573048383723,-0.573048383723,0.209651847704,-1.5793772527,-0.796677021274,0.433280485254,0.992352079131,-0.125791108622,-1.02030565882,0.321466166479,0.433280485254,0.880537760355,1.21598071668,1.43960935423,1.43960935423,-0.125791108622,0.545094804029,0.0978375289284,-1.5793772527,-0.684862702499
p004,m,fea,-0.584988916658,-0.584988916658,-0.584988916658,0.448611132406,-0.24045556697,-0.584988916658,-0.24045556697,-0.584988916658,-0.584988916658,-0.584988916658,-0.584988916658,2.17127788085,-0.584988916658,-0.584988916658,-0.24045556697,1.48221118147,-0.584988916658,-0.584988916658,0.104077782718,-0.24045556697,0.448611132406,4.06621130413,-0.24045556697,-0.584988916658,-0.584988916658,-0.24045556697,-0.584988916658,0.104077782718,-0.24045556697,-0.584988916658,0.104077782718,-0.584988916658,-0.584988916658,-0.24045556697,2.68807790538,-0.584988916658,0.104077782718,-0.584988916658,-0.584988916658,-0.584988916658,0.104077782718,-0.584988916658,0.448611132406,2.17127788085,0.448611132406,1.65447785631,-0.584988916658,-0.584988916658
p004,m,hap,-1.12038078979,0.12304760119,0.822476071115,-1.12038078979,-0.343238045426,-0.343238045426,-0.420952319862,0.433904698934,-1.12038078979,-1.12038078979,0.0453333267543,1.52190454104,-0.420952319862,-0.110095222118,-0.731809417606,-0.343238045426,-1.12038078979,0.278476150062,-1.12038078979,0.12304760119,0.12304760119,-0.26552377099,1.59961881547,-1.12038078979,-0.731809417606,0.356190424498,0.977904619987,-1.12038078979,-1.12038078979,2.2990472854,-1.12038078979,2.37676155984,-1.12038078979,-0.731809417606,0.12304760119,0.667047522243,0.900190345551,-1.12038078979,1.52190454104,0.977904619987,-0.420952319862,-0.343238045426,1.36647599217,-0.498666594298,0.0453333267543,2.37676155984,0.200761875626,-0.110095222118
p004,m,ntr,-0.643782753281,-1.10730633564,-0.180259170919,1.05580371538,0.592280133018,-1.10730633564,-1.10730633564,-0.489274892493,-1.10730633564,-0.643782753281,-0.489274892493,-0.0257513101312,-0.334767031706,1.05580371538,-1.10730633564,-0.643782753281,-1.10730633564,-0.334767031706,2.13735874089,2.44637446247,-0.489274892493,-0.643782753281,-0.0257513101312,-0.643782753281,0.592280133018,-0.643782753281,-0.489274892493,-0.0257513101312,0.283264411444,0.128756550656,1.67383515853,0.901295854593,-1.10730633564,0.746787993806,1.21031157617,0.592280133018,-0.643782753281,0.592280133018,0.283264411444,-1.10730633564,-0.643782753281,0.283264411444,1.21031157617,-0.334767031706,-0.643782753281,-0.0257513101312,-1.10730633564,3.2189137664
p004,m,sad,0.0,0.0,0.0,0.0,0.0,0.0,0.0,0.0,0.0,0.0,0.0,0.0,0.0,0.0,0.0,0.0,0.0,0.0,0.0,0.0,0.0,0.0,0.0,0.0,0.0,0.0,0.0,0.0,0.0,0.0,0.0,0.0,0.0,0.0,0.0,0.0,0.0,0.0,0.0,0.0,0.0,0.0,0.0,0.0,0.0,0.0,0.0,0.0
p004,m,sup,-1.15736066212,-0.187602102338,-0.603212913672,-1.15736066212,0.228008708996,1.75191501722,-0.187602102338,0.366545646107,-1.15736066212,-0.0490651652269,-0.187602102338,0.920693394552,-1.15736066212,0.366545646107,0.920693394552,-1.15736066212,-1.15736066212,-1.15736066212,-1.15736066212,-1.15736066212,-0.603212913672,1.474841143,0.366545646107,-1.15736066212,0.228008708996,0.366545646107,2.44459970278,1.05923033166,0.366545646107,0.366545646107,1.33630420589,-1.15736066212,1.33630420589,1.05923033166,-0.187602102338,-0.0490651652269,0.505082583218,1.75191501722,-1.15736066212,-0.187602102338,-1.15736066212,-1.15736066212,-0.187602102338,1.474841143,0.782156457441,-0.603212913672,0.920693394552,-1.15736066212
p005,f,ang,0.91587439107,2.2152429853,-0.708336351714,-0.600055635529,-0.275213486972,-1.03317850027,-1.5745820812,-0.491774919343,2.43180441767,-0.924897784085,-0.708336351714,0.157909377771,-0.708336351714,1.34899725581,0.157909377771,1.24071653963,-1.03317850027,1.24071653963,-0.491774919343,-0.491774919343,0.699312958699,-0.275213486972,1.02415510726,-0.275213486972,-1.5745820812,-0.383494203157,0.157909377771,-0.600055635529,-0.0586520546005,1.89040083674,2.64836585004,-0.0586520546005,-0.600055635529,0.591032242513,-0.383494203157,-0.166932770786,-1.14145921646,0.591032242513,-1.24973993264,0.699312958699,-0.600055635529,0.157909377771,-1.03317850027,0.482751526328,0.374470810142,-0.491774919343,-1.14145921646,0.0496286615851
p005,f,dis,0.768874017367,-0.819483446358,-0.0720211104875,-0.0720211104875,1.1426051853,-0.63261786239,0.488575641415,-0.0720211104875,-0.445752278423,-0.258886694455,-0.819483446358,0.0214116814963,0.488575641415,3.19812660895,-0.912916238342,-0.0720211104875,-0.912916238342,2.07693310514,-0.539185070407,-0.819483446358,0.0214116814963,0.11484447348,2.26379868911,0.488575641415,0.675441225383,-1.09978182231,0.11484447348,0.301710057448,-0.912916238342,2.82439544101,0.395142849432,0.768874017367,-1.09978182231,0.0214116814963,-1.09978182231,-0.352319486439,0.955739601334,0.0214116814963,-0.0720211104875,-0.819483446358,0.395142849432,-1.09978182231,-0.0720211104875,-0.539185070407,-0.819483446358,-0.912916238342,-1.09978182231,-1.09978182231
p005,f,fea,-0.758040397608,0.823956953922,0.823956953922,-0.758040397608,-0.758040397608,-0.758040397608,-0.758040397608,1.14035642423,1.14035642423,-0.758040397608,-0.758040397608,0.823956953922,-0.758040397608,1.14035642423,-0.758040397608,-0.758040397608,0.823956953922,0.823956953922,-0.758040397608,-0.758040397608,-0.758040397608,-0.758040397608,0.823956953922,1.14035642423,1.14035642423,-0.758040397608,-0.758040397608,-0.758040397608,0.823956953922,1.14035642423,-0.758040397608,-0.758040397608,1.14035642423,-0.758040397608,2.72235377576,-0.758040397608,-0.758040397608,-0.758040397608,-0.758040397608,-0.758040397608,-0.758040397608,0.823956953922,2.72235377576,0.823956953922,1.14035642423,-0.758040397608,-0.758040397608,-0.758040397608
p005,f,hap,3.78641714319,-0.133801799002,0.116424941989,-0.801073108311,-0.384028539993,0.116424941989,0.700287337634,-0.634255280983,0.116424941989,-0.133801799002,0.116424941989,-0.384028539993,1.11733190595,0.283242769316,-0.884482021974,-0.384028539993,-0.300619626329,-0.217210712666,-0.801073108311,0.366651682979,-0.717664194647,-1.30152659029,0.783696251297,-1.21811767663,0.199833855652,-1.30152659029,1.11733190595,0.700287337634,-0.884482021974,3.03573692021,-0.634255280983,0.116424941989,0.366651682979,-0.217210712666,1.36755864694,-0.55084636732,-0.55084636732,1.28414973328,-1.30152659029,-1.30152659029,-0.634255280983,-0.217210712666,0.199833855652,0.116424941989,-0.717664194647,-0.634255280983,0.116424941989,1.11733190595
p005,f,ntr,-0.704908679146,-0.704908679146,0.532979733013,-0.704908679146,0.120350262293,-0.704908679146,1.35823867445,0.532979733013,-0.704908679146,-0.704908679146,-0.704908679146,0.120350262293,-0.704908679146,0.120350262293,-0.704908679146,0.532979733013,-0.704908679146,0.120350262293,0.120350262293,0.120350262293,0.120350262293,0.120350262293,0.532979733013,-0.704908679146,0.532979733013,-0.704908679146,0.532979733013,5.48453338165,0.532979733013,-0.704908679146,0.532979733013,-0.704908679146,0.532979733013,0.120350262293,0.120350262293,1.35823867445,0.532979733013,0.120350262293,-0.704908679146,0.532979733013,-0.704908679146,-0.704908679146,-0.704908679146,0.120350262293,-0.704908679146,-0.704908679146,-0.704908679146,-0.704908679146
p005,f,sad,1.64082530828,-0.60944940022,-0.60944940022,-0.60944940022,-0.60944940022,-0.60944940022,-0.60944940022,-0.60944940022,-0.60944940022,-0.60944940022,-0.60944940022,1.64082530828,-0.60944940022,1.64082530828,-0.60944940022,-0.60944940022,-0.60944940022,-0.60944940022,-0.60944940022,1.64082530828,-0.60944940022,-0.60944940022,-0.60944940022,-0.60944940022,-0.60944940022,1.64082530828,-0.60944940022,-0.60944940022,1.64082530828,-0.60944940022,1.64082530828,-0.60944940022,1.64082530828,-0.60944940022,-0.60944940022,1.64082530828,-0.60944940022,-0.60944940022,-0.60944940022,-0.60944940022,1.64082530828,1.64082530828,-0.60944940022,1.64082530828,1.64082530828,-0.60944940022,-0.60944940022,-0.60944940022
p005,f,sup,-0.201794084133,0.779078426082,0.166033107198,-1.30527565812,-0.201794084133,-1.06005753057,0.043424043421,0.043424043421,0.166033107198,0.656469362305,-1.18266659435,-0.69223033924,-1.18266659435,-1.06005753057,-0.447012211687,-0.69223033924,-0.69223033924,0.288642170975,0.656469362305,-1.06005753057,1.39212374497,1.39212374497,0.166033107198,-1.18266659435,1.39212374497,0.043424043421,-0.201794084133,0.166033107198,1.14690561741,-0.0791850203559,2.86343251029,2.49560531896,-0.569621275463,2.2503871914,-0.447012211687,0.043424043421,1.14690561741,-1.06005753057,0.533860298528,0.411251234752,-0.0791850203559,-0.32440314791,-1.30527565812,-1.30527565812,-1.18266659435,-0.0791850203559,-0.0791850203559,-0.569621275463
p005,m,ang,-0.930043928718,-0.200597710116,0.0911807773253,-1.07593317244,1.98774094569,-1.07593317244,-0.784154684997,-0.930043928718,-0.492376197556,-0.200597710116,-0.784154684997,0.382959264766,-0.930043928718,-0.346486953836,0.382959264766,0.966516239648,-0.784154684997,-0.638265441277,0.820626995927,-0.492376197556,0.820626995927,2.57129792057,0.237070021046,-0.784154684997,0.528848508487,-0.638265441277,-0.0547084663952,-0.784154684997,-0.0547084663952,0.0911807773253,-1.07593317244,1.40418397081,-1.07593317244,0.0911807773253,3.00896565173,-0.930043928718,-0.638265441277,-0.346486953836,-0.784154684997,1.40418397081,1.98774094569,-0.492376197556,0.966516239648,-0.638265441277,0.237070021046,0.966516239648,-1.07593317244,0.0911807773253
p005,m,dis,0.877447374482,0.877447374482,0.0406763683535,0.180138202708,-1.35394197519,-0.517170969066,-1.35394197519,1.15637104319,-1.07501830648,0.0406763683535,-1.21448014084,-1.35394197519,-0.377709134711,0.459061871418,-0.0987854660013,-0.0987854660013,2.41152755238,-0.377709134711,0.0406763683535,1.01690920884,0.877447374482,0.319600037063,2.27206571803,2.69045122109,-0.238247300356,0.598523705773,-1.35394197519,-1.21448014084,0.737985540127,-0.0987854660013,1.15637104319,-1.07501830648,-0.93555647213,-0.93555647213,-0.0987854660013,0.877447374482,-0.377709134711,-1.35394197519,1.01690920884,-0.65663280342,0.180138202708,0.737985540127,-0.377709134711,-0.0987854660013,-0.796094637775,-0.0987854660013,0.319600037063,-1.35394197519
p005,m,fea,-0.957141756098,-0.957141756098,0.180056369959,-0.274822880464,-0.0473832552524,-0.957141756098,-0.0473832552524,1.54469412123,-0.957141756098,-0.957141756098,1.31725449602,-0.957141756098,-0.957141756098,-0.274822880464,-0.957141756098,-0.957141756098,0.862375245593,3.13677149771,1.77213374644,-0.957141756098,-0.274822880464,-0.274822880464,-0.0473832552524,-0.957141756098,-0.957141756098,-0.957141756098,0.40749599517,-0.957141756098,-0.957141756098,1.54469412123,-0.0473832552524,0.180056369959,0.634935620382,1.0898148708,0.634935620382,1.0898148708,0.40749599517,0.40749599517,0.180056369959,-0.957141756098,0.862375245593,1.77213374644,-0.0473832552524,-0.957141756098,-0.957141756098,1.54469412123,-0.0473832552524,-0.957141756098
p005,m,hap,1.65657537268,1.12469832994,-0.204994276886,0.0609442444797,-0.382286624464,-0.470932798252,-1.09145601477,0.770113634789,-0.470932798252,-1.6233330575,0.947405982366,-0.914163667195,-0.293640450675,0.0609442444797,1.03605215615,0.149590418268,-1.6233330575,-1.09145601477,-0.293640450675,-0.825517493407,1.65657537268,1.56792919889,0.326882765846,-0.914163667195,1.21334450373,1.65657537268,-0.204994276886,-0.116348103098,1.03605215615,-1.09145601477,0.681467461,-0.027701929309,1.03605215615,-0.382286624464,0.592821287212,0.947405982366,-0.914163667195,-0.470932798252,-0.293640450675,0.415528939634,-0.914163667195,1.92251389404,1.12469832994,-1.6233330575,-0.825517493407,-1.6233330575,-1.6233330575,0.326882765846
p005,m,ntr,-1.09788836751,-0.341448535351,-0.0893019246302,-0.0893019246302,0.919284518252,-0.593595146071,1.17143112897,-1.09788836751,-0.845741756792,0.16284468609,-0.845741756792,-0.0893019246302,3.18860401474,0.414991296811,-1.09788836751,-1.09788836751,-0.593595146071,0.16284468609,1.92787096113,-0.341448535351,-0.0893019246302,0.16284468609,0.414991296811,0.919284518252,-1.09788836751,-1.09788836751,-0.341448535351,0.16284468609,0.667137907531,0.919284518252,1.17143112897,-1.09788836751,-1.09788836751,0.919284518252,-1.09788836751,1.92787096113,-0.341448535351,-0.341448535351,2.18001757185,-0.845741756792,0.16284468609,-1.09788836751,-1.09788836751,-0.341448535351,0.16284468609,0.919284518252,-0.845741756792,0.414991296811
p005,m,sad,-0.545249756806,-0.545249756806,-0.545249756806,-0.545249756806,-0.545249756806,-0.545249756806,-0.545249756806,-0.545249756806,-0.545249756806,1.83402190926,-0.545249756806,-0.545249756806,-0.545249756806,1.83402190926,-0.545249756806,-0.545249756806,-0.545249756806,-0.545249756806,1.83402190926,-0.545249756806,-0.545249756806,1.83402190926,-0.545249756806,-0.545249756806,-0.545249756806,-0.545249756806,-0.545249756806,1.83402190926,-0.545249756806,1.83402190926,-0.545249756806,-0.545249756806,1.83402190926,-0.545249756806,-0.545249756806,1.83402190926,-0.545249756806,-0.545249756806,-0.545249756806,1.83402190926,-0.545249756806,1.83402190926,-0.545249756806,1.83402190926,-0.545249756806,-0.545249756806,-0.545249756806,-0.545249756806
p005,m,sup,0.0201170190557,-0.100585095278,0.382223362058,-0.824797781282,-0.824797781282,-0.583393552614,-0.824797781282,0.623627590726,-0.824797781282,1.10643604806,0.0201170190557,-0.100585095278,2.3134571914,1.10643604806,-0.583393552614,-0.824797781282,-0.824797781282,2.3134571914,-0.824797781282,0.261521247724,0.14081913339,0.261521247724,-0.824797781282,0.261521247724,1.5892445054,0.261521247724,-0.824797781282,0.14081913339,-0.583393552614,3.64118044908,-0.824797781282,-0.824797781282,-0.824797781282,-0.583393552614,-0.824797781282,0.0201170190557,0.74432970506,-0.824797781282,0.985733933728,-0.824797781282,-0.583393552614,1.46854239106,-0.583393552614,-0.824797781282,-0.824797781282,-0.583393552614,0.74432970506,-0.100585095278
p006,f,ang,-1.20489046021,0.118559015536,0.51559385826,-0.675510669913,-0.807855617488,-0.675510669913,1.70669838643,-0.675510669913,-0.146130879614,-0.410820774764,1.83904333401,0.51559385826,-1.46958035536,-0.543165722338,-0.940200565063,0.78028375341,-1.46958035536,-0.675510669913,-0.146130879614,-0.807855617488,-0.807855617488,2.36842312431,2.10373322916,-0.543165722338,-0.013785932039,-0.278475827189,0.51559385826,-0.543165722338,-0.675510669913,1.83904333401,-0.940200565063,0.250903963111,-1.20489046021,1.70669838643,1.04497364856,1.17731859613,-0.278475827189,-1.46958035536,0.912628700985,1.04497364856,-0.146130879614,-0.410820774764,-0.146130879614,-0.410820774764,-0.278475827189,-0.146130879614,-0.807855617488,1.30966354371
p006,f,dis,-1.06979882499,-0.90521439038,-0.90521439038,-1.06979882499,0.411461086536,0.246876651922,-0.0822922173073,-1.06979882499,-0.740629955765,-0.90521439038,-1.06979882499,1.39896769422,2.71564317114,0.740629955765,1.23438325961,-0.246876651922,-0.411461086536,-0.576045521151,-0.740629955765,0.246876651922,-1.06979882499,-0.576045521151,2.55105873653,0.576045521151,-0.576045521151,2.2218898673,1.39896769422,0.90521439038,0.740629955765,0.740629955765,0.576045521151,-0.0822922173073,-0.576045521151,-0.740629955765,-1.06979882499,0.740629955765,-0.411461086536,-1.06979882499,0.246876651922,0.576045521151,-0.576045521151,0.740629955765,-0.740629955765,-0.90521439038,0.411461086536,-1.06979882499,-1.06979882499,0.90521439038
p006,f,fea,-0.964108174983,0.95683188687,-0.964108174983,-0.964108174983,1.82998646044,2.5285101193,-0.964108174983,-0.964108174983,-0.265584516128,-0.964108174983,0.607570057442,-0.614846345555,0.0836773133004,-0.265584516128,-0.265584516128,-0.614846345555,-0.964108174983,0.607570057442,-0.614846345555,-0.265584516128,-0.964108174983,0.0836773133004,0.607570057442,0.95683188687,-0.614846345555,0.607570057442,0.0836773133004,0.258308228014,-0.964108174983,2.17924828987,-0.265584516128,0.258308228014,-0.964108174983,2.87777194872,1.82998646044,0.607570057442,-0.964108174983,-0.265584516128,-0.614846345555,-0.265584516128,0.607570057442,-0.964108174983,-0.964108174983,0.95683188687,-0.964108174983,-0.964108174983,0.258308228014,0.607570057442
p006,f,hap,-0.0635629276567,-1.02704309424,-1.42849316365,-0.786173052596,-0.304432969303,-1.10733310812,-1.02704309424,-0.54530301095,-0.224142955421,-0.465012997067,-0.304432969303,2.18455746104,-1.02704309424,-0.465012997067,-0.94675308036,-0.866463066478,0.899917238929,0.0167270862254,-1.10733310812,0.17730711399,-0.304432969303,0.899917238929,-1.42849316365,1.22107729446,0.0970171001076,-0.384722983185,0.659047197283,-0.705883038714,0.819627225047,-1.02704309424,-0.705883038714,-0.304432969303,1.30136730834,-0.705883038714,1.4619473361,-0.705883038714,1.14078728058,2.8268775721,-0.224142955421,0.337887141754,1.22107729446,0.739337211165,0.739337211165,-0.304432969303,1.4619473361,1.78310739163,-0.384722983185,-1.10733310812
p006,f,ntr,-1.00380863078,-0.633171597877,1.03469505019,1.03469505019,2.33192466535,0.849376533738,-0.818490114329,-0.633171597877,-1.00380863078,-1.00380863078,0.849376533738,-0.447853081426,-0.818490114329,1.40533208309,-0.633171597877,0.478739500834,-0.0772160485216,1.03469505019,-0.447853081426,0.10810246793,1.03469505019,-0.447853081426,3.99979131342,-1.00380863078,-0.633171597877,0.664058017286,0.10810246793,-0.447853081426,0.664058017286,-1.00380863078,-0.818490114329,1.03469505019,-1.00380863078,-0.447853081426,0.10810246793,-0.818490114329,1.22001356664,-0.818490114329,-0.818490114329,-0.447853081426,0.10810246793,-0.447853081426,-0.262534564974,-0.633171597877,0.293420984382,-0.633171597877,0.664058017286,-0.818490114329
p006,f,sad,-0.847687565174,-0.323794821032,0.898621581966,0.549359752538,0.549359752538,0.723990667252,-0.847687565174,0.549359752538,-1.02231847989,0.723990667252,1.59714524082,-0.847687565174,-0.149163906318,-0.67305665046,-1.02231847989,-0.67305665046,-0.149163906318,0.723990667252,-1.02231847989,-0.323794821032,2.12103798496,-0.149163906318,-0.323794821032,0.723990667252,1.94640707025,-0.67305665046,-0.149163906318,-0.67305665046,0.374728837824,3.16882347325,-1.02231847989,-1.02231847989,0.549359752538,1.24788341139,-0.498425735746,0.20009792311,-1.02231847989,-0.498425735746,-1.02231847989,-0.323794821032,-0.149163906318,2.12103798496,0.898621581966,-0.847687565174,-0.847687565174,-0.67305665046,-0.847687565174,-1.02231847989
p006,f,sup,0.258955045374,-1.1891819074,1.10370160116,-1.1891819074,-1.1891819074,-1.1891819074,-1.1891819074,-0.103079192819,-0.344435351614,0.620989283567,1.10370160116,-0.344435351614,0.379633124771,0.983023521759,-0.103079192819,0.0175988865788,1.10370160116,1.94844815694,-0.465113431011,-1.1891819074,0.0175988865788,-1.1891819074,1.58641391875,-0.706469589806,-0.585791510409,-0.344435351614,-0.706469589806,-0.706469589806,-0.344435351614,-0.103079192819,0.500311204169,-0.465113431011,-1.1891819074,1.94844815694,2.43116047453,2.06912623634,-0.585791510409,0.0175988865788,0.258955045374,1.10370160116,-1.1891819074,-1.1891819074,-1.1891819074,-0.706469589806,0.983023521759,0.500311204169,0.0175988865788,0.741667362964
p006,m,ang,-0.580174501197,1.66566227763,1.66566227763,-0.580174501197,-0.580174501197,-0.580174501197,1.21649492186,-0.580174501197,-0.580174501197,-0.580174501197,-0.580174501197,-0.580174501197,1.66566227763,1.21649492186,-0.580174501197,1.21649492186,1.21649492186,-0.580174501197,3.46233170069,-0.580174501197,-0.580174501197,1.21649492186,-0.580174501197,1.21649492186,-0.580174501197,-0.580174501197,1.66566227763,-0.580174501197,-0.580174501197,-0.580174501197,-0.580174501197,-0.580174501197,-0.580174501197,-0.580174501197,-0.580174501197,-0.580174501197,-0.580174501197,-0.580174501197,-0.580174501197,-0.580174501197,-0.580174501197,1.66566227763,-0.580174501197,-0.580174501197,1.21649492186,-0.580174501197,-0.580174501197,-0.580174501197
p006,m,dis,-0.54854257258,-0.242379276256,-0.54854257258,0.186249338597,-0.54854257258,0.0025513608027,1.83953113875,-1.0384038467,0.492412634921,-0.54854257258,-1.0384038467,0.247481997862,-0.732240550374,-0.54854257258,1.28843720536,0.0025513608027,-0.487309913315,1.59460050169,-0.487309913315,0.247481997862,0.0025513608027,0.553645294185,0.0025513608027,1.2272045461,0.0025513608027,1.10473922757,-1.0384038467,0.186249338597,-1.0384038467,0.859808590509,4.41130282786,-0.364844594786,-0.487309913315,-1.0384038467,-0.54854257258,-0.54854257258,-0.058681298462,-0.487309913315,0.186249338597,-0.242379276256,-0.732240550374,-0.732240550374,-1.0384038467,-1.0384038467,0.308714657126,-0.54854257258,0.0025513608027,1.96199645727
p006,m,fea,-1.45612125418,-1.45612125418,1.21999348323,-0.669028684352,0.747737941334,-0.826447198317,0.118063885474,-0.983865712282,0.275482399439,0.747737941334,2.47934159495,-0.196773142456,0.432900913404,0.590319427369,1.21999348323,1.21999348323,1.21999348323,-1.45612125418,-0.511610170387,-1.45612125418,-1.45612125418,0.275482399439,1.69224902512,-0.826447198317,-0.826447198317,-0.196773142456,-0.0393546284913,1.37741199719,-0.354191656421,-0.983865712282,0.118063885474,1.53483051116,-0.354191656421,0.590319427369,1.37741199719,-1.29870274021,0.432900913404,-1.14128422625,0.590319427369,-0.354191656421,0.590319427369,-0.0393546284913,1.21999348323,-1.45612125418,-1.14128422625,-0.354191656421,-0.196773142456,-0.0393546284913
p006,m,hap,1.34495998572,-1.18512908982,-0.205739770255,-0.940281759927,-0.205739770255,0.936881102568,-0.0425082169949,-1.18512908982,0.283954889526,-0.205739770255,0.447186442786,0.202339112896,-0.777050206667,2.16111775202,-1.18512908982,0.0391075596353,0.610417996047,-0.0425082169949,-1.18512908982,-0.940281759927,0.0391075596353,3.05889129495,-0.368971323516,-0.0425082169949,-0.0425082169949,-1.18512908982,-0.450587100146,-0.0425082169949,0.610417996047,3.05889129495,0.855265325938,0.610417996047,-0.450587100146,0.283954889526,-1.18512908982,-0.695434430037,-0.124123993625,-0.205739770255,-1.18512908982,-0.205739770255,-0.450587100146,-0.205739770255,-1.18512908982,-0.205739770255,-0.368971323516,-0.613818653406,1.67142309224,1.10011265583
p006,m,ntr,0.125097842342,1.58569967725,0.93654330618,-1.01092580703,0.125097842342,-1.01092580703,1.58569967725,2.23485604832,-0.199480343194,0.774254213412,0.125097842342,0.125097842342,-1.01092580703,2.23485604832,0.774254213412,-1.01092580703,0.125097842342,-1.01092580703,0.125097842342,-1.01092580703,1.26112149172,-1.01092580703,3.37087969769,0.125097842342,-0.199480343194,0.125097842342,0.125097842342,0.125097842342,-1.01092580703,-1.01092580703,0.93654330618,-0.199480343194,-1.01092580703,-1.01092580703,-1.01092580703,0.125097842342,-1.01092580703,-0.199480343194,-0.199480343194,-1.01092580703,-1.01092580703,-0.199480343194,0.125097842342,-0.199480343194,-1.01092580703,-0.199480343194,0.125097842342,0.449676027877
p006,m,sad,-0.717251701799,0.112340627993,-0.717251701799,-0.717251701799,0.112340627993,0.112340627993,0.734534875337,-0.717251701799,1.56412720513,-0.717251701799,0.112340627993,-0.717251701799,-0.717251701799,-0.717251701799,-0.717251701799,-0.717251701799,0.112340627993,0.112340627993,-0.717251701799,0.734534875337,0.112340627993,-0.717251701799,-0.717251701799,-0.717251701799,-0.717251701799,0.112340627993,2.39371953492,-0.717251701799,0.734534875337,0.734534875337,1.56412720513,-0.717251701799,-0.717251701799,0.734534875337,3.01591378226,1.56412720513,-0.717251701799,-0.717251701799,-0.717251701799,-0.717251701799,3.01591378226,0.112340627993,-0.717251701799,-0.717251701799,-0.717251701799,-0.717251701799,0.112340627993,0.734534875337
p006,m,sup,-0.53881590608,1.30855291477,1.30855291477,-0.53881590608,1.92434252172,1.51381611708,-0.53881590608,-0.53881590608,-0.53881590608,-0.53881590608,1.51381611708,-0.333552703764,-0.53881590608,-0.53881590608,1.92434252172,-0.333552703764,-0.53881590608,-0.53881590608,-0.53881590608,-0.53881590608,-0.333552703764,-0.53881590608,-0.333552703764,-0.333552703764,1.51381611708,-0.53881590608,-0.53881590608,-0.53881590608,-0.53881590608,2.12960572403,-0.333552703764,-0.53881590608,-0.53881590608,-0.53881590608,-0.53881590608,-0.53881590608,-0.53881590608,-0.333552703764,-0.53881590608,-0.333552703764,-0.53881590608,-0.53881590608,-0.333552703764,-0.53881590608,1.51381611708,-0.333552703764,3.77171134256,-0.53881590608
p007,f,ang,1.00713733988,-0.820943882084,-1.02406401786,-0.414703610537,-1.4303042894,0.397776932556,0.0930967288962,0.804017204103,1.92117795086,0.0930967288962,-0.414703610537,-1.12562408574,-1.4303042894,1.31181754354,1.21025747565,-0.414703610537,-1.12562408574,1.00713733988,1.21025747565,-0.414703610537,0.90557727199,-1.4303042894,0.194656796783,0.194656796783,0.804017204103,1.10869740776,2.02273801874,0.804017204103,-1.02406401786,2.12429808663,0.397776932556,-1.4303042894,0.0930967288962,-0.414703610537,-0.110023406877,-0.617823746311,-1.4303042894,-0.719383814198,-0.110023406877,0.60089706833,-0.414703610537,-0.211583474764,-0.820943882084,-0.820943882084,-1.4303042894,0.60089706833,1.51493767931,-0.820943882084
p007,f,dis,-1.08713696173,-0.171653204484,0.220696977194,-1.08713696173,1.79009770391,-1.08713696173,0.220696977194,-1.08713696173,0.613047158873,-1.08713696173,-1.08713696173,0.613047158873,0.874613946658,-1.08713696173,0.613047158873,0.613047158873,0.874613946658,0.0899135833013,-1.08713696173,-1.08713696173,0.0899135833013,2.05166449169,0.0899135833013,-1.08713696173,1.00539734055,-1.08713696173,-1.08713696173,1.00539734055,-1.08713696173,2.05166449169,1.00539734055,-0.302436598377,-0.302436598377,-0.564003386163,0.613047158873,1.52853091612,-1.08713696173,0.613047158873,-1.08713696173,1.52853091612,-1.08713696173,0.874613946658,-1.08713696173,-0.302436598377,0.351480371087,0.613047158873,-1.08713696173,1.26696412834
p007,f,fea,1.64082530828,-0.60944940022,1.64082530828,-0.60944940022,1.64082530828,1.64082530828,1.64082530828,1.64082530828,-0.60944940022,-0.60944940022,-0.60944940022,-0.60944940022,-0.60944940022,-0.60944940022,-0.60944940022,-0.60944940022,1.64082530828,-0.60944940022,-0.60944940022,-0.60944940022,1.64082530828,1.64082530828,-0.60944940022,-0.60944940022,-0.60944940022,-0.60944940022,-0.60944940022,-0.60944940022,-0.60944940022,-0.60944940022,-0.60944940022,-0.60944940022,-0.60944940022,1.64082530828,1.64082530828,-0.60944940022,-0.60944940022,-0.60944940022,-0.60944940022,-0.60944940022,-0.60944940022,-0.60944940022,1.64082530828,-0.60944940022,1.64082530828,-0.60944940022,-0.60944940022,-0.60944940022
p007,f,hap,-0.224447216125,0.0482987680269,-0.76993918443,-0.224447216125,1.41202868879,-1.45180414481,-0.497193200277,-0.497193200277,2.77575860955,-0.633566192353,0.593790736331,0.321044752179,-0.0880742240491,0.321044752179,0.0482987680269,-0.0880742240491,-1.04268516858,-1.45180414481,-0.360820208201,0.0482987680269,-2.13366910519,1.68477467294,-1.58817713689,-0.360820208201,-0.360820208201,0.321044752179,0.730163728407,-0.360820208201,1.13928270464,-0.224447216125,2.09389364917,-1.04268516858,0.0482987680269,-1.04268516858,0.321044752179,-0.360820208201,0.0482987680269,0.866536720483,1.27565569671,0.730163728407,-0.0880742240491,-1.45180414481,1.27565569671,-0.224447216125,-0.360820208201,0.457417744255,1.68477467294,-1.31543115273
p007,f,ntr,0.0624666579982,-0.466662680339,-0.466662680339,-1.3485449109,-0.466662680339,-0.290286234227,-1.3485449109,-1.3485449109,0.591595996336,0.415219550223,-0.819415572564,0.591595996336,1.29710178079,0.0624666579982,0.238843104111,0.944348888561,-0.113909788114,1.64985467301,1.29710178079,-0.113909788114,-0.290286234227,3.23724268802,0.767972442448,-0.643039126452,0.0624666579982,-1.17216846479,1.64985467301,-0.995792018677,-0.113909788114,0.238843104111,0.944348888561,-1.3485449109,1.64985467301,0.767972442448,2.00260756524,-1.17216846479,0.0624666579982,-0.466662680339,-0.466662680339,-0.466662680339,-0.643039126452,-0.466662680339,-1.3485449109,-0.466662680339,0.238843104111,-0.819415572564,-0.113909788114,-0.995792018677
p007,f,sad,-0.732508203747,-0.732508203747,2.23282621142,0.114730200587,-0.732508203747,1.38558780709,1.38558780709,-0.732508203747,0.114730200587,-0.732508203747,0.114730200587,-0.732508203747,0.114730200587,0.114730200587,-0.732508203747,-0.732508203747,2.23282621142,1.38558780709,-0.732508203747,0.114730200587,-0.732508203747,-0.732508203747,-0.732508203747,0.114730200587,1.38558780709,0.114730200587,-0.732508203747,1.38558780709,-0.732508203747,2.23282621142,-0.732508203747,-0.732508203747,-0.732508203747,-0.732508203747,2.23282621142,1.38558780709,-0.732508203747,0.114730200587,-0.732508203747,-0.732508203747,-0.732508203747,-0.732508203747,-0.732508203747,-0.732508203747,0.114730200587,-0.732508203747,-0.732508203747,1.38558780709
p007,f,sup,-0.290732124389,1.24669877069,-0.408996039395,-1.23684344444,1.6014905157,-0.0542042943777,-0.172468209383,-0.527259954401,1.36496268569,0.891907025669,1.24669877069,0.0640596206281,-1.00031561442,2.07454617573,-0.172468209383,-1.11857952943,-0.290732124389,-1.00031561442,-0.645523869407,-1.11857952943,0.182323535634,0.655379195657,-1.11857952943,-1.00031561442,-0.763787784413,1.24669877069,-1.11857952943,-1.23684344444,0.655379195657,1.4832266007,-1.11857952943,-0.645523869407,1.6014905157,-0.527259954401,2.07454617573,0.0640596206281,-0.290732124389,-0.527259954401,0.182323535634,0.891907025669,1.4832266007,-0.527259954401,0.537115280651,-1.11857952943,-1.11857952943,1.12843485568,-1.11857952943,-0.408996039395
p007,m,ang,-0.90347189151,-0.225867972877,1.29874084405,2.14574574234,0.621136925413,0.112933986439,-0.395268952536,-1.07287287117,-0.90347189151,-0.0564669932194,0.621136925413,0.451735945755,-0.90347189151,-0.225867972877,0.451735945755,-0.225867972877,0.451735945755,0.451735945755,2.48454770165,-1.07287287117,-0.0564669932194,1.12933986439,-1.07287287117,-0.90347189151,-0.90347189151,1.4681418237,2.65394868131,-0.90347189151,0.451735945755,-0.0564669932194,0.451735945755,-0.225867972877,-1.07287287117,-0.0564669932194,-0.395268952536,-1.07287287117,2.31514672199,-0.225867972877,-1.07287287117,0.451735945755,-0.225867972877,-1.07287287117,0.790537905071,-0.90347189151,-1.07287287117,-1.07287287117,-0.0564669932194,-0.395268952536
p007,m,dis,0.201899857821,-0.27315863117,-0.653205422363,0.0118764622248,-0.178146933372,0.201899857821,-1.12826391135,-0.178146933372,-1.12826391135,0.391923253418,-0.463182026767,-0.178146933372,0.486934951216,-0.463182026767,0.676958346813,-0.178146933372,1.532063627,0.486934951216,-0.463182026767,-0.178146933372,0.29691155562,0.201899857821,2.76721569837,0.201899857821,-0.0831352355735,-1.12826391135,-0.178146933372,-0.463182026767,-1.12826391135,3.62232097856,2.38716890718,-1.12826391135,1.3420402314,-1.12826391135,-0.653205422363,-0.463182026767,-0.463182026767,0.581946649014,-0.653205422363,-0.463182026767,-1.12826391135,0.201899857821,0.676958346813,-0.463182026767,0.486934951216,-1.12826391135,0.486934951216,-1.12826391135
p007,m,fea,0.771357893641,-0.753208296144,-0.753208296144,-0.753208296144,2.51371925339,-0.0998227862359,1.42474340355,-0.753208296144,-0.753208296144,-0.753208296144,-0.0998227862359,-0.753208296144,-0.753208296144,-0.0998227862359,-0.0998227862359,-0.753208296144,-0.0998227862359,-0.0998227862359,-0.0998227862359,0.98915306361,-0.753208296144,-0.753208296144,0.98915306361,-0.753208296144,-0.753208296144,0.771357893641,0.771357893641,-0.753208296144,-0.0998227862359,-0.753208296144,1.64253857352,2.51371925339,-0.753208296144,2.51371925339,0.98915306361,-0.753208296144,-0.753208296144,-0.753208296144,1.64253857352,-0.753208296144,-0.753208296144,0.771357893641,-0.753208296144,-0.753208296144,1.42474340355,-0.753208296144,-0.0998227862359,-0.753208296144
p007,m,hap,0.658969328409,-0.560940833274,-0.0381221925526,1.26892440925,-0.996623033875,0.484696448169,-0.996623033875,-0.386667953034,-0.996623033875,-0.560940833274,-0.996623033875,0.571832888289,-1.17089591412,-0.560940833274,1.09465152901,-0.735213713515,0.136150687688,-1.17089591412,-0.473804393154,1.00751508889,1.18178796913,-0.386667953034,-0.125258632673,0.484696448169,0.74610576853,-0.560940833274,2.40169813081,-0.212395072793,-0.299531512913,3.36019897214,-0.822350153635,-0.996623033875,0.223287127808,-0.996623033875,-0.560940833274,-0.0381221925526,0.397560008049,2.83738033142,-0.735213713515,-0.560940833274,-0.125258632673,0.310423567928,0.310423567928,0.484696448169,-0.822350153635,-1.17089591412,0.310423567928,-0.212395072793
p007,m,ntr,0.192304789528,0.521970143005,-0.961523947641,0.521970143005,-0.961523947641,-0.631858594164,0.851635496482,0.192304789528,0.521970143005,-0.631858594164,-0.631858594164,-0.961523947641,-0.961523947641,0.192304789528,-0.631858594164,-0.631858594164,-0.961523947641,1.67579888017,0.851635496482,0.521970143005,0.521970143005,1.67579888017,-0.961523947641,0.192304789528,-0.631858594164,0.521970143005,0.521970143005,3.15929297082,-0.961523947641,-0.961523947641,3.15929297082,-0.961523947641,0.192304789528,-0.961523947641,0.521970143005,-0.961523947641,-0.961523947641,0.521970143005,0.192304789528,-0.961523947641,0.192304789528,-0.961523947641,0.192304789528,-0.961523947641,0.521970143005,0.192304789528,-0.961523947641,0.851635496482
p007,m,sad,-0.600738857609,-0.946073769767,0.0899309667079,-0.946073769767,-0.946073769767,0.0899309667079,0.435265878866,0.435265878866,-0.946073769767,-0.946073769767,-0.946073769767,0.607933334945,-0.600738857609,0.435265878866,0.0899309667079,0.435265878866,0.953268247104,0.0899309667079,-0.946073769767,2.16194043966,-0.25540394545,-0.25540394545,-0.946073769767,0.780600791025,-0.946073769767,-0.600738857609,-0.946073769767,2.6799428079,0.0899309667079,0.780600791025,0.780600791025,-0.600738857609,0.607933334945,-0.946073769767,3.02527772005,-0.946073769767,-0.946073769767,-0.946073769767,-0.946073769767,0.780600791025,0.0899309667079,-0.946073769767,0.0899309667079,0.607933334945,1.47127061534,-0.946073769767,1.64393807142,-0.25540394545
p007,m,sup,1.16676790395,-1.16106243743,-0.202544061566,-0.202544061566,-0.202544061566,-0.47640645467,-0.202544061566,-0.202544061566,0.208249528089,1.16676790395,3.63152944189,0.755974314297,-0.47640645467,1.85142388671,0.345180724641,-0.202544061566,0.755974314297,-1.16106243743,-1.16106243743,-0.47640645467,0.755974314297,0.755974314297,1.3036991005,-0.47640645467,1.3036991005,0.755974314297,-1.16106243743,-0.202544061566,-1.16106243743,1.16676790395,-0.47640645467,-1.16106243743,-1.16106243743,-1.16106243743,0.482111921193,1.44063029706,-1.16106243743,-1.16106243743,0.482111921193,0.345180724641,-1.16106243743,-0.202544061566,-0.202544061566,-0.47640645467,-0.47640645467,-1.16106243743,0.208249528089,0.208249528089
p008,f,ang,-0.342244757598,0.244460541142,-1.41787113862,1.12451848925,-0.635597406968,1.41787113862,-0.831165839882,-0.537813190512,2.98241860193,0.342244757598,1.32008692217,0.244460541142,0.635597406968,-1.12451848925,-0.537813190512,0.146676324685,-0.0488921082283,-0.342244757598,0.244460541142,-0.0488921082283,-0.146676324685,-1.12451848925,1.61343957154,-0.635597406968,-0.635597406968,0.146676324685,0.537813190512,0.342244757598,1.61343957154,-0.635597406968,-0.537813190512,-0.244460541142,-1.12451848925,0.244460541142,-0.146676324685,-0.733381623425,-1.51565535508,2.00457643736,1.41787113862,-1.41787113862,1.41787113862,-1.12451848925,0.928950056339,0.0488921082283,-0.244460541142,-1.51565535508,-0.831165839882,-0.537813190512
p008,f,dis,0.324854032713,-0.282665197296,-0.687678017301,-0.687678017301,2.95743736275,-0.282665197296,-0.0801587872928,-0.282665197296,2.55242454274,0.628613647717,0.729866852719,0.932373262721,0.324854032713,0.83112005772,0.223600827711,-0.282665197296,-0.687678017301,0.527360442716,-0.282665197296,-0.890184427304,-0.890184427304,-0.0801587872928,0.223600827711,-0.282665197296,-0.282665197296,0.0210944177086,-0.890184427304,1.84365210773,-0.890184427304,1.84365210773,2.45117133774,-0.0801587872928,-0.890184427304,0.12234762271,-0.890184427304,-0.890184427304,-0.890184427304,-0.0801587872928,-0.890184427304,-0.890184427304,1.53989249273,-0.687678017301,-0.890184427304,-0.890184427304,-0.890184427304,-0.890184427304,0.324854032713,-0.890184427304
p008,f,fea,0.0,0.0,0.0,0.0,0.0,0.0,0.0,0.0,0.0,0.0,0.0,0.0,0.0,0.0,0.0,0.0,0.0,0.0,0.0,0.0,0.0,0.0,0.0,0.0,0.0,0.0,0.0,0.0,0.0,0.0,0.0,0.0,0.0,0.0,0.0,0.0,0.0,0.0,0.0,0.0,0.0,0.0,0.0,0.0,0.0,0.0,0.0,0.0
p008,f,hap,0.75423444179,-0.334585203501,-0.969729996587,-0.425320173942,0.844969412231,-0.425320173942,-1.42340484879,0.935704382672,-1.42340484879,-0.425320173942,0.572764500908,-0.24385023306,-1.06046496703,2.93187373237,0.0283546782628,-0.334585203501,-0.0623802921781,-1.06046496703,1.29864426444,2.20599396884,1.20790929399,2.29672893929,-0.606790114823,-1.15119993747,0.209824619145,0.844969412231,1.29864426444,0.0283546782628,-0.878995026146,-0.0623802921781,0.209824619145,-0.334585203501,0.482029530467,0.119089648704,0.391294560026,-0.516055144383,-0.334585203501,0.844969412231,-1.06046496703,-0.788260055705,-0.516055144383,-1.42340484879,-0.516055144383,-0.153115262619,-1.42340484879,0.663499471349,-1.15119993747,0.935704382672
p008,f,ntr,-1.17572553802,-1.17572553802,1.56050844137,2.24456693622,-0.662681666883,-1.00471091431,-1.17572553802,-0.662681666883,-0.149637795748,0.534420699099,-0.833696290594,0.021376827964,-0.662681666883,0.192391451676,-1.17572553802,2.24456693622,1.90253768879,-1.17572553802,-0.320652419459,-0.149637795748,-0.491667043171,0.021376827964,0.192391451676,-0.149637795748,-0.149637795748,-1.00471091431,-1.17572553802,0.534420699099,0.192391451676,1.90253768879,0.021376827964,-0.491667043171,-0.662681666883,0.192391451676,0.876449946522,0.70543532281,2.92862543106,0.192391451676,-0.320652419459,0.192391451676,0.70543532281,-0.662681666883,-0.149637795748,-1.17572553802,-0.149637795748,0.192391451676,-1.17572553802,0.534420699099
p008,f,sad,2.08166599947,-0.480384461415,-0.480384461415,-0.480384461415,-0.480384461415,-0.480384461415,-0.480384461415,-0.480384461415,-0.480384461415,2.08166599947,-0.480384461415,-0.480384461415,-0.480384461415,-0.480384461415,-0.480384461415,-0.480384461415,-0.480384461415,-0.480384461415,-0.480384461415,-0.480384461415,-0.480384461415,-0.480384461415,-0.480384461415,2.08166599947,-0.480384461415,2.08166599947,2.08166599947,-0.480384461415,-0.480384461415,-0.480384461415,-0.480384461415,-0.480384461415,-0.480384461415,-0.480384461415,2.08166599947,2.08166599947,2.08166599947,-0.480384461415,-0.480384461415,-0.480384461415,-0.480384461415,-0.480384461415,2.08166599947,-0.480384461415,-0.480384461415,-0.480384461415,-0.480384461415,-0.480384461415
p008,f,sup,1.08797462256,0.532413113168,0.643525415047,0.643525415047,-1.6898329244,-0.0231483962247,-1.6898329244,0.42130081129,-0.467597603739,-1.6898329244,1.08797462256,-0.0231483962247,1.19908692444,1.31019922632,1.19908692444,1.4213115282,-0.467597603739,0.310188509411,-0.800934509375,-1.6898329244,-0.356485301861,1.08797462256,-0.912046811254,-1.35649601877,-1.02315911313,-0.689822207496,-0.356485301861,-1.02315911313,1.08797462256,0.976862320683,0.754637716926,-1.6898329244,0.310188509411,-1.6898329244,0.532413113168,0.310188509411,-0.356485301861,1.53242383008,1.4213115282,0.42130081129,0.0879639056539,0.754637716926,0.532413113168,-1.13427141501,0.532413113168,0.532413113168,-1.46760832065,-0.134260698103
p008,m,ang,1.54647756454,0.0707136858536,2.43193589175,-1.10989741709,-0.962321029225,0.218290073722,-0.0768627020147,1.2513247888,-1.10989741709,-0.0768627020147,2.28435950388,-1.10989741709,0.513442849459,0.513442849459,-0.667168253488,-0.0768627020147,1.69405395241,0.218290073722,0.661019237327,1.54647756454,0.0707136858536,1.54647756454,-0.51959186562,-1.10989741709,-0.0768627020147,-0.51959186562,0.956172013063,1.54647756454,-0.667168253488,1.39890117667,-1.10989741709,-0.51959186562,-0.962321029225,-1.10989741709,-0.962321029225,-0.51959186562,-0.667168253488,-1.10989741709,-0.667168253488,-1.10989741709,-0.0768627020147,-0.962321029225,0.218290073722,-0.0768627020147,-0.0768627020147,-0.51959186562,-1.10989741709,0.956172013063
p008,m,dis,-1.05151687579,0.013872254298,0.812914101863,0.013872254298,0.013872254298,1.21243502565,0.812914101863,0.013872254298,-1.05151687579,-1.05151687579,0.812914101863,0.013872254298,0.013872254298,-1.05151687579,0.013872254298,0.013872254298,2.01147687321,-1.05151687579,0.013872254298,-1.05151687579,-1.05151687579,1.07926138438,0.946087743124,1.21243502565,0.013872254298,-1.05151687579,0.147045895559,0.013872254298,-0.252475028224,-1.05151687579,0.013872254298,-1.05151687579,-1.05151687579,1.87830323195,-1.05151687579,-1.05151687579,1.07926138438,1.21243502565,-1.05151687579,1.07926138438,-1.05151687579,0.013872254298,-0.252475028224,1.07926138438,-0.252475028224,3.0768660033,-1.05151687579,-1.05151687579
p008,m,fea,2.08760143983,-0.179477046863,0.273938650475,-1.08630844154,-0.179477046863,0.727354347813,-1.08630844154,0.727354347813,1.63418574249,-1.08630844154,1.63418574249,0.273938650475,-0.179477046863,0.727354347813,0.727354347813,-0.179477046863,-1.08630844154,0.273938650475,-1.08630844154,0.273938650475,-1.08630844154,-1.08630844154,-1.08630844154,-1.08630844154,0.273938650475,1.18077004515,-1.08630844154,-0.179477046863,1.18077004515,-1.08630844154,-0.179477046863,-1.08630844154,-0.179477046863,-1.08630844154,0.273938650475,-1.08630844154,2.08760143983,0.273938650475,2.08760143983,-0.179477046863,0.273938650475,-1.08630844154,1.63418574249,-0.179477046863,0.727354347813,0.727354347813,-1.08630844154,-1.08630844154
p008,m,hap,0.219064827046,-0.340249624987,-0.340249624987,2.12073396396,-1.12328985783,-0.787701186614,0.554653498266,0.666516388673,-0.675838296207,-0.340249624987,-1.45887852905,0.219064827046,-1.45887852905,0.554653498266,-1.45887852905,-1.45887852905,1.89700818315,-0.89956407702,-0.116523844174,-0.116523844174,2.45632263518,-0.116523844174,-1.45887852905,0.44279060786,0.890242169486,1.56141951193,1.78514529274,-0.00466095376694,1.1139679503,-0.675838296207,1.56141951193,-0.675838296207,0.10720193664,-1.12328985783,1.67328240233,0.330927717453,-0.22838673458,-0.787701186614,0.10720193664,-0.340249624987,-0.787701186614,0.330927717453,-0.452112515394,-0.452112515394,0.44279060786,-0.00466095376694,-0.89956407702,-0.452112515394
p008,m,ntr,0.366424165917,-0.880977249971,0.491164307506,-1.00571739156,-1.13045753315,-0.756237108382,-0.756237108382,-0.880977249971,0.366424165917,0.11694388274,-0.382016683616,-0.382016683616,-1.13045753315,-1.13045753315,1.61382558181,-0.880977249971,-1.13045753315,-0.0077962588493,-0.880977249971,1.11486501545,-1.00571739156,1.48908544022,-0.756237108382,0.241684024328,-0.631496966793,-0.880977249971,0.865384732272,1.36434529863,-0.382016683616,3.23544742246,1.48908544022,-0.0077962588493,-0.880977249971,-1.13045753315,-0.132536400438,1.48908544022,-0.132536400438,0.11694388274,0.865384732272,0.491164307506,-0.756237108382,0.241684024328,-0.0077962588493,-0.756237108382,2.36226643134,-0.132536400438,0.615904449095,-0.0077962588493
p008,m,sad,1.64082530828,-0.60944940022,-0.60944940022,-0.60944940022,1.64082530828,-0.60944940022,-0.60944940022,-0.60944940022,-0.60944940022,-0.60944940022,-0.60944940022,-0.60944940022,-0.60944940022,1.64082530828,-0.60944940022,1.64082530828,-0.60944940022,1.64082530828,-0.60944940022,-0.60944940022,-0.60944940022,-0.60944940022,-0.60944940022,-0.60944940022,1.64082530828,-0.60944940022,1.64082530828,-0.60944940022,-0.60944940022,1.64082530828,1.64082530828,-0.60944940022,-0.60944940022,-0.60944940022,-0.60944940022,-0.60944940022,1.64082530828,-0.60944940022,-0.60944940022,-0.60944940022,-0.60944940022,-0.60944940022,1.64082530828,-0.60944940022,-0.60944940022,1.64082530828,1.64082530828,-0.60944940022
p008,m,sup,-0.303269894559,-0.812763317417,-0.739978542723,-1.10390241619,0.424577852382,-1.10390241619,-1.10390241619,0.934071275241,0.0606539789117,-1.10390241619,2.24419721973,-0.594408993335,-0.594408993335,-1.10390241619,0.788501725853,0.642932176464,-0.885548092111,1.51634947279,-0.448839443947,0.861286500547,0.57014740177,-0.667193768029,-0.157700345171,-0.0849155704764,-0.739978542723,-1.10390241619,-0.0849155704764,1.80748857157,-1.0311176415,0.424577852382,-0.812763317417,-0.594408993335,0.2062235283,0.2062235283,2.53533631851,-1.0311176415,0.642932176464,-0.230485119865,0.351793077688,-0.885548092111,-1.10390241619,-0.0849155704764,0.788501725853,-0.303269894559,1.07964082463,-0.376054669253,0.2062235283,2.89926019198
p009,f,ang,-0.171584439903,-0.0900393595532,1.05159176535,-0.00849427920313,-0.416219680953,0.806956524297,0.888501604648,0.480776202897,-1.06858032375,-1.06858032375,0.725411443947,-0.742400002354,0.399231122547,0.725411443947,-0.905490163054,-0.905490163054,0.725411443947,0.0730508011469,-0.171584439903,-1.06858032375,-0.253129520253,-1.06858032375,3.2533089348,0.643866363597,-0.742400002354,-0.742400002354,0.236140961847,-1.06858032375,0.0730508011469,-0.579309841654,3.7425794169,-1.06858032375,0.317686042197,0.970046684998,-1.06858032375,-1.06858032375,-0.579309841654,0.154595881497,0.399231122547,0.399231122547,0.317686042197,-1.06858032375,-0.416219680953,-1.06858032375,0.236140961847,0.0730508011469,0.970046684998,-0.253129520253
p009,f,dis,0.0254796021884,-0.484112441579,-1.19754130285,0.229316419695,0.229316419695,-1.19754130285,-0.586030850333,-0.0764388065651,1.86001095975,-0.382194032826,-0.280275624072,-1.19754130285,-0.78986766784,0.331234828449,0.229316419695,0.229316419695,-1.50329652911,-0.891786076593,-1.60521493787,-0.891786076593,1.04466368972,0.229316419695,2.26768459477,-0.78986766784,0.535071645956,-1.19754130285,1.55425573349,-0.78986766784,-1.60521493787,0.94274528097,1.96192936851,0.331234828449,1.14658209848,-0.586030850333,1.35041891598,0.636990054709,-0.484112441579,0.0254796021884,0.433153237202,-0.0764388065651,1.35041891598,-1.19754130285,-1.50329652911,1.24850050723,0.0254796021884,0.331234828449,1.14658209848,-0.382194032826
p009,f,fea,-0.408876917224,-0.054188507102,0.536958843101,-0.763565327346,0.773417783182,-0.527106387265,-0.763565327346,-0.881794797386,-0.290647447183,1.00987672326,1.00987672326,1.00987672326,-0.172417977143,-0.172417977143,-0.054188507102,-0.881794797386,-0.527106387265,0.30049990302,1.71925354351,-0.290647447183,0.182270432979,-0.054188507102,0.0640409629387,-0.527106387265,-0.172417977143,-1.11825373747,-1.00002426743,-1.11825373747,-1.11825373747,3.84738400424,0.773417783182,-1.11825373747,-0.290647447183,2.66508930383,-0.527106387265,-0.763565327346,-0.527106387265,-0.290647447183,-0.763565327346,-0.645335857305,-0.054188507102,1.00987672326,-0.290647447183,-0.290647447183,-0.763565327346,-0.054188507102,2.07394195363,0.30049990302
p009,f,hap,-1.20125660454,-0.0924043541958,0.210009895899,0.613228896026,0.109205145868,-0.798037604418,-0.697232854386,-0.697232854386,0.613228896026,-1.20125660454,-0.596428104354,0.915643146122,0.411619395963,0.714033646058,-1.20125660454,-0.596428104354,0.714033646058,-0.596428104354,2.02449539647,-0.798037604418,-0.798037604418,-0.798037604418,2.52851914663,0.613228896026,-0.294013854259,-0.0924043541958,-1.20125660454,0.109205145868,0.411619395963,1.31886214625,-0.193209104227,1.92369064644,-0.798037604418,-1.30206135458,-0.798037604418,-0.193209104227,-0.0924043541958,2.02449539647,-0.798037604418,2.1253001465,0.109205145868,-1.20125660454,-0.193209104227,-0.294013854259,0.512424145995,1.41966689628,-1.30206135458,-0.596428104354
p009,f,ntr,-0.607224184953,-0.370258649362,-1.08115525614,0.340637957413,-0.0148103459745,-1.08115525614,-0.607224184953,-0.370258649362,-0.251775881566,-0.844189720544,-1.08115525614,-0.370258649362,-0.0148103459745,1.17001733198,-0.844189720544,-1.08115525614,1.88091393876,0.6960862608,-1.08115525614,0.222155189617,-0.844189720544,0.222155189617,0.933051796391,-0.0148103459745,-0.13329311377,-0.13329311377,-0.251775881566,1.28850009978,-1.08115525614,3.77663822349,1.28850009978,0.6960862608,0.814569028595,-0.0148103459745,2.59181054553,-0.488741417157,-0.844189720544,0.933051796391,-0.607224184953,-0.0148103459745,-0.844189720544,-0.251775881566,-0.251775881566,-1.08115525614,0.814569028595,0.103672421821,-0.607224184953,-0.607224184953
p009,f,sad,-1.03111576498,-0.533693084385,-0.0362704037931,0.709863617094,0.709863617094,-1.03111576498,0.461152276798,0.461152276798,0.461152276798,-0.533693084385,1.20728629769,0.709863617094,-1.03111576498,1.45599763798,-0.0362704037931,0.461152276798,-1.03111576498,0.95857495739,-0.533693084385,-1.03111576498,-1.03111576498,-0.533693084385,-1.03111576498,-0.533693084385,1.95342031857,1.70470897828,-0.533693084385,-1.03111576498,2.20213165887,1.45599763798,-1.03111576498,-0.0362704037931,-1.03111576498,-0.533693084385,0.461152276798,1.95342031857,-1.03111576498,1.70470897828,0.709863617094,0.461152276798,-0.533693084385,-1.03111576498,-1.03111576498,-0.0362704037931,-1.03111576498,-1.03111576498,-1.03111576498,0.709863617094
p009,f,sup,-0.304899398511,0.659093909355,-0.743078174813,-1.00598544059,1.79835872774,-0.12962788799,1.885994483,-0.21726364325,-0.12962788799,-0.12962788799,-1.00598544059,0.483822398834,-0.918349685334,-0.743078174813,-0.21726364325,-0.830713930074,-0.304899398511,-0.918349685334,-0.12962788799,-0.21726364325,-1.00598544059,3.37580232243,-0.304899398511,-0.12962788799,-0.304899398511,-0.041992132729,-0.304899398511,-0.21726364325,-0.12962788799,-0.041992132729,2.41180901457,2.58708052509,-0.041992132729,-0.743078174813,0.571458154095,-0.21726364325,-0.743078174813,-0.12962788799,0.746729664616,-0.830713930074,2.06126599352,-0.830713930074,-0.304899398511,-0.918349685334,-0.743078174813,-0.041992132729,-0.304899398511,-0.304899398511
p009,m,ang,1.0004150731,-1.45393657291,0.253438485185,-0.813670926122,2.28094636667,-0.813670926122,0.253438485185,-1.45393657291,-0.386827161599,1.10712601423,1.21383695536,-0.173405279337,-0.0666943382067,0.573571308578,1.10712601423,0.253438485185,-0.920381867252,1.42725883762,1.64068071988,-0.386827161599,-1.34722563178,1.64068071988,-0.280116220468,-0.49353810273,-0.60024904386,-1.34722563178,0.786993190839,1.10712601423,-0.0666943382067,1.96081354328,-1.13380374951,-0.173405279337,-0.920381867252,0.466860367447,-0.813670926122,0.466860367447,-1.13380374951,1.32054789649,-1.02709280838,-1.13380374951,-0.49353810273,0.360149426316,1.0004150731,-0.706959984991,-1.34722563178,-0.280116220468,-0.813670926122,0.360149426316
p009,m,dis,-1.06818203288,-1.06818203288,0.173718185278,-1.3343035082,-0.00369613160166,-0.00369613160166,-0.447231923801,0.173718185278,0.617253977477,-0.0924032900415,0.0850110268382,-0.00369613160166,0.173718185278,-0.00369613160166,-0.890767716,-0.447231923801,-0.0924032900415,-0.181110448481,-1.3343035082,-0.0924032900415,-1.15688919132,2.48010430471,0.705961135917,-1.3343035082,-0.0924032900415,-0.890767716,-0.97947487444,-0.00369613160166,3.36717588911,0.705961135917,-0.00369613160166,0.439839660597,0.883375452797,0.794668294357,1.06078976968,-0.00369613160166,-0.181110448481,3.27846873067,-0.97947487444,-0.80206055756,-0.97947487444,-0.0924032900415,-0.535939082241,0.0850110268382,0.0850110268382,-0.535939082241,-0.0924032900415,0.617253977477
p009,m,fea,-1.08536190794,-1.08536190794,0.844170372841,-1.08536190794,-0.506502223705,1.42303005708,0.651217144763,1.42303005708,0.265310688607,-1.08536190794,1.42303005708,-0.313548995627,-0.506502223705,0.844170372841,0.651217144763,2.58074942554,1.230076829,-1.08536190794,-0.506502223705,1.42303005708,-1.08536190794,-1.08536190794,0.651217144763,0.651217144763,-0.313548995627,0.651217144763,-1.08536190794,0.0723574605292,0.0723574605292,2.9666558817,-0.506502223705,0.0723574605292,0.0723574605292,-1.08536190794,0.0723574605292,0.0723574605292,-1.08536190794,-1.08536190794,0.0723574605292,-0.313548995627,0.651217144763,-0.506502223705,-1.08536190794,-1.08536190794,-0.506502223705,-1.08536190794,0.651217144763,-0.313548995627
p009,m,hap,0.904472259171,-1.06892176084,0.45597361826,-1.2483212172,-1.2483212172,0.904472259171,0.276574161895,-0.620423119927,-1.2483212172,-0.889522304474,1.2632711719,0.276574161895,-1.2483212172,1.53237035645,0.725072802806,-0.171924479016,-0.530723391745,-0.0822247508337,-0.710122848109,-1.06892176084,1.71176981281,-0.261624207198,0.186874433713,-0.620423119927,0.545673346442,-0.530723391745,-0.530723391745,0.186874433713,2.69846682281,0.00747497734852,0.186874433713,-0.979222032656,0.725072802806,-0.979222032656,0.276574161895,1.89116926917,1.44267062826,-1.2483212172,0.0971747055307,-0.799822576291,0.45597361826,-1.2483212172,0.45597361826,-0.979222032656,-0.35132393538,0.366273890077,2.16026845372,-1.06892176084
p009,m,ntr,-1.00280643674,-1.00280643674,1.69273726522,0.280785802288,2.20617416084,-1.00280643674,0.152426578385,1.82109648913,-0.746087988938,0.280785802288,0.280785802288,-0.874447212841,-0.746087988938,0.152426578385,0.922581921805,-0.104291869421,-0.489369541131,1.05094114571,1.69273726522,-0.104291869421,-1.00280643674,-1.00280643674,-1.00280643674,-0.361010317228,-1.00280643674,-0.232651093325,-0.361010317228,-0.361010317228,2.46289260864,2.59125183255,-0.746087988938,-0.746087988938,0.152426578385,-0.874447212841,0.794222697902,-0.489369541131,-1.00280643674,0.152426578385,-0.361010317228,1.17930036961,-1.00280643674,-0.361010317228,-0.104291869421,-0.361010317228,0.665863473998,-0.874447212841,-1.00280643674,0.794222697902
p009,m,sad,-0.732965350855,-0.195830437251,-0.732965350855,0.341304476352,-0.732965350855,-0.195830437251,-0.195830437251,-0.464397894053,-0.195830437251,-0.732965350855,-0.732965350855,0.609871933154,2.48984413077,-0.464397894053,-0.195830437251,0.0727370195505,-0.464397894053,-0.195830437251,2.22127667396,-0.464397894053,2.75841158757,-0.732965350855,-0.195830437251,-0.732965350855,-0.464397894053,-0.195830437251,-0.464397894053,2.48984413077,-0.195830437251,-0.732965350855,0.0727370195505,-0.195830437251,-0.732965350855,-0.195830437251,3.02697904437,0.0727370195505,0.0727370195505,0.0727370195505,-0.732965350855,1.95270921716,-0.732965350855,-0.732965350855,-0.195830437251,-0.195830437251,-0.732965350855,-0.195830437251,-0.464397894053,-0.732965350855
p009,m,sup,-0.0312099971895,0.568021948849,-0.131081988196,-0.131081988196,1.76648584093,-1.02992990725,-0.131081988196,-0.430697961215,-0.430697961215,2.16597380495,0.568021948849,-0.430697961215,-1.02992990725,1.06738190388,-1.02992990725,-0.131081988196,-0.330825970209,-1.02992990725,0.26840597583,0.168533984823,-1.02992990725,-1.02992990725,-0.330825970209,-1.02992990725,2.06610181394,0.26840597583,-1.02992990725,-0.430697961215,-1.02992990725,3.36443769703,-0.131081988196,-1.02992990725,-0.330825970209,-1.02992990725,0.26840597583,-0.430697961215,0.468149957842,0.568021948849,2.16597380495,-1.02992990725,1.26712588589,0.568021948849,0.168533984823,-1.02992990725,-0.131081988196,-0.131081988196,-0.430697961215,0.168533984823
p011,f,ang,0.783720619531,-1.21912096372,-0.435400344184,1.13204089488,0.957880757205,0.609560481858,1.30620103255,0.957880757205,-0.26124020651,1.04496082604,0.348320275347,-0.609560481858,-1.21912096372,1.21912096372,-1.21912096372,1.21912096372,-1.21912096372,1.56744123906,-1.48036117023,0.870800688368,0.435400344184,0.522480413021,1.30620103255,0.174160137674,1.30620103255,-1.48036117023,2.90034892226e-16,1.04496082604,-0.435400344184,1.04496082604,-0.696640550695,-0.522480413021,-1.21912096372,2.90034892226e-16,0.870800688368,0.348320275347,-1.48036117023,-1.48036117023,1.39328110139,0.696640550695,-1.21912096372,-1.48036117023,-1.21912096372,-1.48036117023,-0.0870800688368,-0.26124020651,-0.435400344184,2.90034892226e-16
p011,f,dis,1.037243962,0.437392032168,-1.36216375732,-0.282430283628,-1.36216375732,0.0774808742697,0.797303190066,1.15721434796,0.0774808742697,-0.762311827492,0.0774808742697,-0.642341441526,0.437392032168,-0.642341441526,-0.642341441526,-1.36216375732,1.27718473393,0.437392032168,0.917273576032,-0.52237105556,0.197451260236,-0.0424895116963,0.437392032168,0.6773328041,-0.642341441526,-1.36216375732,0.317421646202,-0.162459897662,-0.162459897662,-0.642341441526,4.15647399711,0.0774808742697,-1.36216375732,0.557362418134,0.557362418134,-0.402400669594,-0.642341441526,-0.762311827492,-0.282430283628,-0.762311827492,1.87703666376,-0.642341441526,1.15721434796,-1.36216375732,-0.642341441526,1.15721434796,-0.402400669594,-0.0424895116963
p011,f,fea,-0.891477303328,-0.891477303328,-0.375924164054,-0.375924164054,-0.375924164054,-0.891477303328,0.48333106807,0.13962897522,-0.204073117629,-0.891477303328,1.34258630019,-0.0322220712046,-0.891477303328,-0.891477303328,-0.719626256904,2.02999048589,-0.204073117629,-0.719626256904,-0.719626256904,1.34258630019,0.48333106807,-0.891477303328,1.34258630019,2.54554362517,-0.891477303328,-0.891477303328,1.51443734662,-0.891477303328,-0.375924164054,-0.375924164054,-0.375924164054,-0.719626256904,1.34258630019,-0.719626256904,1.51443734662,-0.719626256904,-0.0322220712046,0.48333106807,-0.719626256904,-0.891477303328,2.02999048589,-0.891477303328,-0.375924164054,2.02999048589,-0.204073117629,-0.204073117629,-0.719626256904,1.34258630019
p011,f,hap,-0.865591457512,-0.865591457512,-0.865591457512,0.427408230058,0.858408125915,-0.865591457512,-0.951791436683,-1.55519129088,-1.2103913742,0.599808188401,0.427408230058,-1.2103913742,-0.0897916449701,-0.520791540827,1.2032080426,-0.434591561655,-1.03799141585,1.28940802177,0.513608209229,2.06520783431,1.37560800094,2.06520783431,-0.434591561655,0.341208250887,-0.779391478341,0.686008167572,-0.951791436683,-0.0897916449701,-1.55519129088,1.89280787597,-1.2103913742,0.0826083133725,0.168808292544,-0.779391478341,-0.951791436683,-0.0897916449701,1.46180798011,-0.348391582484,-0.175991624141,0.427408230058,-0.865591457512,1.46180798011,1.37560800094,-1.55519129088,-0.0897916449701,0.599808188401,0.341208250887,0.686008167572
p011,f,ntr,-0.488340941665,0.125281183987,-0.733789791926,-0.242892091404,-0.365616516535,0.493454459379,-1.34741191758,0.370730034248,0.248005609118,-1.47013634271,-0.242892091404,-0.856514217057,0.370730034248,2.08887198608,0.00255675885689,-0.979238642187,1.47524986042,-1.34741191758,0.125281183987,1.72069871068,0.00255675885689,2.33432083634,2.5797696866,-0.488340941665,0.616178884509,-0.120167666274,1.35252543529,-0.242892091404,-0.365616516535,0.86162773477,-0.120167666274,-0.488340941665,-0.365616516535,-0.488340941665,-0.488340941665,-1.34741191758,-1.47013634271,-0.120167666274,0.616178884509,1.10707658503,-0.733789791926,-1.10196306732,1.22980101016,0.125281183987,-1.10196306732,0.984352159901,-1.34741191758,-0.365616516535
p011,f,sad,-0.377964473009,-0.377964473009,-0.377964473009,-0.377964473009,-0.377964473009,-0.377964473009,-0.377964473009,2.64575131106,2.64575131106,-0.377964473009,-0.377964473009,-0.377964473009,-0.377964473009,-0.377964473009,-0.377964473009,-0.377964473009,2.64575131106,-0.377964473009,-0.377964473009,2.64575131106,-0.377964473009,-0.377964473009,-0.377964473009,-0.377964473009,-0.377964473009,-0.377964473009,2.64575131106,-0.377964473009,-0.377964473009,-0.377964473009,-0.377964473009,-0.377964473009,2.64575131106,-0.377964473009,-0.377964473009,-0.377964473009,-0.377964473009,-0.377964473009,-0.377964473009,-0.377964473009,-0.377964473009,-0.377964473009,-0.377964473009,-0.377964473009,-0.377964473009,-0.377964473009,-0.377964473009,-0.377964473009
p011,f,sup,-0.498769534636,-0.626795939249,-0.626795939249,-0.882848748474,-0.626795939249,-0.626795939249,-0.114690320799,-0.626795939249,-1.1389015577,1.54965293916,-1.26692796231,-0.114690320799,-0.242716725411,0.653468106877,0.909520916102,0.141362488426,-0.882848748474,-1.26692796231,-0.242716725411,-0.242716725411,-0.370743130024,0.909520916102,0.269388893039,-0.370743130024,-0.370743130024,-0.114690320799,1.933732153,-1.26692796231,0.141362488426,2.9579433899,1.933732153,3.21399619913,0.397415297651,-1.26692796231,-0.754822343862,0.141362488426,-0.370743130024,1.16557372533,-0.498769534636,0.397415297651,-0.626795939249,0.525441702264,-0.114690320799,0.397415297651,-0.498769534636,-0.370743130024,0.269388893039,-0.882848748474
p011,m,ang,-0.487825631709,0.0618370519068,-0.487825631709,-0.487825631709,-0.487825631709,0.0618370519068,0.5015671988,-0.487825631709,-0.487825631709,-0.487825631709,-0.487825631709,-0.487825631709,-0.487825631709,-0.487825631709,-0.487825631709,-0.487825631709,-0.487825631709,0.0618370519068,5.00880120445,0.0618370519068,0.5015671988,-0.487825631709,1.05122988242,-0.487825631709,2.48035285982,-0.487825631709,0.0618370519068,1.05122988242,2.04062271293,-0.487825631709,-0.487825631709,0.0618370519068,-0.487825631709,-0.487825631709,-0.487825631709,-0.487825631709,0.0618370519068,0.0618370519068,-0.487825631709,-0.487825631709,-0.487825631709,-0.487825631709,1.49096002931,0.5015671988,-0.487825631709,-0.487825631709,-0.487825631709,-0.487825631709
p011,m,dis,-0.942370579789,-0.942370579789,1.1137106852,-1.04027921145,0.232533000208,-0.159101526458,0.722076158539,1.50534521187,-1.04027921145,0.526258895207,2.2886142652,-1.04027921145,-0.0611928947915,-0.844461948122,-0.159101526458,2.38652289687,-0.746553316456,-1.04027921145,-0.257010158124,0.0367157368749,-0.942370579789,0.526258895207,0.722076158539,-0.844461948122,0.624167526873,0.330441631874,-1.04027921145,-0.844461948122,0.0367157368749,-1.04027921145,0.526258895207,0.526258895207,-0.942370579789,0.624167526873,0.42835026354,0.0367157368749,-0.746553316456,-0.844461948122,-0.257010158124,3.36560921353,-0.550736053123,0.624167526873,0.134624368541,-1.04027921145,-0.942370579789,-0.159101526458,-0.257010158124,1.4074365802
p011,m,fea,-0.345143166575,-0.987269988109,0.939110476494,0.0401329263459,1.0675358408,-0.987269988109,-0.601993895189,-0.987269988109,0.425409019267,-0.987269988109,0.0401329263459,1.83808802664,0.0401329263459,0.810685112187,-0.987269988109,0.68225974788,-0.987269988109,1.0675358408,-0.345143166575,0.0401329263459,-0.987269988109,0.939110476494,-0.987269988109,2.9939163054,-0.987269988109,-0.345143166575,0.939110476494,1.83808802664,-0.987269988109,-0.987269988109,0.0401329263459,-0.987269988109,1.83808802664,-0.987269988109,1.32438656941,0.810685112187,-0.987269988109,-0.987269988109,0.553834383573,-0.345143166575,-0.601993895189,-0.987269988109,0.68225974788,-0.987269988109,1.0675358408,-0.601993895189,-0.345143166575,0.29698365496
p011,m,hap,1.72341774921,-1.68468926046,-0.961757470531,1.41358983924,-0.445377620582,0.0710022293681,0.277554169348,-0.342101650592,-0.961757470531,0.0710022293681,0.277554169348,0.484106109328,0.897209989288,0.484106109328,-0.238825680602,-1.06503344052,-0.0322737406219,-0.445377620582,1.92996968919,-1.16830941051,-1.78796523045,-0.0322737406219,-0.858481500541,0.897209989288,0.484106109328,-1.2715853805,-0.342101650592,1.10376192927,-0.0322737406219,-1.78796523045,-0.961757470531,-1.06503344052,-1.68468926046,-0.755205530551,0.897209989288,1.92996968919,1.10376192927,0.0710022293681,1.51686580923,-1.37486135049,0.587382079318,-0.0322737406219,1.20703789926,0.587382079318,-0.445377620582,0.587382079318,0.277554169348,0.897209989288
